Name,0,1,2,3,4,5,6,7,8,9,10,11,12,13,14,15,16,17,18,19,20,21,22,23,24,25,26,27,28,29,30,31,32,33,34,35,36,37,38,39,40,41,42,43,44,45,46,47,48,49,50,51,52,53,54,55,56,57,58,59,60,61,62,63,64,65,66,67,68,69,70,71,72,73,74,75,76,77,78,79,80,81,82,83,84,85,86,87,88,89,90,91,92,93,94,95,96,97,98,99,100,101,102,103,104,105,106,107,108,109,110,111,112,113,114,115,116,117,118,119,120,121,122,123,124,125,126,127,128,129,130,131,132,133,134,135,136,137,138,139,140,141,142,143,144,145,146,147,148,149,150,151,152,153,154,155,156,157,158,159,160,161,162,163,164,165,166,167,168,169,170,171,172,173,174,175,176,177,178,179,180,181,182,183,184,185,186,187,188,189,190,191,192,193,194,195,196,197,198,199,200,201,202,203,204,205,206,207,208,209,210,211,212,213,214,215,216,217,218,219,220,221,222,223,224,225,226,227,228,229,230,231,232,233,234,235,236,237,238,239,240,241,242,243,244,245,246,247,248,249,250,251,252,253,254,255,256,257,258,259,260,261,262,263,264,265,266,267,268,269,270,271,272,273,274,275,276,277,278,279,280,281,282,283,284,285,286,287,288,289,290,291,292,293,294,295,296,297,298,299,300,301,302,303,304,305,306,307,308,309,310,311,312,313,314,315,316,317,318,319,320,321,322,323,324,325,326,327,328,329,330,331,332,333,334,335,336,337,338,339,340,341,342,343,344,345,346,347,348,349,350,351,352,353,354,355,356,357,358,359,360,361,362,363,364,365,366,367,368,369,370,371,372,373,374,375,376,377,378,379,380,381,382,383,384,385,386,387,388,389,390,391,392,393,394,395,396,397,398,399,400,401,402,403,404,405,406,407,408,409,410,411,412,413,414,415,416,417,418,419,420,421,422,423,424,425,426,427,428,429,430,431,432,433,434,435,436,437,438,439,440,441,442,443,444,445,446,447,448,449,450,451,452,453,454,455,456,457,458,459,460,461,462,463,464,465,466,467,468,469,470,471,472,473,474,475,476,477,478,479,480,481,482,483,484,485,486,487,488,489,490,491,492,493,494,495,496,497,498,499,500,501,502,503,504,505,506,507,508,509,510,511,512,513,514,515,516,517,518,519,520,521,522,523,524,525,526,527,528,529,530,531,532,533,534,535,536,537,538,539,540,541,542,543,544,545,546,547,548,549,550,551,552,553,554,555,556,557,558,559,560,561,562,563,564,565,566,567,568,569,570,571,572,573,574,575,576,577,578,579,580,581,582,583,584,585,586,587,588,589,590,591,592,593,594,595,596,597,598,599,600,601,602,603,604,605,606,607,608,609,610,611,612,613,614,615,616,617,618,619,620,621,622,623,624,625,626,627,628,629,630,631,632,633,634,635,636,637,638,639,640,641,642,643,644,645,646,647,648,649,650,651,652,653,654,655,656,657,658,659,660,661,662,663,664,665,666,667,668,669,670,671,672,673,674,675,676,677,678,679,680,681,682,683,684,685,686,687,688,689,690,691,692,693,694,695,696,697,698,699,700,701,702,703,704,705,706,707,708,709,710,711,712,713,714,715,716,717,718,719,720,721,722,723,724,725,726,727,728,729,730,731,732,733,734,735,736,737,738,739,740,741,742,743,744,745,746,747,748,749,750,751,752,753,754,755,756,757,758,759,760,761,762,763,764,765,766,767
Red,-0.044316445,-0.0516854,-0.000138509,0.064086817,-0.015277105,-0.021452138,0.05905436,0.011457829,0.005623002,-0.028397443,0.020437943,-0.007831122,0.033455577,-0.009769645,-0.004855937,0.072149023,-0.050812423,0.023185255,-0.053713791,0.007734837,0.060594905,0.0242508,0.028243389,0.038385332,-0.017690632,0.026343379,0.02064335,0.014968996,-0.020925783,0.00955782,0.026625812,0.007060847,0.062443566,0.025855539,-0.051993512,-0.017587928,0.064651683,0.073586866,0.059003007,0.014866292,0.014224398,-0.014725076,-0.022504846,-0.050658368,0.014468318,0.033763688,0.0005757,0.030708266,0.005009992,-0.030887997,-0.017934551,0.029244745,0.006325877,-0.02376296,0.010129106,-0.006024186,-0.016804816,0.182503641,-0.030528536,-0.023968367,-0.006377229,0.014904806,-0.032094758,0.017125763,0.032094758,-0.011599046,0.026266351,-0.08858154,0.051377293,0.06131383,-0.05433001,-0.008652748,-0.015366971,0.023044037,0.024956886,0.100803219,0.045369152,-0.059003007,-0.037820466,0.023287958,-0.002978394,0.01543116,-0.029244745,0.064446278,-0.04655024,0.005860503,0.010828772,-0.139060169,0.026112296,0.041620485,0.027036626,0.011990602,0.065884121,-0.002437597,0.018794691,-0.030579887,0.055921908,0.024469044,-0.124373615,-0.046473213,0.063162491,0.00514479,-0.012991958,-0.007272672,0.037127219,-0.00090106,-0.009609171,0.029450152,-0.014442642,-0.060697611,0.053816494,0.025059588,-0.028217712,0.019128477,-0.039848853,0.047654301,-0.010937894,-0.028731229,0.021079838,-0.006390067,-0.020733215,-0.024122421,0.013890612,-0.038744792,-0.03466234,-0.011278098,-0.060492203,0.007035171,-0.008415246,-0.060697611,-0.048938088,0.020181185,0.040619127,0.042544812,0.029860964,0.082778804,0.009025047,0.021798762,0.028166361,0.066551693,-0.061159775,-0.025483239,0.049194846,0.047269162,-0.004618436,0.025932565,-0.019564966,-0.032325841,0.012266617,0.003015303,0.00881964,-0.054432712,0.048809711,0.026048107,0.010584852,0.023994042,-0.080519333,0.012934188,-0.043443467,-0.008280448,-0.019218342,0.046088073,0.015572377,0.006893954,-0.021567678,-0.003037769,-0.002671889,0.01028958,-0.081084199,0.007683485,0.019000098,0.038256954,0.05052999,-0.036665052,-0.002318846,0.050042149,0.036177214,0.020861594,0.025072426,-0.067784131,0.028474471,0.019577803,-0.017228467,0.014725076,-0.033969093,0.006688548,0.015225754,0.020027131,0.001515675,0.018794691,0.020630512,-0.032608274,0.062546268,0.038924526,-0.014121694,0.025252158,0.054740824,-0.011984183,-0.009236872,0.016047379,-0.021208217,-0.000762652,0.049400255,0.010244647,-0.024173774,0.02529067,0.03368666,0.012337225,0.016856167,0.022954172,0.000741389,-0.00330576,-0.058797602,0.046473213,0.046575915,0.071789555,-0.021182541,-0.014660886,-0.003809648,0.0603895,0.020437943,0.035304237,-0.040028583,-0.000737778,-0.072919294,0.02131092,-0.010610527,0.0089416,0.041671835,0.004759653,-0.018409554,-0.039848853,0.027062301,-0.006451047,0.011477086,0.042108323,-0.018409554,-0.019667668,-0.086065307,-0.046909701,0.014686562,0.020206861,-0.074459843,-0.028423119,0.033019088,0.01175952,-0.01224736,-0.09166263,-0.025945405,0.011380802,-0.036947489,0.00826761,0.025598781,0.041363727,-0.018332526,0.020938622,0.003325017,-0.008113556,-0.015071699,-0.031992055,0.053302977,0.061878696,-0.017806172,-0.054278657,-0.031760976,0.019937266,0.005183304,-0.066808455,0.013223041,-0.003026536,0.011297355,-0.045523208,0.019423749,-0.094230212,-0.00266547,0.040259667,-0.011201072,0.013518313,-0.012439929,-0.020309564,0.024764316,0.053302977,0.084678814,-0.036844783,0.02082308,-0.061262477,-0.036228564,-0.017164277,-0.055408392,-0.033763688,-0.037846141,-0.036100186,0.045138068,-0.0603895,0.003162939,-0.001035858,0.030605562,-0.030348806,0.029783936,0.010270323,-0.024083909,-0.06696251,-0.077694997,-0.008870992,-0.018448068,0.069992252,0.021118352,0.066192232,-0.007773351,-0.020348078,0.022017006,-0.063984111,-0.025431888,0.007612877,0.020579159,-0.041877244,-0.045908343,0.005154418,-0.006354762,0.003350693,0.022761604,0.004002217,-0.045189422,0.023557553,0.047448892,-0.008986533,-0.069581442,-0.034046121,-0.032659627,-0.016753465,-0.07348416,0.002495368,0.036793433,0.001140969,0.042159677,0.000373904,-0.020219699,-0.005000364,0.060184095,0.023737283,-0.007317605,-0.015623729,-0.004108129,0.000487038,-0.006364391,0.012844323,0.036665052,0.003073073,0.042313732,0.007946663,0.001227625,0.027421763,0.008601395,-0.014712238,0.096335635,0.061057072,-0.031889353,-0.056743536,0.010405121,-0.018358203,0.017973065,0.032351516,0.038539387,0.030092048,0.091765337,-0.060235444,0.023082551,0.102087013,0.004952222,0.033404227,-0.016727788,0.026805544,-0.059003007,-0.002684727,0.029963668,-0.047808353,-0.02952718,-0.022658901,0.002805082,0.047911059,-0.051377293,0.046396185,-0.046319157,-0.001888777,0.108968131,0.018050093,-0.021259569,0.027986631,0.013036892,-0.053508382,-0.07497336,-0.060594905,0.048989441,0.039052904,0.026292028,-0.024661614,-0.021619029,0.046832673,0.045061044,-0.030092048,-0.0325826,0.007856797,-0.003790391,0.012818647,-0.015161565,-0.047602948,-0.02952718,-0.023788637,0.038616415,-0.015610891,0.053046219,0.058951654,-0.008704099,-0.042442109,-0.035432614,-0.029758262,-0.013466961,0.059413821,-0.014789266,0.026369054,-0.00747166,0.011971345,-0.097516716,0.026497433,-0.040516425,-0.024096746,-0.001374458,0.040336695,0.022158222,-0.032556925,-0.055767853,-0.006945306,0.016522381,0.007131455,0.037640736,0.049348902,-0.02652311,-0.001132945,-0.005529927,0.038924526,0.049811069,-0.020861594,-0.008967276,0.01065546,-0.015867649,0.026369054,0.102035657,-0.072508484,-0.004197995,0.020964297,-0.030939348,0.051479995,-0.039309662,-0.03160692,-0.003020117,-0.01476359,-0.001877543,0.073176049,-0.026548786,0.047936734,-0.062084105,0.038179927,-0.004400191,-0.024353504,-0.015354133,0.05035026,0.02498256,0.027344735,0.003453396,-0.016573735,-0.027344735,0.015110213,-0.043289412,-0.005761009,0.006502398,0.008376732,-0.011226747,-0.016239949,-0.013139594,-0.013325744,-0.002655841,-0.02480283,-0.060748961,-0.001936919,0.036125861,0.004602388,0.001075977,-0.004968269,-0.010488568,-0.002087764,0.043032654,0.019988617,-0.022915658,-0.054946229,-0.023442013,0.024353504,-0.007060847,-0.06326519,0.000386742,-0.009865929,0.067886837,0.040670481,0.050632693,-0.017600765,0.018448068,0.043006979,0.022427818,0.035278559,-0.067630075,0.03253125,-0.021464976,-0.022889983,0.011643979,0.00673348,0.024558911,-0.008222678,0.058694895,0.02566297,0.00790173,-0.016958872,-0.038950201,-0.030348806,0.019308208,-0.049888093,0.020630512,0.014737913,0.029963668,-0.034765042,0.06511385,-0.028346092,0.00278743,-0.005886179,0.051788103,-0.034405582,0.013428448,0.018011579,-0.01414737,-0.010790259,0.083035566,-0.000229879,-0.032556925,-0.016496707,-0.031093404,-0.015469674,-0.031760976,-0.004393773,-0.005106276,0.027960954,-0.027524466,-0.026369054,0.035047479,-0.011246004,0.06136518,0.032890711,0.05623002,0.010636203,0.045805641,-0.011875061,-0.023852825,0.016368328,0.01580346,0.025547428,0.006518446,0.032146111,0.021426462,0.016034542,-0.010809515,-0.027832575,-0.028089333,-0.046267807,-0.045754291,-0.037281275,0.015880488,-0.041415077,0.014481155,0.019308208,-0.022209574,-0.027729873,-0.028500147,-0.031581245,-0.03050286,-0.039540745,0.000188958,0.006746319,-0.013787908,-0.001877543,-0.011258841,0.048578627,-0.028936636,-0.012683849,0.006441418,0.0143271,0.031889353,-0.01096357,-0.029475827,0.008376732,0.024507558,0.01255547,-0.020797404,0.041389402,0.001396924,0.061673291,0.017305495,0.015521026,0.008967276,-0.041594807,0.009519306,-0.014981834,0.056948941,-0.018910233,-0.050940804,-0.010052078,0.011053436,0.03956642,0.035612345,0.009037884,0.003424511,0.011682493,0.002185653,-0.060851663,-0.025829863,-0.073330104,-0.007298348,0.028269064,0.009224034,-0.027601494,-0.062032752,-0.080211222,-0.029167717,-0.012709524,-0.027396087,-0.019179828,-0.03466234,0.019564966,-0.038975876,0.041415077,0.013556827,-0.027447438,-0.058694895,-0.033198819,0.032736655,-0.039283987,0.029013664,0.011971345,0.013364258,-0.02358323,0.002476111,0.052635405,0.031478539,-0.012574727,0.027575817,0.044111039,-0.01414737,0.021503489,0.095976166,-0.009102073,-0.004506104,0.003960493,-0.026060944,-0.024263639,-0.037615057,-0.005809152,0.00912133,-0.045831315,0.03841101,0.000286245,0.00392198,-0.01390345,0.030708266,0.026163649,-0.011836547,0.02535486,0.05566515,-0.023326471,-0.008119974,0.025033914,0.007843959,0.06326519,-0.038000196,0.003633127,-0.021965653,-0.009140587,0.01892307,0.017741984,-0.033583958,-0.031119078,0.033660986,-0.00056567,-0.004612017,-0.040465072,-0.030579887,-0.066757098,0.027678521,-0.036305591,-0.023005525,0.018281175,0.012029116,-0.051582698,0.020219699,-0.012889256,0.022877146,0.027139328,-0.052198917,0.028192038,-0.040259667,0.047217812,0.011489924,-0.002925437,0.017998742,-0.045266449,0.00055885,0.031273134,-0.00404394,-0.004724348,0.016881844,-0.012523375,0.008838897,-0.049579985,-0.00832538,-0.037050191,0.013441285,0.065216549,-0.013113919,0.020309564,0.037563708,0.016689274,0.033660986,0.011348707,0.041594807,0.016073056,0.028654201,0.008351057,-0.012645335,-0.043494817,-0.025983917,0.005671144,0.028217712,-0.026343379,0.051274586,0.006893954,0.013011215,0.003143682,0.006643615,0.015135889,-0.013736557,0.001970618,-0.017844686,0.031940706,0.019333884,-0.002768173,0.029809613,-0.003832114,0.079440951,-0.027498791,-0.031221783,0.012420672,0.04257049,-0.005067762,-0.026831219,-0.011290937,-0.034765042,0.045240775,-0.082265288,-0.002866062,0.034456935,0.088427484,0.014827779,-0.023172416
Green,-0.017376661,-0.003899338,-0.007350694,-0.000129939,-0.037706222,0.019850029,0.071172386,0.007439028,-0.022689352,-0.059360798,0.045504898,0.021793388,0.021162428,0.01354042,0.007722961,0.077078179,-0.01111122,0.017755238,-0.020531466,0.00757784,0.071879059,-0.008631544,0.003470285,0.023913417,-0.024910334,-0.003738443,0.028494192,0.028418478,-0.013515182,0.008196182,-0.010246804,0.027408939,0.078895345,0.000910161,-0.056332186,-0.051637836,0.020518847,0.05819983,0.0085369,-0.011142769,0.006845925,-0.024064846,0.003094863,0.011874683,-0.011786349,0.046817295,0.01659427,0.015408064,-0.00805737,-0.061127488,-0.063903712,0.02402699,0.025844157,-0.00257432,-0.029074676,0.018411437,-0.035081424,0.205844671,-0.014133523,0.012606598,-0.015269252,0.038110036,-0.027030364,0.02385032,0.02917563,0.011193246,0.023812464,-0.043132484,0.042299617,0.056382664,-0.025263673,-0.000347423,-0.033264257,0.045176797,0.046413481,0.079400115,0.042451046,-0.089545965,-0.039271004,-0.013906377,0.036671445,0.010871455,-0.049568284,0.031043274,-0.002563278,0.016341886,0.021137189,-0.1322494,-0.017666904,0.039876726,0.005811149,0.010423473,0.022701971,-0.004744825,0.003738443,-0.028948484,0.050098293,0.027787516,-0.089596443,-0.021730293,0.075917207,-0.033895217,-0.035813339,0.010985029,0.019660741,0.028292285,0.006420027,0.014663531,0.025112242,-0.05189022,0.039094336,0.008732499,-0.037150975,0.017212613,-0.011508726,0.066528514,-0.025490819,-0.029680399,0.032507103,0.018461915,-0.041643415,-0.01677094,-0.019786932,-0.030084213,-0.012997794,0.005599778,-0.012985175,-0.023484362,0.010177399,-0.04805398,-0.058300782,0.03172471,0.057644583,7.51E-05,0.057997923,0.036696684,0.019130733,0.023080548,0.017326185,0.049139231,-0.084851615,-0.060471289,0.029806592,0.006461039,-0.033264257,0.021831246,-0.020354798,0.02917563,-0.01690975,0.014322812,0.022689352,-0.073948614,0.040835787,-0.013818042,0.005514598,-0.012789576,-0.055322647,-0.036570489,0.007224502,-0.050678775,-0.037504312,0.039901964,-0.019168591,-0.007836534,-0.00318793,-0.001590021,0.009861918,0.003527071,-0.093483157,0.015534257,0.066831373,0.012593979,0.072333351,-0.003315699,-0.025680106,0.03369331,0.006744971,0.020884804,0.007969036,-0.005117093,0.021591481,0.031977095,0.026878932,0.018032862,-0.018802634,0.033592355,0.034349509,0.013338513,-0.034399986,0.00379523,0.019206448,0.013452086,0.066528514,-0.028241808,0.015975928,0.048306365,0.054515019,-0.008682021,-0.022058392,0.02242435,9.12E-05,-0.017162135,0.055625509,0.026500355,-0.009584296,0.028923245,-0.01128158,0.011975637,-0.002274614,-0.010524428,0.00491203,0.019206448,-0.096612729,0.020695517,0.039043859,0.064105622,-0.035030946,-0.033920456,-0.008524281,0.060521767,-0.006997356,0.035106663,-0.024090085,-0.027661324,-0.080914423,-0.000828136,0.019938363,0.041845325,0.021667195,-0.007325456,-0.034576654,0.003151649,0.028014662,0.01272648,-0.030210406,0.062288456,-0.034425225,-0.014814961,-0.059562705,-0.034046646,0.010530736,0.008675712,-0.104487121,-0.024254136,-0.00950227,0.000438123,0.032204241,-0.090101212,0.024405565,0.041239601,-0.044293452,-0.013313274,-0.003482904,0.038715757,-0.002146844,0.063853242,0.013792804,0.023156263,-0.010082754,-0.044520598,0.006233893,0.058603644,-0.020594561,-0.057997923,-0.046463959,0.000363591,-0.030235644,-0.058250304,0.014398526,-0.011098602,-0.043864399,-0.046792056,-0.001880263,-0.058906507,-0.015736165,0.048609223,0.003530226,-0.039296243,0.022992214,-0.042955816,-0.005167569,0.021806007,0.016039025,0.020203367,0.02564225,-0.067538053,-0.03740336,-0.012045043,-0.064206578,-0.01919383,-0.00588371,0.010297281,0.042602476,-0.061632257,0.004830005,-0.006688185,0.039321482,-0.002539617,-0.029831829,0.011022886,0.018222149,-0.041592941,-0.09959086,-0.015647829,0.010429783,0.059562705,-0.015912833,0.044924412,-0.086971641,0.021578861,0.023433886,0.002861408,-0.037807174,-0.054464541,-0.043056767,-0.030260883,-0.033945695,0.028065139,0.006959498,0.014777103,0.030689936,0.027055601,-0.026626548,0.05365691,0.005871091,0.017856192,-0.10478998,-0.014461623,-0.014575195,-0.020733373,-0.079652496,-0.001356566,0.051259261,0.012164925,0.062641792,-0.042753909,0.029932782,-0.018108577,0.05819983,0.017490234,0.002462325,-0.013969474,-0.011754801,0.021541003,0.023711508,-0.042753909,0.019610263,0.007962726,0.045757283,0.018815253,0.001248514,0.017957145,0.00741379,-0.015294491,0.083387785,0.053051189,-0.000370492,-0.05189022,0.046918251,-0.045000128,0.009439174,0.001892883,0.045555376,0.030210406,0.093584113,-0.026500355,0.046993963,0.085861154,0.06738662,0.036545254,0.012120758,-0.009811441,-0.064458959,0.021970058,0.017010706,-0.051789265,0.026147017,-0.013641373,0.013906377,0.048255887,0.002053778,0.028317522,0.009029049,-0.035560954,0.055373125,0.064913251,0.0135278,0.0367724,0.025478199,-0.050174005,-0.042021994,-0.069102831,0.036797635,0.02562963,0.06344942,0.018083338,-0.02161672,0.06269227,0.049442094,-0.046766818,-0.03901862,0.0067639,0.006517826,0.036090963,-0.007590459,-0.047296826,-0.03629287,-0.046388242,0.058906507,-0.042021994,0.044899173,0.020733373,0.008461185,-0.011224793,-0.049214948,-0.016341886,0.00273837,0.021048855,0.030210406,-0.035207614,0.009117384,0.002743102,-0.054363586,0.036141437,-0.041163888,-0.02402699,0.018588107,0.042274378,0.077936284,-0.018373581,-0.070819043,-0.035131902,-0.004921495,-0.014272335,0.00146304,0.057190292,0.03914481,0.005766982,-0.008896548,0.048432555,0.062338933,-0.032153767,-0.007653555,-0.043435346,0.019597644,0.002992332,0.032759488,-0.058149353,-0.02144005,0.024241516,-0.05189022,0.066982806,0.018146435,-0.019471452,-0.008764046,0.01659427,0.024519138,0.048836369,0.001435436,0.031144228,-0.035838578,0.01919383,0.006953189,-0.063045606,-0.016972847,0.02000146,0.024001751,0.050174005,-0.008675712,-0.008612616,-0.00870095,-0.043233439,-0.065771356,0.010865146,-0.018663822,-0.007174025,0.026247971,0.002530153,0.007704032,-0.009111075,-0.013048271,-0.007981655,-0.082782067,0.018297864,0.011369915,0.000646341,-0.024922954,-0.015079965,0.019572405,0.02174291,0.018916206,0.045429181,-0.032784726,-0.019622883,-0.002689471,0.05042639,-0.036999546,-0.067134231,-0.019219067,0.02242435,0.00788701,0.065266594,0.02854467,0.01030359,0.013893758,0.005385251,0.103881396,-0.015256633,-0.054060727,0.039371956,-0.036848113,-0.011212175,0.020493608,0.010025968,0.00298129,0.018310484,0.0587046,0.031623758,0.061278917,-0.020846946,-0.033239018,-0.013123985,0.017263088,-0.061733209,-0.00346713,0.073645748,0.031901382,-0.028620385,0.09070693,-0.065468498,0.01870168,0.016417602,0.030437551,-0.00451137,0.009723106,-0.023446506,-0.015521637,0.028696099,0.058603644,-0.029099915,-0.017982384,-0.049568284,-0.028973723,0.000155571,0.002142112,-0.000642003,-0.008442257,0.040911503,0.013250178,0.002060087,0.011193246,0.018121196,0.065317065,0.023623174,0.08202491,0.036646206,-0.017629046,0.011628608,-0.033163302,-0.019092875,0.006561993,0.015092583,-0.016518556,0.075866736,0.019837409,0.019004541,-0.042703431,0.011660157,0.004309463,0.003164269,0.018916206,-0.056130279,-0.027459417,-0.001820322,-0.013325893,0.036822874,0.045656327,-0.001866067,-0.049820669,-0.015647829,0.005864781,-0.019420976,0.011817897,0.061581779,-0.054767404,-0.001213811,-0.027131317,0.008429637,-0.054414064,0.009212028,0.027964186,0.00025475,0.035914291,0.00627806,-0.036242392,-0.002181547,0.015206156,0.030058974,0.020228606,0.06344942,-0.001185418,0.040305778,-0.005019294,0.020771232,-0.012997794,-0.020771232,0.004741671,0.012587669,0.038438134,-0.045858234,-0.044520598,0.030513266,0.008959644,0.036242392,0.041592941,0.02854467,-0.005363167,0.025112242,0.018764775,-0.062995128,-0.033996172,-0.046993963,0.008284516,0.011584441,0.010461331,-0.042400569,-0.060168426,-0.048987802,-0.03838766,0.005281142,-0.009041669,-0.022083631,-0.033163302,0.040331017,0.011022886,0.001403888,0.001793506,-0.037731458,-0.058149353,0.006479968,-0.002474944,0.011224793,0.002124761,-0.007748199,0.011199555,-0.003347247,-0.019042399,0.041719131,0.013048271,-0.004514525,0.032254718,0.018234769,0.027333224,0.025919871,0.04916447,-0.020569324,-0.001992259,-0.017300947,-0.007230811,-0.020897424,-0.028721338,-0.006864854,0.018588107,-0.027964186,0.004732206,0.016644748,-0.004836315,0.035182375,0.032835204,0.008808213,0.022563159,0.036797635,0.035333809,-0.013489943,0.008158324,0.012486715,-0.000518571,0.039296243,-0.064559914,0.015685687,-0.016707843,-0.041769609,0.047094919,0.002260417,0.010877765,-0.019458832,0.01627879,0.010877765,0.006839616,-0.002399229,-0.050224483,-0.042981055,0.016543794,-0.044520598,-0.018146435,-0.017212613,-0.028267046,-0.045605849,0.005360012,-0.037302405,-0.017641665,0.011685395,-0.04853351,0.043132484,-0.01998884,0.054817878,-0.009205719,0.003751062,0.006038296,-0.055776939,-0.012152306,0.008208801,0.023496982,0.029074676,0.026651787,-0.038841952,0.057896968,-0.002978135,0.002750989,-0.012467787,0.015925452,0.048558746,-0.04595919,-0.031573281,0.02093528,-0.005366322,0.029958021,-0.015004249,-0.003845706,0.015206156,-0.00855583,-0.032658532,-0.020657659,-0.031194706,-0.044268213,0.065821834,0.012259569,-0.038589567,0.030134691,-0.017755238,0.019080257,0.025995588,-0.022323394,-0.04719587,0.009912395,0.023459125,-0.011698014,-0.004561847,-0.006180262,-0.017502854,0.052092128,0.001380227,0.072181925,-0.037630506,-0.044747744,0.036065724,0.052445468,-0.03752955,-0.025768442,-0.029402776,-0.024872476,0.027055601,-0.067891389,-0.014360669,0.019660741,0.065115161,0.032153767,-0.034702849
Blue,-0.024696622,-0.064541824,-0.003543509,0.027015785,0.000979939,-0.039401103,0.100266807,0.003121002,0.001125658,-0.044680901,0.038586929,0.036440469,0.047542848,0.031136001,-0.001831892,0.08235497,-0.041424204,0.009918123,-0.062370688,-0.004653747,0.038093489,0.021711316,0.022735201,0.057041548,-0.022069059,0.007598961,0.043299273,0.017998187,-0.054574352,-0.008400799,-0.008783214,0.034590073,0.092174403,0.013520229,-0.073473066,-0.059952836,-0.008203424,0.023265649,0.020243336,0.003793312,0.029112902,-0.049516603,0.012496343,0.014667474,0.00956038,0.039351761,-0.042781159,0.042904522,0.006340691,-0.047616862,-0.050330777,0.009992139,0.042682473,-0.018528635,-0.005693052,0.02491867,-0.024770638,0.171618089,-0.022574835,-0.001762502,0.025954891,-0.00556044,-0.02896487,0.034836791,0.009566548,0.033183772,0.013113141,-0.064196415,0.019108426,0.045149669,-0.034244668,-0.028101351,-0.01265671,0.076631077,0.011194897,0.058472522,0.010183347,-0.033899259,0.005989116,-0.010966682,-0.000450263,0.032665662,-0.048973821,0.049245212,-0.00284961,0.056350734,0.052699286,-0.129971832,-0.0040462,0.050478809,0.038858321,0.021378245,0.0345654,-0.025806859,-0.014568786,-0.007093186,0.021476932,0.020058295,-0.104707755,-0.032098208,0.047024738,-0.006883474,0.004823366,0.004777106,0.000508473,0.021921027,0.01903441,0.007722321,0.030987969,-0.054574352,0.027336521,0.046358593,-0.039647825,0.049738649,-0.003506501,0.021464596,-0.029655684,-0.000845785,0.013335189,-0.020921813,-0.020995829,-0.028126022,-0.021069845,-0.073226348,-0.034664091,-0.010343715,-0.027731271,0.004659914,0.014630467,-0.057732362,-0.036958579,0.028890854,0.02758324,-0.026719721,0.021427589,0.028422086,-0.017072989,0.020662758,0.001986092,0.045273028,-0.060347591,-0.054376978,0.013298181,0.038685616,-0.025116045,0.0438914,-0.018689003,-0.023191633,0.019934935,0.008258935,0.030297155,-0.038340211,0.059952836,-0.01078781,-0.005285965,0.049195867,-0.078358114,-0.00123591,0.022044387,0.009467861,-0.012120095,-0.003059322,0.033307131,-0.012767734,1.30E-05,-0.001825724,0.018207898,0.005153353,-0.09740486,0.013803956,0.045075651,0.022056723,0.065232635,-0.019318137,-0.017998187,0.005258209,0.025116045,0.031432062,-0.00298839,-0.014445427,0.002868114,0.032443613,-0.003851908,0.021513941,-0.024536254,0.027854631,0.036761206,0.018516298,-0.019873256,-0.006226583,0.00597678,-0.050306104,0.059656776,0.005002238,0.019207112,0.014420754,0.075150758,0.011379937,-0.033923931,0.019774567,0.013532564,-0.053390101,0.009332165,-0.01474149,-0.011194897,0.042411081,0.007605128,0.044680901,0.007068513,-0.005800992,0.004814114,0.04174494,-0.061186437,0.02246381,0.054821074,0.059410054,-0.052304532,-0.038685616,-0.012681382,0.045273028,0.008801718,0.025436779,-0.017369052,0.026473003,-0.100316145,-0.018454619,0.037081942,0.01290343,0.048628412,-0.000523508,-0.021995043,-0.014198707,0.034219995,0.018466955,0.011213401,0.056646798,-0.00586884,0.01088033,-0.063801661,-0.052107159,0.015271937,-0.029877732,-0.064591162,-0.033183772,0.027385864,-0.022241762,0.027015785,-0.076680422,-0.016653566,0.046309251,-0.02859479,0.007802504,0.015950415,0.060841028,0.049121853,0.055709261,-0.024659613,0.014901858,-0.016961966,-0.031234689,0.022944914,0.037501365,0.006612082,-0.02169898,-0.02935962,-0.030667234,-0.021748323,-0.076038949,0.005094758,-0.022957249,-0.022155412,-0.046259906,0.025930218,-0.059410054,-0.001124116,0.03631711,-0.016406847,-0.036218423,0.006075467,-0.05871924,0.003713128,0.071449965,0.062568061,0.022365123,0.027953319,-0.06098906,0.01284175,-0.025227068,-0.025757516,-0.019441497,-0.032715004,-0.040560685,0.029951748,-0.029162245,-0.009350669,-0.029137572,0.025251741,0.028471431,0.010763139,-0.009319829,0.05442632,-0.068933427,-0.112800151,-0.02169898,0.015901072,0.118524045,-0.000315917,0.059607431,-0.046975393,0.025116045,-0.03325779,-0.000641856,-0.037526034,-0.056745484,-0.013643588,-0.052107159,-0.021822339,-0.016505534,-0.047666207,0.037896115,0.016912622,0.037081942,-0.025214734,0.070413746,0.031136001,-0.009060774,-0.050429467,-0.037131283,-0.026596362,-0.022229427,-0.079246305,0.030815266,0.037081942,0.02721316,0.04152289,-0.023216305,-0.014223379,0.018059867,0.072190128,-0.007432425,-0.004215819,-0.020230999,0.020638086,0.035848342,-0.009134789,0.0038149,0.065874107,-0.003577433,0.051367,0.015802383,0.001228201,0.003528089,0.00952954,0.011725344,0.093506686,0.039820526,-0.017406061,-0.019688215,0.029162245,0.000263489,-0.012317471,0.04021528,0.02081079,0.026423657,0.103720874,-0.037871443,0.038957007,0.030938625,0.012767734,0.018022859,-0.001616013,0.033825245,-0.078950241,0.016567213,0.030642562,-0.057238925,-0.006103224,-0.047049407,0.04542106,0.037526034,-0.010158676,0.068045236,0.006272843,0.009628229,0.083835289,0.031654112,-0.027558567,0.062617406,0.008351455,-0.039919216,-0.040017903,-0.054278288,0.045149669,0.029581668,0.06538067,-0.007426257,0.017492412,0.06597279,0.066022135,-0.035601623,-0.019318137,0.053094037,-0.022044387,-0.034491386,0.009474029,-0.047197439,-0.038340211,-0.027681928,0.047172766,-0.054969106,0.025264077,0.030913953,0.020909477,-0.033109758,-0.021439925,-0.057831049,0.028570117,0.058127113,-0.005020742,-0.014938866,0.022093732,-0.023018928,-0.097059451,0.035774328,-0.027755944,-0.032369599,-0.005649876,0.019688215,0.071598001,-0.010541091,-0.060841028,0.014914194,-0.024585597,-0.010491746,0.01467981,0.025658827,0.02721316,0.011145554,-0.02271053,0.027410537,0.037723411,-0.012829414,-0.003417065,-0.017011309,0.00680329,-0.006655259,0.039647825,-0.071104556,-0.01302679,0.01688795,-0.058571208,0.065479353,-0.013446213,-0.053686164,0.008709198,0.032468285,-0.002683074,0.049689308,-0.015173249,0.036119733,-0.075545512,0.040486671,-0.002755548,-0.029334947,-0.022352787,-0.015321281,0.011848704,0.029384293,0.00395368,-0.008604342,0.004052368,-0.030025763,-0.057880394,0.022932578,0.014766162,-0.018701337,0.022266435,0.051909782,0.013347525,0.014877186,0.015777713,-0.026522346,-0.046926048,0.020724438,0.039820526,0.018503962,-0.073966503,-0.021230213,-0.012681382,0.041424204,-0.001478775,0.00605388,-0.02859479,-0.04707408,0.004585898,0.026719721,-0.006328355,-0.031358048,0.032246239,0.026028907,0.003747052,0.054228947,0.017467741,0.026744394,-0.026226282,-0.00482645,0.03417065,-0.014815506,-0.070117682,0.052748628,-0.03264099,-0.028422086,0.030001091,0.020021288,-0.001105612,0.033381149,0.062321346,0.030272482,0.049738649,-0.016937293,-0.014593459,-0.015592672,0.019244121,-0.030593218,-0.010596602,0.054475665,0.049294557,-0.001001527,0.113688342,-0.056252044,0.025930218,-0.012052247,0.062420033,-0.041547563,0.022920242,-0.027410537,0.006612082,-0.049689308,0.043817382,-0.008018384,-0.027410537,-0.053686164,-0.017085325,-0.023376672,0.003790228,-0.00766064,0.000148803,0.048060957,-0.026324971,-0.018886378,0.000149863,0.004348431,0.075348131,0.024190847,0.05403157,0.004484127,0.02010764,0.004585898,-0.007235049,0.022044387,-0.0297297,0.011558808,0.008135576,0.030593218,0.029285604,0.013705269,-0.010627442,0.001307613,0.030568546,-0.032566972,-0.026250955,-0.067551799,0.004416279,-0.000668841,-0.023746751,0.031974848,-0.000327674,0.00275709,-0.040091917,-0.014334403,-0.051021591,-0.012372983,-0.013433876,0.051465686,-0.049639963,-0.004151056,-0.026004234,0.053044692,-0.001785632,-0.008968254,0.028792165,0.018491626,0.059360713,0.008283607,-0.013051461,0.016234143,0.011410777,0.054475665,-0.00196142,0.05679483,0.005924352,0.02500502,0.006127895,0.056449421,0.008215759,-0.037106611,0.023697408,0.011207233,0.005242789,-0.025362764,-0.046062529,0.004055452,0.013705269,0.069624245,0.036489815,-0.006316019,0.007512609,-0.000602921,0.039277744,-0.054623697,-0.00573006,-0.068291955,0.016197136,-0.028323399,0.016937293,-0.043842055,-0.015062225,-0.051169623,-0.03303574,0.024758302,-0.015469313,-0.00474935,-0.02016932,0.006994498,-0.011083873,0.015345952,0.018689003,-0.012391487,-0.049393244,-0.036119733,0.00013878,-0.043397959,0.011558808,0.031259362,0.00894975,0.040684044,-0.017739132,0.046407938,0.039919216,-0.019157769,0.030519202,0.028570117,0.03784677,0.023833103,0.05289666,-0.010269699,-0.016308159,-0.008443975,-0.000917488,-0.002228186,-0.056153357,-0.046704002,0.015938079,-0.027928647,-0.014790834,0.012052247,0.001878152,0.004585898,-0.002835732,-0.010843322,0.013495556,0.005541936,0.053784851,-0.001216636,0.027977992,-0.024597934,-0.004687671,0.041054126,-0.076335013,0.015888736,-0.048653085,-0.020440711,0.04971398,-0.012607367,0.007919696,-0.024067488,0.012669046,0.028126022,0.023549376,-0.011040698,-0.049985372,-0.049417917,-0.000606005,-0.049960699,0.000156802,-0.014470099,-0.039105039,-0.039771184,0.005597448,-0.055166479,0.002843442,0.012952774,-0.062222656,0.056301389,0.011342929,0.055709261,0.009301325,0.001333056,-0.020070631,-0.032542303,-0.012070752,0.037896115,0.026102923,0.025387436,0.015950415,-0.019934935,0.023339665,0.010504083,-0.020946486,-0.004200399,0.024955677,0.048357021,-0.022611842,-0.005239706,0.063752316,0.031061985,0.071252592,0.017628107,0.001888946,0.007543449,-0.019700551,-0.016752254,0.002605975,-0.047098752,-0.017011309,0.033849914,0.010386891,-0.045248356,0.048110303,-0.029779043,0.011170225,0.007444761,0.00076483,-0.023586383,-0.014605794,0.030297155,-0.010467075,0.0331591,-0.016739918,-0.008561167,0.031432062,0.018368267,0.061186437,-0.041670922,-0.037501365,0.031974848,0.071055219,-0.011694504,-0.029877732,-0.002533501,-0.023944126,0.012021407,-0.055363856,0.023574049,-0.00023901,0.028471431,0.001385484,-0.028693477
Black,-0.003379089,-0.035018526,-0.006156763,0.014185974,-0.033059273,-0.00983966,0.049526908,0.031645637,0.013181549,-0.060612801,0.028247947,0.025023861,0.034522511,0.019629719,0.014049571,0.064134493,-0.027082315,0.008655429,-0.006857381,-0.021241762,0.055553466,-0.007818406,-0.025718279,0.039681047,-0.058281541,0.01778207,0.047989268,0.025519874,-0.020708546,-0.00418201,-0.022655398,0.012276324,0.059719976,0.046476427,-0.07092987,-0.043078739,-0.024912259,0.046451628,0.058033533,-0.007061987,0.053073402,-0.019232908,-0.030802414,-0.010174469,0.014818392,0.021030955,0.049229302,0.058132734,0.015091198,-0.049849316,-0.002038304,0.010658082,0.009052239,-0.019766122,0.009312646,0.042508323,0.006172263,0.217452139,-0.003661197,-0.017906073,0.00795481,0.017757269,-0.014359579,0.01438438,0.050543737,0.007471197,0.016033623,-0.057686325,0.067011371,0.080949336,-0.06844981,-0.015413607,0.004358715,0.046774037,0.015302004,0.05456144,0.010496877,-0.035613742,-0.042012308,0.02685911,0.023077009,0.002032104,-0.024118638,0.039061032,-0.007452597,0.058083136,-0.017608466,-0.119935967,-0.045186795,0.057686325,-0.007427796,0.00012381,0.036630567,-0.039333839,-0.001226857,-0.01702565,0.016455235,0.030554406,-0.079461299,-0.028719159,0.107833251,-0.042830732,0.003202385,-0.000600641,0.03747379,0.022270989,0.003940204,-0.018352484,0.003605395,-0.044070765,0.037126582,0.017286057,-0.012251523,0.036928177,-0.029264772,0.055603068,-0.023672225,-0.051535763,0.033902496,-0.021750174,-0.054611042,-0.02685911,0.013727163,-0.008190417,-0.074848376,0.004938431,-0.048088469,0.024069035,0.022184186,-0.104658768,-0.05495825,0.006011059,0.027826335,-0.004027006,0.019195708,0.031720039,0.023015007,0.008630628,0.014719189,0.048931692,-0.060860809,-0.06706097,0.025445472,0.040053058,0.006640376,0.042830732,0.011569506,-0.007049586,-0.008165616,0.051585361,0.03819301,-0.077526845,0.031050419,-0.012908741,0.038813025,0.002452165,-0.060166389,-0.003720098,-0.03139763,0.018674893,-0.022270989,0.009399449,0.035340935,0.010478277,0.005378642,0.020138131,0.033282477,-0.004771026,-0.102873117,0.008760831,0.057636723,0.02723112,0.0530238,-0.047592457,-0.028545555,0.027156718,0.019803323,-0.003100082,0.020758148,0.008388822,0.005074834,0.025247067,-0.00985826,-0.007545599,-0.002678471,-0.01096809,0.023709426,0.044021163,-0.014595185,-0.031695236,0.001926701,-0.024044234,0.048534881,0.001000551,0.023697026,0.041714702,0.066366553,-0.018079678,-0.021402966,0.040425066,0.001439988,-0.004650123,0.058430344,-0.0038007,0.000430136,0.0226926,-0.00047935,0.016418034,0.014706789,-0.018488888,-0.003989805,0.023895431,-0.09731777,0.034398507,0.038862627,0.050890945,-0.013367553,-0.035440136,-0.020646546,0.038118608,0.020621745,0.026660705,-0.03261286,-0.019815722,-0.068400204,-0.020522542,0.035365734,0.043673955,0.062348846,-0.001767047,-0.024193039,-0.020770548,0.014892793,-0.008041613,0.018340085,0.030107995,-0.040301066,0.001070303,-0.035068125,-0.011829913,-0.008227617,-0.021477368,-0.036977775,-0.01324355,0.000250913,-0.016145226,0.024465846,-0.129856229,-0.024118638,-0.001822848,-0.040797077,0.027255921,0.021960979,0.08982797,-0.004262613,0.03330728,-0.004718325,-0.0002265,-0.00065993,-0.025817482,0.013020344,0.049328502,-0.047270048,-0.056049481,-0.032811265,0.009901661,-0.013925568,-0.051585361,0.023969833,-0.043252341,0.005880855,-0.024255041,0.003695298,-0.069144227,-0.007700603,0.033381682,-0.037672196,0.012586333,-0.00944905,-0.024354244,0.033679288,0.069491439,0.049303703,-0.03901143,0.0491549,-0.065622531,-0.041317891,0.022630598,-0.005065534,0.005573947,0.001129205,-0.01249953,0.061257619,-0.026387896,0.037672196,-0.005899456,0.055305462,-0.011327699,0.022878604,0.036084954,-0.000121581,-0.043797959,-0.047121245,0.003713898,-0.002382413,0.133824334,-0.003205485,-0.007123988,-0.02194858,-0.015872419,0.001454713,-0.030157596,-0.048286874,-0.014719189,0.014570385,-0.062100839,-0.044541977,0.031943243,-0.027578328,0.000397586,-0.018216081,0.054660644,-0.037374586,0.040995482,0.028917564,-0.010837886,-0.103170723,-0.046823636,-0.050568536,-0.01701325,-0.064283296,0.037225783,0.05108935,-0.012908741,0.014731589,0.024651852,-0.024453446,-0.02158897,0.079461299,0.029611982,0.027900737,0.009734257,0.01742246,0.011271898,-0.030504806,-0.003534093,0.020200133,-0.018575691,0.010540279,0.026040688,0.001116029,0.004209911,0.014880393,-0.03139763,0.075245187,0.033456083,0.012053118,-0.046823636,-0.003468992,-0.034770519,-0.031000819,2.34E-05,0.048485279,0.006153663,0.096623354,-0.035489738,0.04652603,0.086455084,-0.022518994,0.020026529,0.006497771,0.030703211,-0.067358576,-0.015376406,0.015649213,-0.02539587,-0.011860914,-0.046377227,0.024837855,0.060017586,-0.046947639,0.032513659,0.004073508,-0.009008838,0.10525398,0.006215664,-0.074302763,0.039532244,-0.009517252,-0.049080495,-0.063489676,-0.055950277,0.027404724,0.024887457,0.062100839,-0.01855089,-0.002962128,0.074501164,-0.010205469,-0.030356001,0.00831442,0.009201043,-0.037126582,0.028471151,0.001011402,-0.064382501,0.011178895,-0.016120426,0.027875936,-0.039085831,0.025792681,0.028247947,-0.031844042,-0.026908711,0.004681123,-0.027057515,-0.019679319,0.033456083,0.008078814,-0.017707668,0.014086772,-0.017955674,-0.087199107,0.007291392,0.013355153,-0.028247947,-0.018352484,0.053817421,0.017645666,0.009269245,-0.022506595,-0.021861777,-0.021378165,0.001818198,0.013801564,0.046129219,0.040499471,0.025693478,-0.007260392,0.041119486,0.051188551,-0.052031774,0.030306401,0.057934329,-0.004079708,0.028074341,0.052577388,-0.043897159,0.01285914,-0.003447291,-0.055999879,0.022928206,-0.009461449,-0.050345331,0.04622842,-0.03330728,0.032364856,0.054015826,-0.003583695,0.033555288,-0.04774126,0.074401967,0.000185521,-0.011259497,-0.043946762,0.002968328,0.006361368,0.05456144,-0.003537193,0.009585453,0.009802459,-0.041069884,-0.026214292,0.004606721,0.01817888,-0.010918489,-0.002721872,0.003543394,-0.025767881,-0.013714762,-0.013119547,-0.018141679,-0.063390471,0.0113339,-0.009585453,-0.032513659,-0.03484492,-0.027652731,-0.022382591,0.005642149,0.048658885,0.051982172,-0.020646546,-0.051039748,0.003608495,0.062249646,-0.0009618,-0.060116787,0.00982726,0.025941486,0.017211655,0.051585361,0.034224905,-0.007471197,0.069640242,0.037796199,0.013379954,0.025966287,-0.038341813,0.034621716,-0.035911348,-0.009461449,0.020720948,-0.017298456,0.022903405,-0.00983346,0.090720795,0.019146105,0.024775855,-0.034572113,-0.041268289,-0.011997317,0.042508323,-0.031348027,0.035861745,0.074253164,0.034100901,-0.035068125,0.085215054,-0.042929932,-0.003881302,-0.049601309,0.011550905,-0.021055756,0.002303361,-0.011575705,0.037349787,0.011656308,0.059918381,0.016046023,-0.036729772,0.004343215,-0.044442773,0.005648349,0.016244428,-0.013441955,-0.005040733,0.043897159,-0.007880408,-0.011141694,0.006751978,-0.040325865,0.050370131,0.013045144,0.062547252,0.016132826,0.01099289,-0.024676653,0.022618197,0.038168207,0.031000819,0.034720916,-0.000398361,0.061009612,0.021613771,0.02347382,-0.0340265,0.012722736,-0.03137283,-0.013342752,-0.001264833,-0.010509278,-0.011879514,-0.037002578,0.009325046,0.02611509,-0.002459915,0.023002608,-0.022829004,-0.031100022,-0.024205439,-0.015289604,-0.001309785,0.011550905,-0.001438438,0.037052177,-0.006882182,0.064680107,-0.008085013,-0.025668679,0.030430404,0.014967196,0.059323166,-0.002253759,-0.036878575,0.013454355,0.03553934,-0.004293614,-0.015029197,0.023399418,-0.022233788,0.065473728,-0.01323115,0.03635776,0.007818406,-0.007644802,0.04498839,-0.004783426,-0.016951248,-0.052130979,-0.069590636,-0.013652761,0.04206191,0.050890945,0.005363142,0.020274535,0.010038065,0.023684626,0.042210713,-0.045459602,-0.009752857,-0.056099083,-0.004851628,0.010701483,-0.025420671,-0.025718279,-0.048361279,-0.079064488,-0.053420611,0.031100022,-0.006714778,-0.021762574,-0.0265119,0.001821298,-0.027255921,0.01022407,0.053767819,-0.013119547,-0.094788104,-0.031893641,0.036332961,-0.034795318,0.006950384,0.031992845,0.017608466,-0.007210791,-0.01209652,0.044194769,0.023697026,-0.040003456,0.021663371,0.013057545,-0.003816201,0.021427765,0.059918381,0.009033639,-0.01665364,0.010335673,-0.009442849,-0.019394113,-0.023424219,-0.043500349,-0.010379074,-0.026387896,0.020609343,0.02951278,0.001472539,-0.035911348,-0.003180684,0.008581026,0.007235591,0.014272777,0.061108813,-0.028495952,-0.004374215,0.000873448,0.002456815,0.056297489,-0.025172666,0.005239138,-0.012530531,-0.009486251,0.012846739,0.002252209,0.023808628,-0.016901646,0.043822758,0.03372889,0.010434875,-0.046972442,-0.057686325,-0.062299244,0.022258587,-0.015376406,-0.008041613,0.010391475,0.011631507,-0.02006373,0.016442833,-0.042582724,-0.005477845,0.019815722,-0.05942237,0.043004338,-0.003490692,0.034224905,-0.005577047,0.002202608,0.034100901,-0.024416246,-0.000655667,0.01094949,0.012363127,0.00304428,-0.000336746,-0.023548221,0.042086713,-0.024155838,0.009008838,0.009728057,0.036184154,0.054462239,-0.026586302,0.034894522,0.02574308,0.036630567,0.027776733,0.001982502,0.026586302,0.007328594,0.012146121,-0.019245308,-0.0037759,-0.041565899,-0.005366242,0.003239586,0.005341441,-0.009139041,0.056396689,-0.029959191,0.028024741,-0.023312615,0.00415411,-0.05069254,0.045583606,0.047294848,-0.053073402,0.023697026,-0.004188211,-0.014049571,0.020150533,0.002472315,0.062795259,-0.034274504,-0.03137283,0.040251464,0.020336537,-0.042111512,-0.005899456,-0.025420671,-0.012307325,0.008525225,-0.083875813,-0.00909564,-0.007415396,0.068003394,0.02418064,-0.01058988
White,-0.059684329,-0.070303954,-0.003877056,0.026089557,-0.017678101,-0.027391482,0.064943083,0.021226484,0.002238482,-0.047635142,0.029433718,0.025259899,0.042708248,0.032420486,-0.007556271,0.079953514,-0.044878121,-0.017486641,-0.027748873,-0.020652106,0.025795985,0.03101645,-0.020639341,0.003883438,0.026166141,0.009936752,-0.000140803,-5.45E-05,-0.005861854,0.028821047,-0.008813522,0.01513807,0.073520474,0.062645569,-0.100222699,-0.018967262,0.008149795,0.047175638,0.069231778,0.00691169,0.016503815,-0.031731233,-0.017397292,0.021634931,0.037832409,0.015431641,-0.002997938,0.04824781,0.023013441,-0.093840718,-0.005287475,-0.011417372,0.037551604,-0.024953563,0.002619805,0.0329821,-0.00236293,0.20616366,0.026702227,-0.005293857,-0.019094901,-0.024443004,-0.05927588,0.032369431,0.025272664,0.044137813,0.000381324,-0.05953116,0.007020184,0.031322785,-0.04538868,-0.002878275,-0.030837754,0.048579674,0.041074459,0.054221351,0.080872521,-0.078830287,-0.001080151,0.014767915,0.007620091,-0.006225627,-0.012132155,0.039364088,-0.029510301,0.057335757,0.020652106,-0.137136102,-0.015635865,0.077502832,0.02802968,-0.004617366,0.083986931,-0.053557623,-0.00255439,-0.020498937,0.007575417,0.013095834,-0.084854878,-0.027059618,0.046128992,-0.043423031,-0.040232036,0.019643752,0.042657193,0.019490585,0.054885074,0.016822914,0.0041802,-0.054323461,0.055548802,-0.018916205,-0.030556947,0.043065637,-0.009419811,0.039364088,-0.037398435,-0.025093967,0.03721974,0.002560772,-0.019567167,-0.012030043,-0.041840296,-0.017205833,-0.06274768,-0.009987808,-0.026727756,0.039593838,0.014231828,-0.045363154,-0.030863281,-0.010428164,0.00327715,-0.008590152,0.037960049,0.025145024,0.032446016,0.018405646,-0.02333254,0.045695018,-0.058867436,-0.011302496,0.009464485,0.045439739,-0.000381523,0.043831475,0.02889763,-0.011136564,-0.000267844,0.008009392,0.014270119,-0.080770411,0.049932655,0.015725212,0.008564625,0.005290666,-0.042606134,0.005265138,0.032956574,0.015942199,-0.041916881,-0.024123905,0.040257566,-0.019630987,-0.010326053,0.023523999,0.024430241,0.054782964,-0.096393511,0.019784154,0.046180047,-0.002246459,0.044393092,-0.023409123,-0.005970348,0.022209309,0.000111984,0.019158721,0.019822447,-0.026472475,-0.027314898,0.028565768,0.004074898,0.013083071,0.012980958,0.021583876,0.023651639,0.052332282,-0.026702227,-0.026344836,0.007824315,0.027902041,0.025987444,-0.013912729,-0.007741348,0.025285427,0.100018479,0.00973891,0.065249421,0.002929331,0.014244592,-0.01256613,0.041457377,-0.014359468,-0.009068801,0.019452292,0.035534896,0.033492662,0.037883468,0.014576455,-0.015725212,0.014091424,-0.044622842,0.032420486,0.059326939,0.035075393,-0.043703835,-0.030020861,-0.016312355,0.08092358,0.008743321,0.017116485,-0.031246202,-0.012323614,-0.11548841,0.004409952,0.014168008,0.032573655,0.050953772,0.046333216,-0.009413429,-0.034028746,0.026855396,0.056059361,0.00179972,0.058203708,0.021264777,0.012910757,-0.076634884,-0.022515645,-0.008041302,-7.21E-05,-0.034590364,-0.062135011,0.019822447,-0.039389614,0.0089986,-0.078575008,-0.007524361,0.043193277,-0.010900431,-0.004400379,-0.025898097,0.065759979,0.012897993,0.043959118,-0.036734708,-0.003988741,0.00231347,0.021315832,0.018750273,0.057182591,-0.02654906,-0.057335757,-0.032292847,-0.009304935,-0.027238315,-0.073928922,0.036045454,-0.0069436,-0.017792976,-0.007371193,-0.003195779,-0.089194633,-0.0211499,0.039823592,-0.038087688,-0.00809874,0.011934313,-0.050366629,0.047405388,0.032803405,0.058561098,0.028463656,0.044061229,-0.066321597,-0.021864682,0.052485451,-0.018980024,-0.02195403,-0.001751855,-0.000560019,0.017448349,-0.038394026,0.015520989,-0.000643783,0.084548548,0.003286723,0.044418618,0.027570177,0.034105331,-0.066015258,-0.088173516,-0.016095368,-0.013159654,0.09031786,0.000763844,0.020562757,-0.014002076,-0.015929436,0.067342713,-0.007243554,-0.039032225,-0.034820113,-0.026370365,-0.018418411,-0.056723088,0.001925764,-0.051515389,0.014831735,-0.00266767,0.056569919,-0.043040112,0.027621234,0.007996628,-0.029612413,-0.067444824,-0.030174028,-0.045592904,0.009419811,-0.0806683,0.038011108,0.078932397,0.007817932,0.049498681,0.010345198,0.051413275,-0.036964461,0.055446692,0.016312355,0.025949154,0.023192136,0.015954964,0.012068335,-0.029816637,-0.025923625,0.044597317,-0.029791109,-0.009336845,0.023702694,0.001276397,0.027799929,0.005297048,0.037296325,0.026778812,0.063819855,-0.065759979,-0.014870026,0.02802968,-0.002629378,-0.000990006,0.027748873,0.054731909,0.001314689,0.08102569,-0.02346018,0.017435584,0.038215328,0.027442537,0.033467133,-0.016503815,0.011896021,-0.072550409,0.041329738,0.043091167,-0.035100922,0.003028252,-0.017907852,0.06090967,0.053608678,0.00559381,0.041967936,0.000437166,0.012968195,0.095882952,0.027825458,-0.017486641,0.085773885,-0.0082902,-0.057335757,-0.010345198,-0.02275816,0.024979092,0.025042912,0.030556947,0.038164273,0.041661602,0.032701295,0.021877447,-0.023906918,-0.01137908,0.029331606,-0.006841489,0.023523999,0.017601516,-0.072805688,-0.011059981,-0.010498366,0.082914755,-0.047584083,-0.007709438,0.00825829,-0.017524932,-0.025055675,-0.0266767,-0.050775077,0.01446158,0.045746073,0.024289837,-0.010760028,0.023153843,-0.0145254,-0.069282837,0.032190736,0.003972786,-0.008143414,-0.013734033,0.055089299,0.079545066,0.012508691,-0.019950086,-0.013465989,0.004167437,-0.019643752,0.034309555,0.01231085,0.012361906,0.022962384,0.006142661,0.046818245,0.054170292,-0.007594563,0.010779174,-0.009828257,-0.013874437,0.006630883,0.048962593,-0.048630729,-0.020983968,0.001255656,-0.036377318,0.029612413,-0.028438129,-0.054731909,0.013912729,0.011117419,-0.005533182,0.066423707,-0.021060552,0.004036606,-0.078728177,0.035662536,0.041993465,-0.003950449,-0.048094641,-0.018597106,-0.014767915,0.052842841,0.011117419,0.00819447,0.023983501,-0.004671613,-0.077553891,0.019069374,0.024302602,0.006506434,0.016835678,-0.024328129,0.000459104,-0.051694084,-0.030327195,-0.005861854,-0.085110158,0.00199118,0.051617499,-0.023536762,-0.013121363,0.018763037,-0.023128316,0.005954393,0.006024594,0.02201785,-0.007428631,-0.071682461,-0.024379184,0.035917815,0.008673118,-0.034820113,0.017090958,0.044137813,0.038087688,0.049779486,0.046435326,-0.004298267,0.011462046,0.021966795,-0.008979454,-0.005210891,-0.05953116,0.026727756,0.001238105,0.007179734,0.023294248,-0.026778812,0.007543507,0.048171226,0.027238315,0.023026204,0.019426765,-0.020179838,-0.031169618,-0.000393888,-0.007811551,-0.018278006,0.023830334,0.050545327,0.048656259,-0.001807697,0.107523695,-0.031884398,0.054936133,-0.015801797,0.038981169,-0.022681577,-0.011762,-0.017295182,0.027570177,0.006353267,0.025936389,0.009847404,0.008137031,-0.009777202,-0.026242726,-0.010243087,0.015099778,0.013568101,-0.008405075,0.030071916,-0.010747264,-0.011359935,0.032318376,-0.030659059,0.027621234,0.032216262,0.069487058,-0.018877914,0.022987911,0.019771392,-0.008034919,0.011449282,-0.001176679,0.007396721,0.011557776,0.080770411,0.0481457,0.026293781,-0.036964461,0.018354591,-0.005080061,-0.001680058,-0.013453226,-0.004014269,-0.024851453,0.005577855,-0.015495461,0.046103463,-0.014653039,-0.028310489,-0.009700618,-0.018890677,-0.029101854,-0.028821047,-0.002453873,0.045465264,-0.02642142,0.013899964,-0.018903442,0.042274274,-0.036504958,-0.079085566,0.024391949,-0.006860634,0.041993465,0.000932568,-0.026242726,0.029101854,0.012866083,0.026523532,0.010211177,0.016312355,-0.017142013,0.03757713,-0.018890677,0.018520523,0.020460647,-0.002891039,0.028514711,0.033671357,0.029306078,-0.006445806,-0.044852596,-0.008385929,0.000644581,0.061726563,0.052179113,0.014997666,0.012521456,0.039287504,0.021137137,-0.034871168,-0.00565763,-0.071733519,0.030174028,-0.004566311,-0.002530457,0.001933742,-0.052842841,-0.050672967,-0.054068182,0.017716391,-0.013963784,-0.010077155,-0.025438594,0.031348314,-0.015891144,0.015291237,0.036300734,-0.03037825,-0.061164949,-0.018482231,0.032548126,-0.020677634,0.061624452,-0.001812484,0.006726613,0.000957298,0.043295391,0.045541849,0.030505892,-0.047711723,0.026498005,0.040257566,-0.0145254,0.019962851,0.083680592,0.001681653,-0.015661392,0.012132155,-0.008232761,-0.044214398,-0.014410524,-0.02574493,-0.007454159,-0.006407513,0.034998808,0.025515178,-0.023945211,-0.002048617,0.040512845,0.010217559,0.021430708,-0.003864292,0.064636752,-0.016069839,0.02889763,-0.019133193,-0.023192136,0.030097444,-0.046511911,0.025298191,-0.035943344,-0.018443938,0.024353657,-0.007613709,0.049243402,-0.024787633,0.015444405,0.063921966,0.007607327,-0.062798738,-0.051055886,-0.034156386,0.011908785,-0.029152909,0.005794843,0.004834354,0.007077622,-0.024302602,0.00989846,-0.009764438,-0.014333939,0.014678567,-0.024825923,0.038496137,-0.003066544,0.062135011,-0.003283532,-0.003296296,0.017218597,-0.036709182,0.008200851,0.038802471,0.037755828,0.008449749,0.076124325,0.028667878,-0.010536659,0.020792508,-0.003810045,0.01414248,-0.009343226,0.049268927,-0.053047065,-0.019248068,0.037883468,0.042784832,0.001664103,0.015482697,0.025400303,0.000740709,-0.01340217,-0.049115762,-0.012457636,-0.032675765,0.003001129,0.010536659,0.020549994,-0.031527009,0.036811292,-0.023970738,-0.005568282,0.014550927,0.020511702,-0.022132726,0.010179267,0.032241791,-0.007300992,0.025349246,-0.030914338,-0.026829867,0.048605204,0.023549527,0.046103463,-0.05299601,-0.032139678,0.04046179,0.02716173,-0.02263052,-0.016708039,-0.026472475,-0.055906195,0.017435584,-0.051285636,-0.018992789,0.006815961,0.051438805,-0.001097701,-0.024047321
Gray,-0.026210798,-0.05189354,-0.00823888,0.011257201,-0.0018737,-0.03886015,0.060870498,0.035187755,1.99E-05,-0.057078093,-0.017497867,0.020510189,0.048389167,0.045820892,-0.007950849,0.077384263,-0.075560063,0.006810727,-0.040684342,-0.005280564,0.077192239,0.000677697,0.033891618,0.050981443,-0.014665565,-0.001861699,0.034275658,0.014557554,-0.029379137,0.007476798,-0.053189676,0.001050112,0.036267873,0.004419472,-0.068311289,-0.031803396,0.009336997,0.066199064,0.044860788,0.024602626,0.065863028,0.003603385,-0.029259123,-0.004809513,0.030675275,0.00993106,0.028275019,0.032331452,0.031587373,-0.063126735,-0.05837423,-0.022874441,0.035427783,0.013057394,0.001020859,0.005088543,0.011587237,0.23868148,0.019862121,-0.015337638,0.02501067,-0.00664871,-0.079880528,0.008250881,0.007146763,0.021566302,0.017953917,-0.047141034,0.02454262,0.048005123,-0.054533821,-0.022214372,-0.036507897,0.043420635,0.054965869,0.046036914,0.002937314,-0.05799019,-0.041356415,-0.013273417,0.044548757,0.000502179,-0.078056335,0.060678478,-0.006045646,0.019862121,0.06043845,-0.120588876,-0.047957119,0.10417112,0.039676234,-0.047717094,0.055877965,-0.028755069,0.003591383,-0.023534512,-0.00084609,0.024986668,-0.080312572,-0.028082998,0.037395991,-0.031347346,-3.14E-06,-0.015697675,0.037564009,0.036195863,0.061350551,-0.025370708,0.050165355,-0.044020697,0.037612014,0.016825797,-0.047549076,-0.017569875,-0.00027903,0.066631116,0.000680698,-0.038188078,0.051461492,-0.023678528,-0.024770644,-0.034515686,-0.03288351,-0.018806007,-0.052997656,-0.03429966,-0.032667488,0.051461492,0.002185733,-0.044260725,-0.04598891,0.018962024,0.05414978,-0.047549076,0.02801099,0.012565342,-0.027866974,0.018649992,0.013369427,0.04020429,-0.056886073,-0.018037926,0.01939407,-0.009865053,-0.034419674,0.016753789,0.019346066,0.014545552,-0.015625669,0.058806278,0.006051646,-0.006600705,0.058422238,6.44E-05,0.010591131,-0.025082678,-0.052325584,-0.01011708,0.025730746,0.01302139,-0.011041178,0.006918739,0.042028487,-0.02295845,-0.017737893,-0.001626174,0.068695337,0.058278222,-0.071479633,0.007650817,0.01929806,-0.020930234,0.100906774,-0.040108282,-0.022502402,0.033027526,-0.01461756,0.001632174,0.0252987,0.014353532,0.020654205,-0.015409645,-0.01949008,0.010087077,-0.016201729,0.032211438,0.009793045,0.010081076,-0.019658098,-0.018830011,0.004449475,0.004938527,0.020546194,-0.007014749,0.035163753,0.029307129,0.09159378,-0.007050753,-0.00683473,0.030171221,-0.018061928,-0.020282164,0.021998348,-0.036435891,0.022442395,0.044932798,0.001575168,0.021518297,-0.017269844,0.002350751,-0.000706575,0.046084918,-0.090249635,0.020918233,0.043324623,0.075032011,-0.02697888,-0.039100174,-0.010987173,0.064566895,0.018685995,0.016537765,-0.035787821,-0.027746962,-0.069511421,0.047285046,0.0318514,0.024962666,0.047165036,-0.022814436,-0.016069716,-0.002212736,0.039604228,0.012793366,-0.01105318,0.048653193,-0.045364842,-0.012133296,-0.040636338,-0.027626948,-0.027842972,0.011047179,-0.047501072,-0.061974615,0.0234145,-0.038092066,0.021758324,-0.117804572,-0.02491466,-0.011467224,-0.048893221,-0.006786725,-0.023102466,0.054821853,-0.022226373,0.069511421,0.004635495,0.03794805,-0.009102971,-0.00796285,0.005646603,0.051557504,-0.031131323,-0.059382338,-0.056165997,-0.01282937,-0.001909704,-0.081800729,0.000945101,-0.007800833,-0.026666846,-0.062022623,-0.02594677,-0.061494563,-0.018097932,0.044380739,-0.035043743,-0.006018642,0.021494294,-0.002566774,-0.006120653,0.018926021,0.020450182,-0.024650631,0.040420316,-0.031107321,-0.026426822,0.020018136,0.002686787,0.016057715,0.003687394,-0.007992853,0.060006406,-0.015013603,0.00974504,-0.017821902,0.087225311,-0.010477118,-0.019310061,0.00918098,0.016753789,-0.042220507,-0.091545776,-0.023390496,0.001232382,0.097066365,-0.029211119,0.029427141,-0.054485817,0.046036914,0.041788463,0.006630708,-0.048797209,-0.020114148,0.004449475,-0.038452104,-0.043372631,0.041788463,-0.027290914,0.061686587,0.010195089,0.037540007,-0.024326596,0.057942186,-0.008646923,-0.010561127,-0.090441652,-0.033483576,-0.024986668,0.029691169,-0.061878607,0.025802754,0.049253259,0.000853591,0.013009389,0.002319248,0.010441114,-0.021062249,0.074023902,0.028203011,0.020606199,0.009877054,-0.002236739,-0.013993494,-0.006720718,0.006720718,0.059190318,-0.003906417,-0.023114467,0.030963305,0.001131121,0.012601345,-0.007692821,-0.00946301,0.040948372,0.053813744,-0.024962666,-0.054917861,0.032523472,-0.029451143,-0.006606705,-0.011029177,0.032331452,0.000148891,0.05967037,-0.041212399,0.017509868,0.038884152,0.019574089,0.021374281,-0.018613987,0.042892579,-0.02707489,-0.014641563,0.008880948,-0.022610413,0.0271709,-0.046348948,0.060150422,0.04618093,0.003258348,0.028491041,0.015517657,-0.004452475,0.075944111,0.054005764,-0.04702102,0.040108282,0.032379456,-0.056886073,-0.018313956,0.000101167,0.030939303,-0.016729785,0.067927249,-0.011017176,-0.000293844,0.03943621,0.033699598,-0.011317208,-0.007740826,-0.012283311,-0.038932156,0.012013283,0.009691034,-0.050117351,0.000399043,-0.001924705,0.056406021,-0.048773207,0.005505588,0.028347027,0.0074948,-0.010699142,-0.011251201,-0.033363562,-0.008112866,0.058134206,0.007320782,0.009114973,0.040348306,0.003300352,-0.04663698,0.0524696,0.017965918,-0.016417753,-0.055733949,0.06706316,0.07464797,-0.018469973,-0.062358655,-0.005523589,-0.022154365,-0.021350279,0.050981443,0.051317479,0.020630203,0.026066782,0.009481012,0.032331452,0.050453387,-0.010177086,-0.007722824,-0.001460406,-0.001156623,0.002746793,0.019262057,-0.033483576,-0.009433007,-0.005811621,0.008466904,0.031947412,-0.027554942,-0.049445279,0.017125828,-0.021494294,0.00196371,0.053045664,-0.018565983,-0.00023815,-0.055301905,0.044140711,0.012673353,-0.018854013,-0.058518246,0.010147084,0.028179009,0.041452426,-0.010537125,0.002932813,-0.021446289,-0.02520269,-0.059526354,0.001248883,-0.013717464,0.013741467,0.016093718,-0.008820942,-0.021230265,-0.012889376,-0.01198928,-0.003028823,-0.08775337,0.021818329,-0.008562914,-0.048437171,0.00684073,-0.031995416,-0.056982081,0.003429366,0.010969171,0.05947835,-0.029475147,-0.054293796,-0.011287205,0.030435249,-0.021182261,-0.048629191,0.006426686,0.072151706,0.043348629,0.046204932,0.024506615,-0.041188397,0.023066463,-0.004620493,-0.006009642,0.009096971,-0.036483895,0.056694053,0.000702075,0.003810407,0.028659059,-0.019454077,0.025058676,0.026906872,0.014137509,0.011383215,0.010423113,-0.002077722,-0.03345957,0.000362664,-0.000415169,-0.025442716,0.020774217,0.075560063,0.025130684,0.007080756,0.059622366,-0.021482293,0.031323344,-0.067351192,0.028491041,0.019478079,0.024122575,-0.021002242,0.083288893,-0.014329529,0.067495205,0.006630708,-0.008076862,-0.018025924,-0.050645407,0.007530804,0.039532222,-0.010693141,-0.060582466,0.014989601,-0.017809901,0.02801099,0.02575475,-0.011371214,0.05967037,0.010153084,0.080120556,-0.018589985,-0.022454398,0.015205624,-0.010069075,0.030843293,0.039292194,0.002178232,0.008574915,0.049109243,0.02565874,0.028995095,0.003075328,-0.014125508,-0.019238053,-0.00430546,0.012589344,-0.061350551,-0.022226373,-0.013669459,-0.021062249,0.05837423,-0.007206769,4.20E-05,-0.030531259,-0.013549446,-0.029571157,-0.020774217,0.024866654,0.047333054,-0.013885482,0.0056196,-0.034875724,0.019694103,-0.016597772,-0.03456369,0.017881909,0.028707065,0.023810541,-0.008868947,-0.04721304,0.008826942,0.055493925,0.020342171,0.008904951,0.022946449,-0.000982605,0.040780354,0.008232879,0.033195544,-0.019034032,-0.047909115,0.04663698,-0.022562409,-0.016309742,-0.035451785,-0.046156928,0.026858868,0.022946449,0.034971733,0.039844252,-0.010849158,0.005043538,0.066391088,0.031899404,-0.043852679,-0.012289312,-0.058230218,0.012685354,0.031995416,-0.023678528,-0.013981492,-0.045652874,-0.050117351,-0.048533183,0.032619484,0.012493334,-0.024626629,-0.046660982,0.015565662,-0.016033711,0.003333356,0.024770644,-0.00618066,-0.063894823,-0.03211543,-0.000371852,-0.055541929,0.011683247,0.035235763,0.006690714,-0.009505015,-0.009565021,0.045364842,-0.033867616,-0.026066782,0.013945488,0.018950023,0.039004162,0.036315877,0.060102414,-0.001063614,-0.011155191,-0.01563767,0.00805886,-0.045580864,-0.033555582,-0.037059955,-0.022718426,-0.036387883,0.014881589,0.010651137,-0.026378816,-0.052517608,0.032931514,0.026930874,0.014365533,0.005739613,0.050117351,-0.025250696,-2.00E-05,-0.030939303,-0.037708025,0.017365854,-0.000455674,0.028683063,-0.047813103,-0.013669459,0.03982025,0.002419758,-0.040564328,-0.011689248,-0.017665885,0.055829961,0.02219037,-0.029235121,-0.075224027,-0.007098758,-0.017557874,-0.010993173,0.037371989,0.016369747,0.009925059,0.013477439,0.048005123,-0.031491362,-0.01199528,-0.0084249,-0.023162473,0.031155325,0.003852411,0.064518884,-0.004995533,-0.015133616,0.028107001,-0.02772296,-0.000527306,0.029043101,0.00964903,0.035739817,0.032163434,-0.014701569,0.024002561,-0.0262348,0.008652924,0.010969171,0.002515769,0.006420685,-0.024026565,-0.005121547,0.035907835,0.002940314,0.014749574,-0.017389856,0.027218906,0.00543058,0.015961705,-0.055877965,0.0018752,-0.046853002,-0.033027526,0.003513375,0.02389455,-0.020390177,0.036819931,-0.027602946,0.022778431,0.028851081,0.026834864,-0.050837427,0.039388206,0.042676557,-0.007758828,-0.012565342,0.001437903,0.022370389,-0.014317528,0.029451143,0.05967037,-0.02697888,-0.039460212,0.041044381,0.046420954,-0.042940583,-0.033771604,-0.002512768,-0.030267231,0.062742695,-0.061062519,0.009132975,-0.016813794,0.093033932,0.004752507,-0.020090144
Pink,-0.080992475,-0.040823951,-0.00229108,0.04662919,0.02855804,-0.003294708,0.069335178,0.000802463,-0.052715331,-0.017345497,0.033754665,0.02483613,0.031296801,0.049953159,-0.031226577,0.044007469,-0.009761232,0.010416662,-0.057818327,-0.024531825,0.048361402,0.016069749,0.043984063,0.015004675,0.008444519,0.047167581,0.002787042,-0.004207629,-0.010627336,0.052481249,0.014618439,-0.004927432,0.051498104,-0.001097992,-0.09424153,-0.039583314,0.040613279,0.075749032,0.064981245,-0.019288382,0.007198031,-0.009977758,0.007876869,-0.015145124,-0.019323492,0.00842111,-0.014595031,0.064747162,-0.003528791,-0.044803351,-0.028487815,0.056507464,0.014712072,-0.034433506,-0.010118207,0.014255611,-0.015121716,0.154587939,0.018726584,-0.032701295,-0.029845491,-0.006056879,-0.039185375,0.036259346,0.032326765,0.045154475,0.019264972,-0.06198499,0.06952244,0.065543041,-0.006759126,-0.014173683,0.001702949,0.041877322,0.030407289,0.055383869,0.039911032,-0.06755615,-0.028792122,0.022179296,0.008175324,0.005132254,-0.008052431,0.059503719,-0.021921806,0.04520129,0.041081443,-0.127059862,0.011113057,0.018000929,0.006033471,-0.03052433,0.044382002,-0.040589869,0.015367502,-0.013014975,0.01126521,0.020505609,-0.138670355,-0.031296801,0.032139499,-0.028838938,-0.013799151,-0.002301322,0.034480322,-0.007455521,0.010252804,0.008906831,-0.013635294,-0.076451279,0.021582387,0.022624053,-0.036399797,0.033146054,-0.004245668,0.066011205,0.007186326,-0.016315535,0.008871719,0.001877047,0.002112593,-0.04178369,-0.001127252,-0.017298682,-0.040472828,-0.047986869,-0.048501849,0.0600187,0.002389102,-0.050749041,-0.027574893,0.029330511,0.070037425,-0.018995779,0.041690055,0.046769641,0.008064135,0.052855782,-0.003010883,0.056507464,-0.036867961,0.007818349,0.060955029,0.026521523,-0.0412453,0.02631085,-0.021395121,-0.052153535,0.027621711,-0.022179296,-0.004503158,-0.087780856,0.042532753,0.010937495,0.004529492,0.012125462,-0.040308971,-0.007818349,0.027528077,-0.008415258,0.023993434,0.041409157,0.062593602,-0.040098295,-0.003356155,-0.020704579,-0.026240624,0.020891845,-0.087265879,0.018796807,0.020411976,0.023092218,0.069147907,-0.045482188,-0.072003715,0.056320198,0.023712536,0.031788375,0.000313634,-0.013974713,0.032209724,0.042134814,0.026264032,0.031694744,-0.022834728,0.00160639,-0.014676959,0.012137167,-0.010802898,-0.01587078,-0.010966755,-0.029658226,0.050187241,0.008941944,0.009761232,0.014911042,0.045154475,-0.024789315,-0.01493445,-0.012125462,0.015894188,-0.061095476,0.058941919,-0.00351416,-0.009685155,0.02483613,-0.000116493,-0.025538377,0.008924387,0.016561322,0.016619842,0.000726752,-0.058146041,0.029353919,0.02855804,0.051357653,-0.029868901,-0.024742497,-0.008374294,0.056601096,0.023466749,0.025725644,-0.034433506,-0.021781357,-0.09822093,0.009053132,0.010955052,0.011985013,0.028183507,0.008906831,0.018726584,-0.066994354,0.042462528,0.0406835,0.028581448,0.038319271,-0.001885825,0.00408181,-0.077059887,-0.000945839,0.017626397,0.011288619,-0.028370773,-0.056601096,0.017661508,0.008625932,0.020798212,-0.089138538,-0.027926017,0.035135753,-0.020669466,0.006876167,0.004895246,0.091151647,0.001733672,0.062312707,-0.01354166,-0.001187236,-0.020002332,0.011306175,0.050046794,0.100374483,-0.01863295,-0.063295849,-0.027457852,-0.027200362,0.010656596,-0.066198468,0.037991557,-0.029236877,-0.017345497,-0.04662919,0.006454819,-0.070505589,-0.026708789,0.042930692,0.012570219,0.008508891,0.007092693,-0.00429541,0.000670426,0.069007456,0.0446629,-0.003005031,0.00445049,-0.104213439,0.000467433,0.010235248,-0.04520129,0.00409644,0.007695455,-0.031413842,0.040964402,-0.043258406,0.007701308,5.30E-05,0.008994612,-0.006747422,-0.022495309,0.022483604,-0.008801494,-0.050374508,-0.088155389,-0.027059913,0.02233145,0.094803326,-0.005395597,0.063061766,-0.020950366,0.049859527,0.03675092,-0.018843625,-0.029213469,-0.022062255,-0.030969087,-0.045482188,-0.03672751,0.005910578,-0.025444744,0.006501636,0.020025739,0.043820206,-0.009123357,0.02605336,0.01248829,-0.004628977,-0.047284622,-0.064278997,-0.005410227,0.015285574,-0.116947509,0.048220951,0.054494359,-0.00330056,0.076123558,0.025959726,0.012792598,-0.017965816,0.079962507,0.036165714,0.010662449,0.021172743,0.004356856,-0.022050552,-0.020166188,-0.000997776,0.038974702,-0.012921343,0.019147931,0.023700831,0.001198209,-0.023373116,0.010083094,0.008081691,0.051732186,0.070552401,0.029400736,-0.050655406,0.03106272,-0.065823942,-0.011791895,0.005854983,0.025678826,0.028885754,0.111797705,-0.034410097,0.031179762,0.023899801,-0.012102054,0.022343155,-0.011674854,0.014946154,-0.063670382,-0.023197554,0.019616095,-0.04161983,-0.026615156,-0.02722377,0.009164321,0.037336126,-0.016666658,0.03569755,-0.019323492,-0.021090815,0.087640412,0.025725644,0.012991567,0.063764013,0.032888561,-0.026779015,-0.048220951,-0.034620769,0.036938187,0.042275261,0.045856722,0.012476586,-0.028604856,0.011639742,0.01254681,0.015543064,-0.027808975,0.045880128,-0.033637624,0.015215348,0.010662449,-0.079353899,-0.003002105,-0.055805217,0.026919464,-0.014992971,0.021711132,0.0600187,0.002662686,-0.076638542,-0.026755605,-0.045014024,0.011944049,0.056460649,0.018609542,0.024672274,0.042298671,0.007361888,-0.050936308,0.007080989,-0.015613289,-0.010100651,-0.040028073,0.04070691,0.023033697,-4.63E-06,-0.033075828,0.026357666,-0.013834263,-0.023677424,0.020610945,0.022237817,-0.052574884,0.028440999,-0.018621245,0.021114223,0.033895116,-0.034269646,-0.004798687,-0.037336126,-0.01632724,0.012254208,0.052434433,-0.045552414,-0.044803351,0.014969562,-0.01140566,0.061844543,0.001752691,-0.047144175,0.004468046,0.005875465,0.01883192,0.069803342,-0.008251401,0.047050539,-0.067509331,0.014232203,0.002744615,-0.051685371,-0.025842685,-0.039396048,0.057209712,0.078183487,-0.001326954,0.030383881,0.003233262,0.019183043,-0.025397928,0.007256551,0.018316939,0.009802196,-0.014513102,-0.008953648,-0.038787436,-0.044826757,-0.028323958,-0.047448479,-0.108333282,0.041362341,0.023677424,-0.022635758,-0.038366087,-0.033263095,-0.010533703,0.006782535,0.002914324,0.036282755,-0.005948616,-0.058754656,0.002371546,-0.000416228,-0.014712072,-0.06755615,0.012839413,-0.005360485,0.081086107,0.071863264,0.043047734,-0.000429029,-0.004529492,-0.034620769,-0.010972607,-0.039864212,-0.034878261,0.064185366,-0.046839867,-0.043984063,0.020646058,-0.01063904,0.021172743,-0.011762635,0.062874503,0.037336126,0.005998359,-0.014595031,-0.010767785,0.015344094,0.007578414,-0.032818336,-0.01803604,0.030220024,-0.008783938,-0.002528089,0.064887613,-0.063998096,0.006694754,0.0004539,0.071067385,-0.008198733,-0.003876988,0.025678826,0.017251864,-0.009351588,0.041970953,-0.027926017,-0.03174156,0.013330987,-0.036680695,-0.048689116,-0.036540244,-0.01658473,0.010732673,0.029798675,-0.033005603,-0.002880675,0.020072557,0.014501397,0.052387618,0.029330511,0.021406826,-0.006759126,0.044967208,-0.039700355,-0.01539091,0.019955516,-0.027996242,0.041432567,0.036376387,0.055430688,-0.010814602,0.020224709,-0.001599075,-0.040823951,0.028440999,-0.007543302,9.04E-05,-0.002487124,0.0130852,0.004301262,-0.028206917,0.041900732,-0.060299598,-0.020973774,-0.035814591,-0.039559908,0.021090815,-0.027036505,0.012336137,0.024812723,0.004792835,0.009041429,-0.022460196,0.052855782,-0.026779015,-0.029798675,0.026451299,0.001700023,0.032420397,-0.00272267,-0.016690068,0.021348305,0.033567399,0.02776216,0.016233606,0.037687249,-0.017954111,0.00822214,-0.005972025,0.00753745,-0.013330987,-0.025819277,0.035955038,0.007320924,0.073782735,0.000823677,-0.073782735,0.007519893,-0.015882483,0.049250916,0.060955029,-0.017439131,0.037359532,0.035791181,0.012336137,-0.025468154,-0.057443794,-0.052200351,0.021699429,-0.003236188,0.025585195,-0.033754665,-0.072378241,-0.090730295,-0.036470022,0.00445049,-0.017064599,0.016713476,-0.036985002,0.037195675,-0.018609542,0.025819277,0.027411036,-0.037078634,-0.051264022,-0.019183043,-0.028838938,-0.050327692,0.010486887,0.009872421,-9.84E-05,-0.015004675,0.02750467,0.006841055,0.054166641,-0.005670643,0.012441474,0.031975642,-0.011505145,0.006817647,0.073220938,-0.000763693,-0.030571148,-0.023513567,-0.023548678,0.005211257,0.003619497,-0.043398857,-0.009363292,0.005310742,0.024367966,0.008643488,-0.029424144,-0.029705042,0.040964402,0.015437727,-0.008356738,-0.000548265,0.008029022,0.00884831,0.001277943,0.020376863,-0.002610018,0.022682574,-0.01129447,-0.019943811,-0.018281827,-0.027668526,0.019592687,-0.009146766,-0.044311777,-0.024204109,0.028581448,0.026170401,-0.022741094,-0.043632939,-0.036938187,-0.077013075,-0.016338944,-0.047893237,0.011832859,0.003704352,0.02082162,-0.008491335,-0.002788505,-0.014337541,0.004248593,0.036352981,-0.0526217,-0.009339883,-0.019943811,0.070271507,0.007783236,0.005884244,0.022319747,-0.056881998,0.008298217,0.03000935,0.011938197,-0.011107204,0.001086288,-0.003221557,-0.003177667,0.02386469,0.001090677,1.92E-05,0.007180474,0.039325826,-0.025046805,0.007209735,0.028136691,0.034410097,-0.003631202,-0.015238757,0.041362341,0.01129447,0.02253042,-0.020938661,-0.026942872,-0.039208785,-0.028066467,0.048455033,0.001258924,-0.034386687,0.029868901,-0.021348305,0.018738287,-0.036470022,0.00122308,-0.024625458,0.00214039,-0.003721908,0.025491562,-0.012558515,-0.013728926,-0.024040252,0.017556172,0.002226708,0.05510297,-0.013764039,-0.055711586,0.028160099,0.031577703,-0.001313055,-0.019967219,-0.023654016,-0.083380111,0.011159874,-0.074157268,0.008268957,-0.012851118,0.062593602,0.022823023,0.00392673
Orange,-0.079493076,-0.060015991,-0.015106239,0.021994786,-0.0226977,0.007974868,0.017483363,0.022505997,-0.047874767,-0.040334426,-0.024141867,-0.014773954,0.006524311,0.014646151,-0.020090532,0.084963016,-0.064514637,0.026007781,-0.034864485,0.014761173,0.097385406,0.020243894,-0.012154005,0.045753248,-0.014352206,0.00861388,0.032155074,0.013278666,0.008799192,0.020052191,-0.00295543,-0.01190479,0.031771667,0.033893187,-0.076170214,-0.007476438,0.037394971,0.050865341,0.041510209,0.025458232,0.018224617,-0.022940524,0.005425211,-0.046775665,-0.011054905,0.048360415,0.037727259,0.013227545,0.068399824,-0.097078681,0.016627088,-0.005345334,0.046008851,-0.012773846,-0.037318289,0.035861343,-0.017687848,0.195384264,-0.007367807,-0.009981365,-0.044705268,7.39E-05,-0.068859912,0.056079678,0.057357702,0.041203484,0.046290018,-0.056028556,0.045114234,0.071313724,-0.034583319,0.017649507,-0.024793658,0.039312009,0.01617978,0.084349565,0.061856344,-0.063798942,-0.076016851,-0.012505461,0.046647865,0.00115102,-0.002718995,0.071313724,-0.048079249,0.009054798,0.038519632,-0.120236464,0.024295229,0.061447378,0.035145652,0.007208053,0.065894902,-0.005358114,0.011514993,0.002765324,0.047031272,0.025649935,-0.104235612,-0.046801228,0.04815593,0.007521169,-0.035375696,0.012090104,0.032717407,0.027196344,0.008524418,0.024934242,0.026455089,-0.047414679,0.067735255,0.03466,-0.040538911,0.027630871,-0.01569413,0.069626726,0.000273976,0.003076842,0.007463658,0.024423033,-0.04634114,-0.008192131,-0.044833072,-0.085678704,-0.011847279,-0.001631078,-0.034225475,0.028499927,0.021458017,-0.073972009,-0.012805797,-0.006773525,0.044500783,-0.009866343,-0.009853562,0.076425813,0.019579323,0.058840208,0.005233507,0.097232044,-0.035324574,0.025292089,0.053728115,0.01460781,-0.007501999,0.04593217,0.006045052,-0.024423033,0.004345281,0.022429315,0.024448592,-0.079799801,0.009770491,0.00325257,-0.00862027,0.008741681,-0.064463511,0.018135156,-0.013278666,-0.009367913,0.002966612,0.039363127,0.000575909,-0.016959375,-0.013828216,-0.059913751,0.015016778,0.029062258,-0.077601597,0.000611854,0.054341566,0.045267597,0.049229473,-0.022838283,-0.039337568,0.029087819,0.012173176,0.001872305,0.038647436,-0.021534698,-0.008281593,0.058124516,0.022851063,0.01349593,-0.017099956,-0.008760852,0.026327288,0.022953305,-0.017764529,-0.004939561,-0.010607596,-0.027298585,0.050711978,0.016141439,0.029164501,0.031209338,0.040998999,-0.012396829,-0.021854205,0.022442095,0.00973854,-0.049996287,0.018416321,-0.007163323,0.005808617,0.039720975,0.013214765,-0.010875981,0.01245434,0.040359989,-0.004712712,-0.003322862,-0.052603453,0.017061615,0.03834071,0.066712834,-0.044194058,-0.023132229,-0.044475224,0.054137081,0.027860915,0.058993571,-0.063441098,0.020461159,-0.069217764,-0.008454126,-0.025189847,0.057459943,0.046213336,0.003703074,-0.033484221,0.009093138,0.039618734,0.016793231,0.009137869,0.043810651,-0.001243677,-0.028704412,-0.057357702,-0.006907718,0.019055333,0.048079249,-0.05129987,-0.059811506,0.030723689,-0.000611454,0.020333357,-0.074534342,-0.008070719,0.052501213,-0.046315577,-0.041484646,0.019758245,0.052220047,-0.015246822,0.065179206,0.030953733,-0.000426141,-0.005805423,-0.019694345,0.014275525,0.107967436,-0.0129336,-0.040283307,-0.022378195,-0.006284681,0.00029115,-0.050226331,-0.001088716,-0.012709945,0.004265404,-0.0269663,0.038391832,-0.065741539,0.009406255,0.042788234,0.002222164,0.001282017,-0.008856704,-0.01404548,0.008665,0.081333429,0.091404252,-0.024665857,0.043120518,-0.028218763,-0.005214336,-0.008179352,-0.04214922,-0.007061081,-0.023093889,-0.02107461,0.033739824,-0.057357702,0.001390649,0.011042125,0.065332569,0.005275043,0.037088245,0.023592317,-0.0140327,-0.026710695,-0.07985092,-0.003811706,-0.010435063,0.074943304,6.37E-05,0.021100171,-0.064463511,0.034148794,0.004524204,-0.014914536,-0.050021846,-0.026480651,-0.012901649,-0.062674284,0.016627088,0.023617877,-0.034813363,-0.007904576,0.023387833,-0.012128444,-0.025713837,0.016831571,0.009808832,0.038033985,-0.064105667,-0.037778381,-0.024448592,0.005035413,-0.094318144,0.022787161,0.027247464,-0.01298472,0.027247464,0.00596198,-0.025138725,0.017930672,0.060169354,0.043529484,-0.00699718,0.010096387,0.023771239,0.006438044,-0.001384259,-0.002864371,0.056642007,-0.012070933,0.059709266,0.0080835,0.001369083,-0.002067203,0.016959375,0.004632836,0.060322717,0.072847351,-0.050303012,-0.064361274,0.046903469,-0.027656432,0.020064972,0.04424518,0.062725402,-0.007783164,0.063287735,0.002155067,0.061702982,0.059198055,0.016499285,0.018467441,0.005275043,0.010300871,-0.064668,0.035733543,0.018595245,-0.041177921,0.002367539,-0.029547907,0.026787376,0.064616874,-0.031158216,0.019349279,-0.027963158,0.016243681,0.095136084,0.038008425,0.024665857,0.018608024,-0.003750999,-0.047389116,-0.041152362,-0.092835642,0.015195701,0.03992546,0.018084034,-0.004303745,-0.039030842,0.057664428,0.069013275,-0.011099636,-0.02970127,-0.004751053,-0.024448592,0.020422818,0.002640716,-0.043887332,-0.019234257,-0.031567186,-0.013738754,-0.008524418,0.016869912,0.050737541,-0.012537412,0.010435063,-0.073205195,-0.029241182,0.003773365,0.017496144,-0.01238405,0.021956446,-0.013265885,0.006607383,-0.084963016,0.008351885,-0.016384263,0.00428777,-0.026736256,0.054443806,0.015055119,0.001302785,-0.046136655,-0.027042981,0.026327288,0.000823527,0.015796373,-0.002525694,-0.033790946,0.001000053,-0.043657288,0.039260887,0.053728115,-0.03179723,-0.048207052,-0.037113808,-0.008025989,-0.0053677,0.074380979,-0.076630302,0.000539566,0.023323933,-0.048360415,0.026940739,-0.017240539,-0.030135797,-0.005287823,0.007712873,-0.019362058,0.070853636,-0.051018704,0.033714265,-0.058175638,0.029471226,-0.000358246,-0.030672569,-0.020154433,0.059095815,0.016972154,0.015936956,-0.007808724,0.021803083,-0.007438098,-0.021930886,-0.047644723,0.013227545,0.008805583,-0.022505997,0.001889877,0.003696684,0.018480223,-0.016563186,-0.012722726,0.025304869,-0.052961301,0.009112309,0.030877052,-0.048897184,-0.04815593,-0.037548333,0.004415572,-0.022978865,0.031720549,0.009514886,-0.034455519,0.0054316,-0.02755419,0.020461159,-0.032206196,-0.058840208,-0.033893187,-0.000454897,0.02538155,0.072387263,0.053472511,-0.009438205,0.021291874,0.018237397,-0.006380533,0.037471652,-0.043580607,0.042302582,-0.02642953,-0.019119235,0.03780394,-0.022799943,0.04056447,0.019195916,0.068297587,0.01024336,0.022493217,-0.027886476,0.00241866,-0.020806225,0.006045052,-0.047005709,0.02975239,0.062725402,0.00325896,-0.007872626,0.089615017,-0.06804198,0.027400827,0.009457375,0.041740254,-0.042532627,0.005150435,-0.003238193,0.001800416,0.01408382,0.078675136,-0.004527399,-0.030340282,-0.008690561,-0.060322717,-0.012416,-0.029777952,0.014914536,-0.008383836,0.020870127,-0.015783593,-0.006370948,0.028960016,0.013029451,0.0453954,0.057868913,0.024486933,-0.003345227,-0.000857075,-0.039746538,-0.031081535,0.013956019,-0.010575646,0.015988076,0.005811813,0.081180066,0.000980883,0.004025775,0.000120014,-0.015553548,-0.032359559,-0.008728902,-0.023311151,-0.041229043,-0.008805583,0.003661538,-0.001607115,0.05889133,-0.026301727,-0.006799086,-0.008339104,-0.011706697,0.01028809,-0.009591567,-0.006169659,-0.027426388,-0.026276166,0.016371483,-0.021164073,0.040053263,-0.036065828,-0.010562866,0.026557332,0.014684492,0.033944309,0.004904416,-0.017611166,0.022429315,0.047210194,0.07627245,-0.011770598,0.018761387,-0.018160716,0.022595458,-0.025943881,0.01187284,0.024461374,-0.019183135,0.035963587,0.006933278,0.040359989,-0.006664894,-0.05181108,-0.017048836,0.047414679,0.050609738,0.040998999,0.022493217,-0.001331541,0.008172961,0.036449235,-0.064105667,-0.012441561,-0.068399824,0.00538048,0.019886049,0.011674746,-0.034583319,-0.028908895,-0.049766243,-0.042762671,0.000389198,-0.026403969,0.024141867,0.003786145,0.035094529,0.002202993,0.023847921,-0.01514458,-0.034455519,-0.028397685,-0.038545195,0.010748179,-0.064003423,-0.010550085,-0.007323076,0.015591889,-0.039976582,0.026301727,0.0378295,0.014109381,0.01079291,0.043146078,0.017917892,0.026403969,0.016384263,0.064207911,-0.006057832,0.011125196,0.007968478,-0.024180207,-0.007674532,-0.02158582,-0.036909323,0.016307581,-0.004997073,0.033100814,0.007156933,-0.013023061,-0.000946536,0.052654576,0.005648864,0.019132014,0.016320363,0.063441098,-0.026915178,-0.007706483,-0.019362058,-0.000819533,0.058175638,-0.024077965,0.011508603,-0.01130412,-0.008505248,0.057153217,0.00647319,-0.010160288,-0.023490075,-0.01994995,0.000279967,0.002051228,-0.021560259,-0.027630871,-0.054699413,-0.021739183,-0.008505248,-0.012793017,0.018633585,-0.027784234,-0.025049264,0.045472082,-0.018633585,-0.012205126,0.056539766,-0.054392688,0.032538481,-0.022467656,0.058175638,0.01135524,-0.024947021,0.007847065,-0.02543267,-0.0004529,0.032691844,0.004335695,-0.006920498,0.013764315,-0.027630871,0.007514779,-0.033049691,-0.033893187,-0.003888387,0.028832214,0.035375696,-0.033126373,-0.002803664,0.031362701,0.019592103,0.023566756,0.007061081,0.061702982,0.011981471,0.000637015,-0.040717833,-0.020729544,-0.048130371,-0.04329944,0.027042981,-0.002268492,-0.030468084,0.027656432,-0.01948986,-0.004898026,-0.014876195,-0.005144045,-0.027758675,-0.05403484,0.020831786,-0.011457482,0.009783271,0.044500783,-0.016039196,0.056233041,-0.004891635,0.029675709,-0.02591832,-0.019656004,0.014109381,0.03992546,0.009923854,-0.036704838,-0.020870127,-0.043248322,0.022416536,-0.034097672,-0.000780793,0.003373982,0.054597169,0.034532201,0.009508496
Purple,-0.03974003,-0.053719535,-0.012999746,0.006356493,0.032833915,0.028174082,0.035223577,0.005908432,-0.020371843,-0.015305767,0.023239436,0.038210649,0.03252326,0.015019008,-0.024231143,0.049083598,-0.051521052,0.053241607,-0.062178932,0.018209202,0.074127227,-0.006159347,0.004800228,0.032021433,0.003584489,0.044328175,0.069108941,0.002943761,-0.01626163,0.057304025,0.009911112,0.039357685,0.067436181,0.04829501,-0.073553711,-0.032881711,0.034076538,0.08445055,0.066958249,-0.014684455,0.05558347,-0.060171615,-0.01486368,-0.016990477,0.037206993,0.01626163,-0.013334298,0.063325964,0.011715304,-0.058307681,-0.030659327,0.02628625,0.03940548,-0.016560338,-0.007539375,-0.013190919,-0.007688728,0.114990398,0.009224084,-0.020001447,-0.000973786,0.053289399,-0.050708566,0.033526916,0.054340847,0.020813931,0.016835149,-0.062895827,0.04184293,0.057829753,-0.009982801,-0.011213476,0.000332685,0.056156989,0.016966579,0.071355224,0.011332958,-0.019057531,-0.006242984,-0.002211928,0.032021433,-0.000376185,-0.026883665,0.061270859,-0.032093123,0.042918276,0.059359133,-0.120821163,0.002631612,0.070160389,0.003235001,-0.031830259,0.053671744,0.011249321,0.013692747,-0.037589338,0.035797093,0.031089466,-0.076421298,-0.050326221,0.074700743,-0.033813678,-0.028938772,-0.009606429,0.032594949,-0.012605452,-0.009773706,-0.001009631,0.007222745,-0.060936309,0.021817587,0.049083598,-0.019009739,0.031280637,-0.00131954,0.041436691,0.014672507,-0.003781636,-0.001835557,0.003733842,-0.002991555,-0.025880009,-0.027576666,-0.028628116,-0.019188963,0.015186284,-0.046837319,0.034936816,-0.001978936,-0.052142363,-0.017420614,0.033431333,0.010878923,-0.012892211,0.012724935,0.057065058,-0.019666895,0.058976788,0.028126288,0.05123429,-0.073983848,-0.006643252,0.048247218,0.003635269,-0.052094568,0.020921465,-0.007623013,0.026907561,-0.002906423,-0.025784422,0.001860947,-0.043850243,0.040934861,0.012892211,0.023012416,0.009570585,-0.043252829,-0.019583257,-0.024147505,-0.014027299,-0.019392084,0.05524892,0.008554979,0.001306098,0.00271525,0.000894629,0.005708298,0.012342589,-0.031543501,0.005370759,0.05391071,0.008053151,0.037350371,-0.055009954,-0.02621456,0.02650132,0.036537889,0.010633983,0.011153734,-0.005974148,-0.00295571,0.052907053,0.036251128,0.036848545,-0.009905137,0.018245047,-0.012557658,0.057112854,-0.040671997,-0.052046776,-0.016369166,-0.04688511,0.060601756,-0.011751149,0.051138707,0.019881964,0.053480573,-0.003456044,-0.023454504,0.001178401,0.02838915,-0.058642235,0.06189217,-0.007784314,0.033311848,0.046144318,0.007449762,0.027457183,0.025951698,-0.008435497,-0.006774683,0.018495962,-0.073219158,0.022403054,0.026907561,0.070351563,-0.064090654,-0.025330387,-0.004426843,0.013883919,0.026907561,0.047912665,-0.040098481,-0.009307723,-0.08468952,-0.004943607,-0.027457183,0.071737565,0.03455447,0.029870739,-0.021949019,-0.033574712,0.047578111,0.07536985,0.019714687,0.065524451,-0.025019731,-0.028126288,-0.063039206,-0.031256743,0.013155074,-0.005182573,-0.065189898,-0.044877797,-0.003880209,-0.005224392,0.003336562,-0.083542481,-0.024828559,0.050851945,-0.025019731,0.003629295,-0.015795646,0.031973638,0.02088562,0.079384476,-0.01219921,-0.009857344,-0.036490094,-0.013573264,0.002770511,0.07804627,-0.001114179,-0.056634922,-0.040648103,-0.028628116,0.004169955,-0.06834425,0.038927548,-0.03455447,-0.014815887,-0.047291353,-0.008160686,-0.065763421,-0.010723596,0.03730258,0.002065562,0.013059488,0.00936149,-0.035032403,-0.008859661,0.06566783,0.022940727,-0.014314058,0.049370356,-0.082729995,-0.013298453,-0.01044281,-0.027672254,-0.02124407,-0.017348925,-0.019332342,0.038975339,-0.08712697,0.027815633,-0.033455227,0.047410838,0.008716282,-0.013262608,0.01093269,0.038784169,-0.049131393,-0.115659505,-0.019153118,-0.02867591,0.084785104,-0.002651028,0.023167744,-0.043157242,0.022164088,0.000879693,0.003569553,-0.035701506,0.015939027,0.021841485,-0.081391789,-0.01752815,0.048151631,-0.034434989,-0.026118975,0.016285527,0.061796583,0.000440967,0.007425866,0.041603964,-0.011171657,-0.077472746,-0.04803215,0.007527426,-0.051568843,-0.079719029,-0.001560746,0.039596651,-0.032475468,0.032308191,0.012079727,-0.028867083,0.006042851,0.088560767,0.007073391,-0.005663492,0.01019787,0.045929249,0.041795138,-0.017074114,-0.03749375,0.02340671,0.027791735,0.048988011,0.050374016,0.001313566,0.037876096,-0.031758569,-0.033670299,0.059215754,0.06834425,0.008202505,-0.044591039,0.011052174,-0.020945363,-0.037780512,0.030922189,0.03056374,0.000187252,0.058642235,-0.049131393,0.051951189,0.077998474,0.027457183,0.046024833,0.026596906,0.01114776,-0.048988011,-0.023323072,0.015807595,-0.043133348,-0.009110576,-0.015150439,0.01493537,0.034387194,-0.057781957,0.087700486,-0.022653969,-0.002415049,0.095777534,0.054006297,-0.013871972,0.036155544,0.007061443,-0.059598099,-0.060410582,-0.062800243,0.014612766,0.02180564,0.042440347,0.014696403,0.001381522,0.043420106,0.037445959,-0.025712732,-0.023621781,-0.006087657,-0.051329877,0.018567652,0.027600562,-0.033383537,-0.041126035,-0.008895506,0.045761973,-0.048438389,0.036394507,0.029894635,-0.030539844,-0.01718165,-0.025067525,-0.02012093,0.040409137,0.060936309,0.016046561,-0.014851731,0.034506679,0.000432006,-0.051712222,-0.01794634,-0.047912665,-0.01843622,-0.016751511,0.01513849,0.031758569,0.027815633,-0.005042181,-0.003841377,0.011601795,0.033741988,-0.005427513,0.052429121,-0.040480826,0.001527888,-0.007025598,0.001419607,0.057208441,-0.04578587,-0.001835557,0.003623321,-0.025330387,0.040958758,0.023944383,-0.067818522,0.005803884,0.01584344,-0.027385494,0.052715879,-0.049800497,-0.075704403,-0.009875266,-0.007736521,-0.015735906,0.048103839,-0.03077881,0.040098481,-0.059980445,-0.019499619,-0.002770511,-0.091667324,-0.048749045,0.015007059,-0.010610087,0.016787356,-0.007157029,0.032857813,-0.019081429,-0.046263799,-0.049035806,0.01689489,0.012772728,-0.045666385,0.009403309,0.024039971,-0.023836849,-0.018675186,0.000546261,-0.025736628,-0.063612729,0.039142616,0.02972736,-0.023442555,-0.028580323,-0.047052387,-0.019296497,0.020574965,0.020001447,0.017743219,-0.008698359,-0.031447913,-0.008853687,0.037398167,-0.00777834,-0.035510335,0.03730258,0.010430862,0.027767839,0.048414495,0.046813421,-0.031758569,0.056061402,0.005319979,0.038210649,-0.032594949,-0.063995071,0.05448423,-0.022331364,-0.02271371,0.030683223,0.007903798,0.028269667,0.047291353,0.091667324,0.024039971,0.011297113,-0.028580323,-0.024876352,0.038330134,0.012205184,-0.059502512,-0.017970236,0.043515693,0.023191642,-0.012916108,0.056491543,-0.037278682,-0.004579184,0.02159057,0.03883196,-0.026788078,0.022044605,-0.008100945,0.016464751,-0.007449762,0.084832899,-0.017193597,-0.037039716,-0.016333319,-0.034817334,-0.020670552,-0.02095731,0.003925015,-0.037613235,0.056395955,-0.008913429,-0.028365254,0.021148482,0.011416596,0.076516882,0.048988011,0.047506422,0.004316322,0.025999492,0.009624352,-0.026620803,0.019284548,-0.014696403,0.031376224,0.005081013,0.06490314,0.023657626,0.007216771,-0.017516201,-0.006392338,0.002367256,-0.0129639,0.020837827,-0.041173827,0.029201634,-0.026310148,0.014433541,0.049418151,0.013597161,-0.015401353,-0.02740939,-0.015222128,-0.014493283,-0.014875628,-0.018149462,0.023585936,-0.054340847,0.006177269,-0.038282339,0.059884857,-0.023072159,0.001111191,0.025210904,0.020933414,0.01188258,-0.021518881,-0.018101668,0.024028022,0.037159201,0.004797241,0.016715666,0.041269414,-0.022044605,0.042989969,-0.043969728,0.031567398,0.020300154,-0.029058255,0.039763927,-0.003700985,0.060028236,-0.031208947,-0.073888257,-0.007282486,-0.004606068,0.042440347,0.02979905,-0.004898801,0.033837572,-0.007718599,0.027504977,-0.069204532,-0.063660517,-0.064998731,0.013405988,0.010669828,-0.010508526,-0.053623952,-0.071641982,-0.080053583,-0.03252326,0.008596798,0.012485969,0.011542054,-0.005048155,-0.004868931,-0.005932329,0.033192366,0.029058255,-0.002258228,-0.03168688,-0.007981461,-0.029870739,-0.023681521,0.021435242,0.028771495,0.00970799,0.008047177,-0.031089466,0.028986566,0.061270859,0.004370089,-0.008333936,0.02544987,0.012772728,0.020503275,0.038712479,0.001817634,-0.031782467,-0.02117238,-0.02405192,0.023335021,-0.022199932,-0.020061187,-0.028054599,0.005714272,-0.01660813,-0.019081429,-0.023741264,-0.011601795,0.033980954,-0.005218418,-0.007103262,-0.001932637,0.012772728,0.001299377,0.003796571,0.017026322,0.00017157,0.049848288,-0.033694193,0.005009323,-0.04150838,0.000354528,0.019499619,-0.009588507,0.017384769,-0.009020963,0.014768094,0.038234547,-0.030014118,-0.013059488,-0.058642235,-0.050326221,-0.008059125,-0.056300368,-0.025091421,-0.015496939,-0.008746153,-0.026453527,-0.016859045,-0.001373307,-0.016799303,0.049896084,-0.072167702,0.007927694,-0.018125564,0.044710521,0.022307469,0.007055468,0.015759801,-0.012808573,-0.045068972,0.027385494,-0.021315759,0.031830259,-0.003100583,-0.01097451,0.013728592,-0.001848999,-0.004979452,-0.001205284,0.010908794,0.057160646,-0.025210904,0.01075944,0.040695895,0.000540287,0.047147974,0.020790035,0.076851435,-0.000283212,0.0164767,-0.020108981,0.012916108,-0.036657371,-0.053241607,0.041221619,-0.001814647,-0.031782467,0.012366486,0.002990061,0.000656036,-0.022426952,0.015162387,-0.029583979,-0.026764182,0.036633473,0.017420614,0.002422517,-0.005950251,-0.006302726,0.051186498,0.011368804,0.067770734,-0.022044605,-0.015556681,0.056634922,0.045618594,-0.017229442,-0.028436944,-0.007384047,-0.074079432,0.033407435,-0.076660268,-0.006499873,0.019153118,0.042177483,0.011255294,0.009893189
Cyan,-0.020659845,-0.07196676,-0.021467635,0.034049578,0.04097699,0.006278732,0.077400982,0.028101305,-0.030426761,-0.044599805,0.034563627,-0.020329384,0.0356162,-0.002726292,0.000139221,0.023768613,-0.05992334,0.048565321,-0.008702103,0.01279001,0.070351176,-0.024723273,0.012826728,0.00679278,0.002695694,0.00566065,0.033927184,-0.004767186,-0.046386737,-0.018652609,-0.014760529,0.038945276,0.061245177,-0.001234634,-0.053950589,-0.072407372,-0.01669433,0.033853751,0.056496352,-0.014234241,0.021381959,-0.011608923,0.010085138,0.008769418,-0.020647606,0.001638529,-0.051257957,-0.004094027,-0.006517398,-0.056006782,-0.011082636,0.02155331,0.007551614,-0.008077901,-0.01132742,0.023768613,-0.036986995,0.16116637,0.027391428,-0.041809257,0.001344787,0.038210921,0.015947735,-0.006327689,0.015556079,0.051747523,-0.017636752,-0.087975688,0.008347165,0.01812632,-0.017465401,-0.011468172,-0.009809755,0.028468482,0.014368873,0.060559779,0.076862454,-0.021675702,0.004739647,-0.000101739,-0.004684571,-0.000498749,-0.067609586,0.045578945,0.012098493,-0.010146334,0.021075979,-0.109663628,-0.002614609,0.076666623,-0.004993611,0.029692406,0.062860757,-0.027342472,0.005051748,-0.018738283,0.040218156,0.0210515,-0.055664085,0.013536604,0.041980609,-0.024392813,0.013622279,-0.006046187,0.007092642,0.081317537,0.045432076,0.015176663,0.012282082,-0.032091297,0.009846472,0.007955509,-0.046998698,0.047023177,-0.001267527,0.014001695,-0.037794787,-0.018114083,0.009766917,0.003910439,-0.044061281,-0.044648763,-0.038529143,0.003684012,-0.031063203,0.031112159,0.019129939,-0.059531685,0.01133354,-0.037280738,-0.011657881,0.001321073,0.058503587,0.01392826,0.032556389,0.000136066,-0.000218776,0.078820735,0.000628791,0.067707501,-0.077156194,-0.031993385,0.047194526,0.026069591,-0.068686642,0.033608966,-0.035346936,-0.003512663,-0.00081391,0.007423101,-0.01116831,-0.053167276,0.025922719,-0.026240939,-0.010323803,-0.035053197,-0.05005851,-0.025004776,0.034416754,-0.018738283,0.002333106,-0.001350142,0.009932146,-0.003047572,0.043767538,-0.02365846,0.055566169,-0.000785607,-0.070400134,0.004094027,0.066630445,0.001675247,0.034514669,-0.054391202,-0.032164734,0.024735512,-0.014552462,0.004782485,0.025580021,0.00712936,0.02123509,0.020023404,-0.016425066,0.034514669,-0.013989456,0.051894397,0.058944199,0.020965826,-0.028419524,0.006199177,-0.001237694,-0.044624284,0.065112777,-0.006297091,0.025775848,0.058748372,0.039802022,0.008108499,-0.027024252,0.013646757,-0.015764147,0.006578594,-0.00646844,0.024099072,-0.038969755,0.015139945,0.046362258,0.039948892,-0.004182762,0.001251463,-0.03387823,0.048761148,-0.00291906,-0.00145953,0.067413755,0.071281359,-0.028370569,-0.006346048,-0.020476256,0.018150799,0.021590026,0.039777543,0.030965287,0.023891006,-0.054195374,-0.044036802,0.035836507,-0.005067047,-0.005685129,-0.018358866,-0.025702413,-0.003313775,0.052873537,0.008035064,0.003962455,0.044452935,0.005648411,-0.01199446,-0.079457171,-0.024270421,-0.021259567,0.020598648,-0.062860757,-0.059531685,0.0485898,-0.034612581,-0.00858583,-0.083814345,-0.031822037,0.035371415,-0.021063739,0.012716575,0.025384193,0.02540867,0.018652609,0.074267738,0.015923256,-0.016718809,-0.062762842,-0.036007855,0.006232835,0.104278363,-0.032042343,-0.04521177,-0.031993385,-0.030818418,0.045187291,-0.059580643,-0.023254564,-0.005005851,0.015188903,-0.036595341,0.047243483,-0.073680252,0.013340777,0.069812648,-0.025114929,0.021724658,0.003843123,-0.053509977,-0.032311603,0.025433149,0.065896094,0.012826728,0.04161343,-0.035346936,0.006652029,-0.023401435,-0.01214133,-0.020194754,-0.014270958,-0.021590026,0.012838967,-0.03674221,-0.006006409,-0.028248176,0.003061341,-0.034098536,0.015629515,-0.026069591,0.049152806,-0.064525299,-0.142954379,-0.014895161,0.01619252,0.079261348,0.048908021,0.0343678,-0.023744134,0.04484459,0.028762225,-0.02056193,-0.022140794,-0.050719429,-0.002017946,-0.087877773,-0.01457694,0.019546073,-0.006560235,0.058209848,0.057916105,0.029716885,-0.034196448,0.045358639,-0.012826728,0.027269036,-0.074512519,0.018860675,0.00793103,-0.000659389,-0.064916953,0.055859912,0.0356162,0.019692944,0.019974446,-0.046900783,0.027244559,0.034832891,0.064916953,0.0275383,0.010654262,-0.025971677,0.01861589,0.028297134,0.004433666,-0.009858712,0.01636387,-0.004387769,0.016914636,0.012753293,0.001405218,0.007172197,0.007759681,0.001366206,0.075883314,0.063203454,0.021186132,-0.032850131,0.025139408,-0.008512395,-0.029349707,0.002816556,0.038137484,-0.014173045,0.107607439,-0.000855982,0.012000579,0.077841595,0.020035643,0.042274348,-0.015519362,0.015739668,-0.102711737,0.089297526,0.015519362,-0.057132792,0.01441783,-0.043547232,0.013157188,0.0592869,-0.047782011,0.060363952,0.048638757,-0.007349666,0.061441008,0.039948892,0.014809486,0.047072135,0.017783621,-0.018885154,-0.051062126,-0.102711737,0.084059127,0.045505509,0.084646612,0.039067667,0.006076785,0.089885011,0.074561477,-0.086555935,-0.054733902,-0.023438154,0.00631545,-0.027685171,0.032140255,-0.041001469,-0.010715459,-0.036864605,0.013206145,-0.079065517,0.022764994,0.011939383,0.054097459,-0.011003081,-0.006786661,-0.004295975,0.051013172,0.028639833,0.024331618,-0.023119932,0.016633132,-0.052286051,-0.076421842,0.012435072,-0.001155079,-0.00810238,-0.010464554,0.035444852,0.053901631,-0.011529368,-0.075051047,0.013193905,-0.015482644,0.017049268,0.029080445,0.058014017,0.014319916,-0.01361004,0.015825342,0.050964214,0.043008704,-0.010550229,-0.041368645,-0.019962208,-0.00793715,-0.039532758,0.021993922,-0.033706877,0.011003081,0.035885464,-0.033780314,0.037035953,0.032115776,-0.045064896,0.012404474,0.006284852,-0.001607931,0.057818189,-0.033927184,0.034857366,-0.04746379,0.033608966,-0.046509128,-0.038039573,0.022324381,0.018077364,-0.010562468,-0.005213918,0.028762225,0.021198371,0.029031487,-0.026779467,0.02996167,-0.00777804,-0.012447312,-0.026657075,0.01264314,0.02509045,-0.006774422,-0.021957204,0.011058157,-0.012667618,-0.049152806,0.00664591,0.042543612,0.000256833,-0.069714732,-0.033535529,-0.060168125,0.026706031,0.007410862,0.037966136,0.043743059,-0.04907937,-0.025004776,0.02509045,-0.02851744,-0.032336082,-0.021957204,0.034661539,0.005290413,0.065651305,0.025971677,-0.004188881,-0.008867333,-0.007765801,0.038602576,-0.000405425,-0.089982927,0.051649611,-0.020672083,-0.035395894,0.052628752,-0.006884575,0.026387811,-0.00065633,0.066189833,0.009828113,0.008549112,-0.022593645,-0.004176642,-0.047170047,0.013267341,-0.049250718,0.000707581,0.039532758,0.032336082,-0.03125903,0.029863756,-0.052628752,0.032825653,-0.023279043,0.043767538,-0.043743059,0.007588332,-0.000693812,0.006095144,-0.056349482,0.008940768,-0.005498481,-0.050180901,-0.002614609,-0.013744672,0.008781658,-0.043326925,0.002963427,-0.015580558,0.051747523,0.0110092,-0.008041183,0.008285969,0.023597263,0.04322901,0.020158036,0.036228165,-0.023903245,0.025261801,-0.031063203,-0.011804751,0.007820877,0.012459551,0.027758606,0.034710497,0.069665782,-0.035371415,-0.011211148,0.030671546,0.018775001,-0.002943538,-0.040928032,0.014931878,-0.065994002,-0.027905477,0.001043396,-0.006786661,0.050523601,0.018836197,0.02722008,-0.051600654,-0.001814468,-0.047121089,-0.038945276,0.028321611,0.03786822,-0.03108768,-0.034906324,-0.026069591,0.034392275,-0.040511899,-0.022189749,-0.014895161,0.023364717,0.026999773,-0.001491658,-0.019178895,-0.000881226,0.015641754,0.032605346,0.01893411,0.034269884,-0.018836197,0.052481879,-0.005394447,0.018248713,-0.005556617,-0.024380574,0.036228165,0.023279043,0.019790858,-0.044379499,-0.054244332,-0.001437346,-0.0126309,0.060168125,0.011572205,-0.004387769,0.025800327,0.020378342,0.00485898,-0.056692179,-0.035102151,-0.046876308,0.011296823,-0.002172466,-0.006272613,-0.059874382,-0.048026796,-0.060461868,-0.018211996,0.037770309,0.010176932,0.009295706,-0.034661539,-0.006915173,-0.007674006,0.018420063,-0.001167318,-0.001171143,-0.063693024,0.010066778,-0.021932727,-0.01213521,0.036791168,0.001920032,0.000121723,0.037696872,-0.024135789,0.033633444,0.028688788,0.033290744,-0.000291638,0.04746379,0.003610577,0.010623664,0.068588726,-0.020610888,0.00824925,-0.000718291,1.23E-05,0.020867912,-0.009509893,-0.063154504,0.021687942,-0.022312142,-0.025751371,0.013426451,0.009687362,-0.024808949,0.024845665,0.033682402,0.016902396,0.014332155,0.041001469,0.027415907,0.017538836,0.009075399,0.000467769,0.036595341,-0.06090248,0.036375035,-0.031528294,-0.002847154,0.010446195,-0.032115776,0.017673468,-0.00939362,0.008573591,0.006523517,0.006896814,-0.009981104,-0.030524675,-0.008726581,-0.024172507,-0.050034031,-0.019129939,0.006707106,-0.054195374,-0.04097699,0.007349666,-0.057867147,-0.005327131,-0.0035555,-0.037990615,0.06878455,-0.041099381,0.082590424,0.008524634,0.005798342,0.009766917,0.003904319,-0.014087371,0.04322901,0.016535219,0.035322458,0.009528251,0.003197503,0.035053197,-0.021528831,-0.033217311,-0.003491245,-0.017514359,0.026877381,-0.025628978,-0.001016622,0.015458166,0.045481034,0.049177285,-0.009142715,0.017281814,0.001604871,0.0145647,-0.015727429,0.01198834,-0.022997539,-0.02851744,0.047708575,0.03985098,-0.028884616,0.050278816,-0.030622588,-0.000418812,0.025433149,-0.008237012,-0.052090224,-0.005822821,0.001418987,0.007166077,-0.012875685,-0.015605036,0.013732432,0.04646017,0.027636213,0.079653002,-0.064525299,0.027146643,0.041319691,0.030818418,-0.021663463,-0.008500155,0.016828962,-0.037696872,0.016070127,-0.044722199,0.009405859,-0.000588631,0.003491245,0.016302673,-0.011670119
