Name,0,1,2,3,4,5,6,7,8,9,10,11,12,13,14,15,16,17,18,19,20,21,22,23,24,25,26,27,28,29,30,31,32,33,34,35,36,37,38,39,40,41,42,43,44,45,46,47,48,49,50,51,52,53,54,55,56,57,58,59,60,61,62,63,64,65,66,67,68,69,70,71,72,73,74,75,76,77,78,79,80,81,82,83,84,85,86,87,88,89,90,91,92,93,94,95,96,97,98,99,100,101,102,103,104,105,106,107,108,109,110,111,112,113,114,115,116,117,118,119,120,121,122,123,124,125,126,127,128,129,130,131,132,133,134,135,136,137,138,139,140,141,142,143,144,145,146,147,148,149,150,151,152,153,154,155,156,157,158,159,160,161,162,163,164,165,166,167,168,169,170,171,172,173,174,175,176,177,178,179,180,181,182,183,184,185,186,187,188,189,190,191,192,193,194,195,196,197,198,199,200,201,202,203,204,205,206,207,208,209,210,211,212,213,214,215,216,217,218,219,220,221,222,223,224,225,226,227,228,229,230,231,232,233,234,235,236,237,238,239,240,241,242,243,244,245,246,247,248,249,250,251,252,253,254,255,256,257,258,259,260,261,262,263,264,265,266,267,268,269,270,271,272,273,274,275,276,277,278,279,280,281,282,283,284,285,286,287,288,289,290,291,292,293,294,295,296,297,298,299,300,301,302,303,304,305,306,307,308,309,310,311,312,313,314,315,316,317,318,319,320,321,322,323,324,325,326,327,328,329,330,331,332,333,334,335,336,337,338,339,340,341,342,343,344,345,346,347,348,349,350,351,352,353,354,355,356,357,358,359,360,361,362,363,364,365,366,367,368,369,370,371,372,373,374,375,376,377,378,379,380,381,382,383,384,385,386,387,388,389,390,391,392,393,394,395,396,397,398,399,400,401,402,403,404,405,406,407,408,409,410,411,412,413,414,415,416,417,418,419,420,421,422,423,424,425,426,427,428,429,430,431,432,433,434,435,436,437,438,439,440,441,442,443,444,445,446,447,448,449,450,451,452,453,454,455,456,457,458,459,460,461,462,463,464,465,466,467,468,469,470,471,472,473,474,475,476,477,478,479,480,481,482,483,484,485,486,487,488,489,490,491,492,493,494,495,496,497,498,499,500,501,502,503,504,505,506,507,508,509,510,511,512,513,514,515,516,517,518,519,520,521,522,523,524,525,526,527,528,529,530,531,532,533,534,535,536,537,538,539,540,541,542,543,544,545,546,547,548,549,550,551,552,553,554,555,556,557,558,559,560,561,562,563,564,565,566,567,568,569,570,571,572,573,574,575,576,577,578,579,580,581,582,583,584,585,586,587,588,589,590,591,592,593,594,595,596,597,598,599,600,601,602,603,604,605,606,607,608,609,610,611,612,613,614,615,616,617,618,619,620,621,622,623,624,625,626,627,628,629,630,631,632,633,634,635,636,637,638,639,640,641,642,643,644,645,646,647,648,649,650,651,652,653,654,655,656,657,658,659,660,661,662,663,664,665,666,667,668,669,670,671,672,673,674,675,676,677,678,679,680,681,682,683,684,685,686,687,688,689,690,691,692,693,694,695,696,697,698,699,700,701,702,703,704,705,706,707,708,709,710,711,712,713,714,715,716,717,718,719,720,721,722,723,724,725,726,727,728,729,730,731,732,733,734,735,736,737,738,739,740,741,742,743,744,745,746,747,748,749,750,751,752,753,754,755,756,757,758,759,760,761,762,763,764,765,766,767
Red,0.785229,-0.39698806,0.23872174,-0.37870625,-0.005403974,0.42693132,-0.2342843,0.23521686,0.23405941,-0.19597347,0.2259882,0.6348364,-0.6232869,0.313119,0.016510857,0.13790558,0.25212982,0.014597731,-0.17702954,-0.40524024,0.3284057,-0.2022773,0.13289025,0.07659493,-0.06110893,0.023994984,0.15264831,-0.23568426,0.40960836,-0.51869756,-0.23021337,0.45918217,0.05245793,-0.089580536,-0.021682585,0.67347866,-0.3150596,-0.0853129,-0.34792873,-0.19209297,-0.29792675,-0.3733216,-0.20933954,0.200895,0.114803836,0.27254388,-0.4753413,-0.2863893,0.60738933,-0.42287922,-0.26611972,-0.000451272,0.35331059,-0.10746164,0.121774554,-0.03213337,0.25958034,-0.14779708,0.03721961,-0.011656374,-0.15562,-0.14976127,0.16092344,-0.18751945,-0.099199936,-0.33065626,-0.372869,-0.031737022,-0.5944932,-0.35444736,-0.27612072,-0.3089381,0.42881534,0.20366834,-0.53625476,0.14338017,0.57217395,-0.5897874,-0.09675415,0.6599917,-0.66151553,0.4063197,-0.2568584,0.28822947,-0.31464082,-0.028004851,-0.02242994,-0.5022765,0.51852775,-1.083497,0.34591988,0.23021065,0.003728616,-0.020839104,0.23376158,1.0134026,0.078439526,-0.19172122,0.3095019,0.061522853,-0.14831738,0.5275498,0.26465437,-0.7434651,0.26944095,0.036309004,-0.43646887,0.62870055,-0.6776293,0.5455923,0.6971192,0.35564205,-0.14055721,-0.024576427,-0.2772719,-0.86895573,-0.13655294,-0.9696322,-0.10664738,0.067589566,0.37586552,-0.12752102,0.5459349,-0.17818151,-0.38619184,-0.89029324,0.37572262,-0.51470625,0.37704062,-0.085419975,-0.03257549,0.40152952,-0.11526806,-0.07272961,-0.50665295,-0.15272841,0.16935731,0.4370794,0.6156615,-0.50733805,0.42384675,-0.10947394,-0.4324291,-0.29468897,-0.03689801,0.16365562,0.056273136,0.6395201,-0.016575465,-0.098140426,0.16964233,-0.016357051,0.42081326,0.25853008,0.10402211,-0.581163,-0.37102172,0.08328331,-0.06562201,0.47972593,0.46018916,-0.037174847,-0.27925655,0.63704807,0.055955376,-0.14123538,-0.35940865,-0.36904672,-0.39550442,0.23671715,0.23733206,-0.3358035,-0.4486904,-0.23916218,-0.20310207,0.16468431,-0.27505764,0.53955096,-0.5645496,-0.4361177,0.1147569,0.22169574,0.10898222,-0.103396244,0.06726307,-0.3468258,0.09334587,-0.11001388,0.36360043,0.51790124,0.15928452,0.3362422,-0.1305235,-0.44824713,0.28211477,0.20256615,-0.5799367,-0.43244448,0.8269585,0.28982562,-0.39710638,0.45292822,-0.13988754,-0.23767225,-0.6238217,0.5230964,0.009689401,-0.23417974,-0.19966379,1.0570081,-0.24268167,0.09911556,-0.09562808,0.2277191,-0.16936184,0.042909842,-0.30191818,-0.23753355,0.37702227,0.20499466,0.27005124,-0.5168236,0.6363198,-0.076073065,-0.14712593,-0.016354945,0.53942865,0.14944074,0.2619741,-0.03385626,-0.29403764,-0.24321906,-0.23367397,-0.26693803,-0.019103914,0.002163721,-0.022397438,-0.5099611,-0.12494598,-0.095171265,0.023009477,0.063686326,0.25492623,-0.21172133,0.89215785,0.06849767,-0.001141489,0.46731406,0.48457035,-0.21537574,0.1967571,-0.28698283,0.29663262,-0.15515241,0.6384823,0.17062686,0.013828894,-0.08123778,0.30766425,-0.1100956,-0.051201038,-1.1665355,0.124772206,0.60363287,-0.118819036,-0.37551022,-0.0634099,-0.10032315,0.08413333,-0.2475511,-0.32238862,0.39016,-0.050272655,0.42598698,0.3117857,0.5532288,0.09098245,0.24109891,-0.58738965,0.1180572,0.07926402,0.3431221,-0.017154304,0.37586403,0.166618,0.2233838,0.332234,0.27054968,0.5816501,-0.4799196,-0.11364182,-0.36537328,0.10843446,-0.49721447,-0.25595278,-0.37004873,-0.026768835,-0.067380466,-0.002280155,-0.14379773,0.5953328,-0.13623826,-0.17577152,0.28737348,-0.6318401,0.51337516,0.10585922,-0.58832866,0.5457614,0.118119426,-0.9451846,0.5246915,0.09576918,0.7115212,-0.04042525,-0.028376486,0.011765637,-0.15622604,-0.10503053,-0.17221999,-0.24754193,-0.3348019,0.074290015,0.17244485,-0.003479598,0.32500485,0.50741833,0.2688549,0.14578108,-0.4111548,-0.77325684,0.23930201,-0.14141354,-0.6574358,-0.14508021,-0.013507776,-0.3725955,-0.2114828,-0.25514278,-0.61782295,0.5094088,-0.41055134,0.48303303,0.00705512,-0.32679394,0.8540028,0.35989833,-0.5880366,0.108329944,-0.47429323,0.27568576,-0.10388912,0.025880983,0.6079882,0.008289131,0.14341214,-0.57305914,-0.15412888,0.59780115,0.1998158,-0.057016116,0.82461166,-0.27528948,0.05813023,-0.017831486,-0.29807326,-0.14531466,-0.26332942,0.11071289,0.12612425,0.35812306,0.29552284,-0.8030965,-1.0174599,-0.32643944,0.56248015,-0.040359642,-0.43885636,0.61576074,0.19511366,0.06954433,0.25103113,0.21075346,-0.06678982,0.26118463,0.023337187,0.29967755,-0.38967723,0.6569386,0.18897523,-0.4871978,0.2999188,0.30691597,0.42893824,-0.15602097,-0.13554862,0.2975637,0.20964567,-0.13455962,-0.40113255,0.45366022,-0.11380152,0.32079104,0.5926423,-0.40210262,-0.40486223,0.7077829,0.93656766,-0.13755941,-0.62775844,0.0641512,0.21180366,0.7502697,0.28029898,0.4398098,0.45567635,-0.38107988,-0.42311147,0.26665047,0.88081944,-0.031073181,0.3155537,0.22243188,-0.25202158,-0.6885317,0.09706055,0.15181004,-0.9640936,0.32804522,-0.15701966,-0.1183983,-0.09195845,0.5672081,-0.69129497,-0.9344316,-0.021082107,0.00681905,0.5897592,-0.03720424,0.012414076,0.15305744,0.5957087,-0.6389324,0.3853334,-0.27404687,0.113929935,0.48288926,-0.5137304,-0.037543625,0.14220394,0.35427257,-0.64574057,-1.0176122,-0.47373107,-0.3786028,-0.22763582,-0.41620263,-0.36825418,0.27516383,0.10163362,-0.27696022,0.34906194,-0.3163135,0.03406391,0.31408662,0.1207186,-0.1338891,-0.33385536,0.07152673,0.15578723,0.027182268,0.5354065,0.25037915,-0.17120802,-0.5457948,-0.29722044,0.5869985,-0.042556893,-0.00473028,-0.35455585,-0.17380522,0.35584235,0.80884594,-0.4816141,-0.1963767,0.50122243,0.30588576,0.72222227,0.19948065,0.46990493,0.3880033,-0.54003245,0.19503105,-1.2266477,0.51096624,0.36118892,-0.28570443,-0.22539471,0.2774971,0.4556521,-0.44397673,0.012246102,-0.027594017,0.040973272,-0.5791446,-0.91351795,-0.25209382,0.30909675,0.41840777,0.18858512,0.0858326,-0.7043308,0.09133389,0.18177842,0.1675788,0.104416825,0.05891224,-0.09052819,0.33988377,0.30433878,0.20911625,0.5337548,0.40260035,-0.7231118,-0.47292826,-0.14037807,-1.0693877,-0.47821048,-0.114253424,0.4200651,-1.1317775,-0.0108184,-0.5491089,0.2426864,0.06802033,0.28597355,-0.12865077,-0.6558245,0.16987915,0.4253834,-0.09152173,-0.34221405,0.17835523,0.5506978,0.24969552,0.329151,-0.3615817,-0.41566005,0.52917373,-0.24277595,0.43987176,0.3076418,0.23225994,-0.44909292,0.15752865,-0.06140771,-0.041238494,0.119161606,0.343152,0.43216687,-0.2341244,0.2752771,-0.15843104,-0.09555505,-0.31458023,0.016909154,-0.6583163,-0.3929198,0.18812667,-0.2433951,-0.05312299,0.13436499,0.2660567,0.42198223,0.046512503,-0.27312055,-0.4116213,-0.21947935,-0.1231172,-0.36558875,0.6532577,-0.13251807,-0.08353907,0.3732438,0.36056045,-0.4440364,0.018623885,-0.2976031,-0.7259798,-0.052796233,0.16013572,0.15210517,0.14874853,0.66082627,0.82376677,-0.040822092,0.503565,0.21383964,0.25003454,-0.9008376,0.49825212,-0.25656703,0.073641226,0.30667108,-0.6047577,-0.040007956,-0.009469822,0.41686144,0.567907,-0.102640085,0.5550822,-0.23017693,-0.110545285,-0.26623386,-0.07524515,-0.5395977,-0.39723235,0.032939654,-0.2628901,0.29043034,0.7584156,0.7473362,0.27256277,-0.7523328,-0.13844825,-0.060483187,0.26582304,-0.32596985,0.22193913,-0.5986018,-0.38120532,-0.2645103,-0.21306856,-0.3919402,0.33876175,0.009814494,0.10433041,-0.65782243,-0.16152775,0.14179596,0.25613114,-0.1239981,-0.78552926,-0.5804152,-0.020274201,-0.48523545,-0.71006024,0.56121397,-0.21342213,-0.008171617,-0.044593275,-0.13413633,0.1752298,-0.26666284,-0.31109652,0.14106677,0.10153379,-0.30025265,-0.107104845,0.71563774,0.013310886,0.02919848,0.048734248,0.19637512,0.07733156,-0.13378558,-1.0374141,-0.04183703,0.36245945,-0.14615738,-0.02665222,-1.1843735,0.16253679,0.050786097,0.15043916,0.14317837,-0.10124255,-0.045697443,-0.27930036,-0.13555135,0.09557625,0.5958241,0.5783392,0.075177826,0.1671737,0.24299803,-0.03207711,-0.20120786,-0.045510534,0.45330667,0.42754346,-0.2711424,0.3571513,-0.67274487,0.101702966,-0.408781,-0.3038404,0.58365667,0.073363386,-0.30218333,0.3438688,-0.96864843,0.009442806,0.48784056,-0.16868798,0.29717436,0.56471425,0.3247506,-0.16337916,0.08511152,0.3828628,0.11803944,-0.38252142,0.76248914,-0.16808745,0.005507908,0.640046,0.09997078,-0.34855387,0.7555252,0.13855933,-0.09599254,-0.90510136,0.055651516,-0.5447159,-0.22194579,0.04556253,0.5571323,-0.4987259,0.2847628,-0.12567045,-1.1795117,-0.7742604,0.008604223,-0.18293248,0.07651603,0.006611545,-0.038091786,-0.103538275,0.55810183,-0.7584364,0.010403888,0.118445195,0.19109333,0.12986675,0.12137294,0.468116,0.5135604,-0.18913352,-0.7035512,0.35382864,-0.8770017,-0.3158936,-0.34338573,0.53397083,0.13017412,-0.67315805,0.17429423,0.43048516,0.06535732,-0.41223496,-0.19186655,0.46140367,-0.064232506,0.5675257,0.563979,-0.010146705,0.10843611
Green,0.5791501,-0.27071443,0.36836034,-0.37367615,-0.11998265,0.50314826,-0.13132875,0.11363532,0.18464227,-0.017028421,0.33280322,0.61117846,-0.8679424,0.42420095,0.21487056,-0.034604874,0.47873455,0.11067593,-0.11669521,-0.29350966,0.27738065,0.07392759,-0.004498244,0.057273857,0.001533302,-0.13277008,0.13679422,-0.24764638,0.36198944,-0.6386238,-0.07323664,0.47371295,0.23645084,-0.001090432,0.06766638,0.6413144,-0.46633,0.000939784,-0.23919092,-0.11715285,-0.37117308,-0.32365546,-0.25177914,0.30665383,0.16160056,0.29981378,-0.37517628,-0.26381615,0.4593032,-0.2023307,-0.48918995,-0.18428434,0.3681648,-0.4059957,0.010948072,0.13241276,0.23733246,0.08721516,-0.030457137,-0.01562647,-0.08347578,-0.007990607,0.23929782,-0.3116149,-0.2397975,-0.14742646,-0.31293127,-0.033851977,-0.6203891,-0.5914083,-0.2552615,-0.001451692,0.41109115,0.1466137,-0.33740214,0.39337012,0.3831477,-0.74603647,-0.27045923,0.6576514,-0.5877115,0.22826056,-0.18186314,0.42560562,-0.32293585,0.054720167,0.03489286,-0.41079623,0.33468294,-1.1560354,0.15578803,0.14963083,-0.09486854,-0.14354958,-0.0604106,0.88399476,0.022778839,-0.028498104,0.36439726,0.17579706,0.07909451,0.4625253,0.14915133,-0.79368645,0.32997707,0.11907118,-0.14733335,0.58116513,-0.43605083,0.48656395,0.7425993,0.3722386,-0.04775483,-0.003116663,-0.31140587,-0.5484759,-0.48176044,-0.44465426,-0.3870415,-0.010009768,0.43149874,-0.23846443,0.56449425,-0.20077036,-0.20945641,-0.8947425,0.2288629,-0.36252838,0.5479155,-0.00498201,0.06418519,0.490588,-0.019763066,0.1240998,-0.49750042,-0.12322744,0.23207135,0.38028866,0.27632666,-0.36336955,0.44475004,-0.095110096,-0.27097303,-0.23926367,-0.08037887,0.12719603,-0.2193126,0.58225876,-0.042974513,-0.029464917,0.02206649,0.009418423,0.5734629,0.28203768,0.10221767,-0.65626514,-0.35751766,-0.19801866,-0.11930563,0.43770298,0.44532394,-0.13220929,-0.32422858,0.6046634,-0.064279325,-0.03244915,-0.19768487,-0.20145884,-0.52445644,0.2610344,0.10001042,-0.4323078,-0.6652813,-0.33907416,-0.07069216,0.18618557,-0.2499204,0.4114965,-0.47497088,-0.31420904,0.14431821,0.04611334,0.13906641,-0.25584275,0.11466201,-0.2811687,0.36027685,-0.0434844,0.40321496,0.4665606,0.11748917,0.4207129,0.101925336,-0.4618427,0.15134576,0.22215319,-0.30071923,-0.30591455,0.60410935,0.40536886,-0.37073997,0.53585416,0.08507119,-0.15316103,-0.51522356,0.80746555,-0.008074106,-0.36884257,0.119186476,0.9726758,-0.38515037,-0.09810372,0.050808977,0.22705677,-0.18661729,0.10235877,-0.11074392,-0.15881757,0.27959958,0.13086699,0.2396485,-0.5620557,0.43036574,0.1039955,-0.32769147,-0.067764,0.48384476,0.13338356,0.28680673,-0.08087555,-0.1656626,-0.058442563,-0.28459868,-0.3238988,-0.025218204,-0.04525911,0.21652152,-0.45939285,-0.38603202,-0.20101145,-0.021638365,0.115717396,0.12331907,-0.41195205,0.7196718,0.06797616,0.12461481,0.23442642,0.42406797,-0.29428378,0.282919,-0.40889627,0.013301713,-0.2805504,0.75005394,0.2204043,-0.026633603,-0.06634917,0.12436461,-0.09568407,0.03343924,-0.9444662,-0.04412211,0.7197755,-0.27959603,-0.17618246,-0.1780641,-0.002249831,-0.12946936,-0.16635038,-0.18736365,0.530232,0.30823532,0.6536864,0.34023672,0.2738123,0.23835635,0.37210968,-0.52677715,0.21593264,-0.076340914,0.25744292,-0.024621708,0.27038583,0.024938276,0.16204728,0.42691067,0.18791763,0.49431252,-0.49244422,-0.09657742,-0.46470356,-0.18612841,-0.1624935,-0.41248935,-0.33715123,-0.14109984,-0.036106236,0.08467567,0.021330174,0.38768062,0.010991001,-0.20969895,0.17901567,-0.5198406,0.41168234,-0.026946679,-0.41279525,0.7835064,0.04158615,-0.87912494,0.38024357,-0.063512914,0.51895535,-0.012672223,0.07568236,0.033619583,-0.122080706,-0.17563424,-0.073288865,-0.32773742,-0.20782755,0.101706676,0.2294879,0.18943395,0.27834076,0.21043865,0.19061495,-0.01834649,-0.4889273,-0.5142107,0.4925747,-0.13711622,-0.64180994,-0.22598366,-0.01701879,-0.16168578,-0.3613951,0.034120526,-0.2954348,0.50010955,-0.42041853,0.56062275,0.029332625,-0.33490843,0.9823804,0.38722068,-0.6985577,0.0881062,-0.507052,0.4301413,-0.0763163,-0.091848835,0.33134344,-0.05441745,-0.06257201,-0.55564284,0.032915376,0.32104653,0.08073872,-0.14239731,0.89822036,-0.32641822,-0.25787812,-0.15890595,-0.083413005,-0.13386102,-0.18687305,0.0946127,0.03508384,0.35052368,0.47910815,-0.64774084,-1.2465388,-0.2737607,0.5609979,0.12225147,-0.26235393,0.476412,0.22160509,0.21174021,0.33121634,0.20789106,0.07000368,0.25209433,-0.17770922,0.40403372,-0.4366532,0.6742964,0.048395194,-0.35038853,0.37015337,0.29836962,0.5451005,-0.21311757,-0.31847617,0.3507011,-0.002461425,-0.22671483,-0.2849768,0.47832847,-0.186704,0.35048634,0.59950674,-0.5051083,-0.2632217,0.80373317,0.6628995,-0.103603005,-0.54766226,0.185383,0.2225888,0.92300457,0.11964558,0.45078182,0.4581202,-0.4837373,-0.2747801,0.24193032,0.6219092,-0.1416209,0.09976864,0.42720884,-0.49938104,-0.68871486,0.07615064,0.105353355,-0.7631492,0.35349503,-0.3560129,-0.37246233,0.051205635,0.3785242,-0.7806457,-0.8836088,0.03633197,0.009615948,0.66476333,0.049230337,0.2564614,0.034675024,0.69665736,-0.6945077,0.38354954,-0.37467617,0.28013378,0.47348595,-0.6043095,0.047535144,0.13882062,0.4697573,-0.6324399,-0.94713825,-0.66029054,-0.3441481,-0.13328739,-0.2341585,-0.3317878,0.3220233,0.16298689,-0.06630347,0.08979101,-0.22295977,0.18797694,0.19783354,-0.06696091,0.043339603,-0.4845347,-0.012586713,0.25377214,0.1611557,0.28923866,0.19049521,-0.16135383,-0.73438424,-0.37690637,0.69260037,-0.18118013,-0.104516946,-0.35113484,-0.012492476,0.5131317,0.8139502,-0.38508317,-0.20776038,0.4981124,0.3256894,0.58429515,0.3031071,0.5516184,0.3423116,-0.33439976,0.104591094,-0.98980856,0.37697524,0.22783363,-0.22596814,0.08887254,0.28704292,0.5957848,-0.39362875,0.041511875,-0.14202896,0.058363736,-0.5167121,-0.8664975,-0.17515005,0.085002325,0.2875109,0.03623544,0.08147927,-0.71460056,-0.089553796,0.13802324,0.16675727,0.04667375,0.075099036,-0.15934637,0.20806679,0.22352083,0.40694627,0.55896217,0.34741512,-0.6994186,-0.40230584,-0.1362369,-0.8680266,-0.6994522,-0.1905315,0.2730425,-0.8199883,-0.016035153,-0.43368515,0.21821317,0.066769995,0.36992663,-0.20163134,-0.7339114,-0.14051509,0.38500762,0.10254337,-0.39869013,0.04443084,0.38672325,0.164259,0.45101038,-0.387698,-0.50322926,0.3695464,-0.23800062,0.2820552,0.22260103,0.28302136,-0.33971453,0.0878932,0.048754852,-0.061862018,-0.07633979,0.20029128,0.04643393,-0.32242042,0.42649275,-0.17225663,0.032869358,-0.26643473,-0.129297,-0.5664512,-0.26219895,0.19489135,-0.3083981,-0.047976788,-0.008690828,0.3177144,0.5520221,0.092976026,-0.3125575,-0.33162907,-0.13362347,-0.15594764,-0.34698054,0.38359925,-0.104107626,-0.17994523,0.4966047,0.34615844,-0.45789307,-0.1257242,-0.3256261,-0.6125407,-0.16489793,0.3728578,0.102856174,0.1114818,0.54620755,0.707302,0.03264153,0.5366923,0.16043709,0.4981568,-0.7811416,0.05215885,-0.176352,-0.018587451,0.24843426,-0.45387548,0.002811235,-0.020394733,0.52660555,0.3258876,-0.1476651,0.4342606,0.03251207,0.00936555,-0.35910413,0.09627298,-0.66282076,-0.47612762,-0.08082446,0.023127334,0.3465847,0.4923494,0.85729474,0.17515685,-0.58815473,-0.119347505,-0.20711803,0.50448686,-0.3149677,0.014205704,-0.45108002,-0.27180928,-0.2849285,-0.11006492,-0.28972688,0.17528309,0.22165439,0.07835632,-0.5558421,-0.08478006,0.13633747,0.2872465,-0.09889538,-0.731976,-0.5482325,-0.014177086,-0.51156795,-0.8408597,0.59514815,-0.5113875,-0.000730666,-0.029926313,-0.012854667,0.24076197,-0.2501538,-0.09260239,0.165087,0.17971464,-0.33413458,-0.12746699,0.46896425,0.14744547,0.033114266,-0.35124224,0.02226265,-0.034776192,-0.20286234,-0.75620455,-0.12643982,0.20643483,-0.08204281,-0.026756534,-1.0548201,0.21490242,0.048609674,0.24806719,-0.031257655,-0.16435091,0.089324,-0.008092761,0.06446816,-0.13713251,0.637531,0.51698405,0.31711227,0.002585977,0.31158885,-0.050355315,-0.35198838,-0.2542559,0.4972503,0.4236488,-0.24921867,0.18690087,-0.54081666,0.11238406,-0.38628024,-0.24052298,0.4860838,0.014592846,-0.17847528,0.2031949,-1.0207819,0.2047406,0.4643276,-0.101696916,0.14865792,0.31704664,0.23999226,-0.1252042,-0.09265225,0.21490219,0.26073325,-0.44007084,0.75464547,-0.025989879,0.016271317,0.7358584,0.051809072,-0.44236717,0.7092982,0.07902652,0.034630544,-0.5930764,-0.023852242,-0.48363405,-0.26365766,-0.060247023,0.5837665,-0.4506312,0.2983687,-0.19822182,-1.3523319,-0.6706897,0.08617882,-0.0672663,0.07087906,0.1121488,-0.12278222,-0.16938914,0.55876404,-0.83953744,0.19759454,0.008200451,0.09801428,0.21498318,-0.14689443,0.3171843,0.43779588,-0.20847885,-0.5646398,0.25154322,-0.7822444,-0.1613586,-0.31650072,0.53635347,0.23016666,-0.40376896,0.4473688,0.3552833,0.052820623,-0.45701402,-0.19570498,0.480637,0.00335468,0.57961786,0.4965101,-0.17954639,-0.11309594
Blue,0.6419052,-0.21496442,0.29288298,-0.26693833,-0.050066274,0.48139235,-0.18881729,0.17380929,0.13383053,-0.003903896,0.29033354,0.3972358,-0.74562407,0.3389849,0.13480838,0.005464871,0.44559908,0.12450241,-0.089861274,-0.2980148,0.257812,0.11491515,-0.044910252,0.09921001,-0.052978534,-0.11274258,0.045260865,-0.16959588,0.33429337,-0.50248295,-0.05531179,0.39904597,0.1049119,-0.09502202,0.039581034,0.6118526,-0.36764672,0.017155308,-0.26245615,-0.19862469,-0.44218448,-0.3135707,-0.23322049,0.16930284,0.25035268,0.3347199,-0.27507254,-0.34895307,0.43487182,-0.43576494,-0.42372125,-0.15283854,0.31640258,-0.3862757,0.024857398,0.12694125,0.18539573,-0.13775292,0.12473762,0.023437155,-0.057860315,-0.15582171,0.21691701,-0.2615919,-0.13464817,-0.24235864,-0.46377087,-0.04580983,-0.61335486,-0.52992076,-0.20889083,-0.15318216,0.4789729,0.056577135,-0.27557132,0.24296637,0.4341798,-0.7495465,-0.33410835,0.62082034,-0.56755894,0.4232428,-0.1071056,0.3924186,-0.21177243,-0.10419429,0.026633492,-0.5124996,0.3452634,-1.1797291,0.18777741,0.20714907,-0.02702617,-0.09459375,-0.027506014,1.017896,0.012228509,0.006819534,0.349802,0.10114338,-0.11675306,0.46769232,0.16323367,-0.79696643,0.31950817,0.097205505,-0.16040526,0.64042455,-0.5939158,0.5381422,0.65273637,0.25973532,0.037402343,0.17084481,-0.2756366,-0.6148335,-0.34285113,-0.480004,-0.35887125,-0.030777289,0.50498813,-0.14849313,0.55820704,-0.3595441,-0.2770073,-0.92591333,0.21027862,-0.3550281,0.37148556,0.03539908,0.17454728,0.44845054,0.10251702,0.0738319,-0.4687664,-0.17051916,0.25627202,0.33758023,0.37773108,-0.40391093,0.44908255,-0.08081173,-0.4470284,-0.11282862,-0.16883874,0.102924995,-0.15581457,0.570057,0.035306614,-0.14568211,0.08381134,-0.18697523,0.42094415,0.17829323,0.06854949,-0.5454367,-0.1972739,-0.231362,-0.008636992,0.43561843,0.42965364,-0.31826243,-0.35415632,0.7608103,-0.0888057,-0.06519367,-0.17331734,-0.25259247,-0.4716413,0.27071065,0.2033859,-0.4772923,-0.5967763,-0.36957785,-0.24919952,0.12730597,-0.16081719,0.4364917,-0.46912548,-0.29930854,0.14585091,0.07311175,0.12318643,-0.229225,0.1673063,-0.32822138,0.14430031,-0.010774513,0.4029963,0.5689464,0.17823064,0.4537294,0.012886465,-0.4689874,0.17314431,0.18581316,-0.2802902,-0.4643008,0.70398027,0.31197923,-0.42479417,0.45719215,-0.070991024,-0.17987871,-0.5278858,0.7982782,0.031564664,-0.38388655,0.002602815,0.9671578,-0.4054323,-0.003969224,-0.07750519,0.16049509,-0.18250367,0.20971343,-0.15682963,-0.24162078,0.38801384,0.03010084,0.21978834,-0.55485654,0.2819829,-0.021161024,-0.23444733,-0.1262444,0.5394898,0.10823603,0.23339935,-0.09584838,-0.08228726,-0.017634649,-0.37761313,-0.44940206,-0.005228245,-0.11395391,0.20759237,-0.4731157,-0.36878806,-0.23177478,-0.042263567,0.19703506,0.15055463,-0.37330553,0.7279784,0.16424659,0.08421284,0.25704855,0.41141152,-0.22828794,0.24180846,-0.44402632,-0.06508355,-0.26758993,0.6017316,0.28718808,-0.0748266,-0.070472956,0.2964724,-0.20957398,0.003092706,-0.9651056,-0.010712592,0.567334,-0.2486955,-0.21994124,-0.030940598,-6.09E-05,0.036070235,-0.30035883,-0.18032871,0.35939053,0.26866347,0.5609388,0.39057502,0.29942462,0.19136398,0.3912628,-0.47639695,0.045981724,0.009462542,0.07834248,0.07535173,0.3502849,0.06790876,0.1751229,0.42469925,0.16017492,0.4945876,-0.45022056,-0.23373964,-0.31619245,-0.14077331,-0.2149494,-0.32765266,-0.29209667,0.03534052,0.07605586,0.08069938,-0.052108414,0.46539876,0.043348584,-0.09710944,0.24993847,-0.6581272,0.46494606,0.04008643,-0.37933308,0.71700186,0.07376877,-0.9450604,0.435335,0.2021205,0.5760445,0.035933215,-0.05179592,0.120415404,-0.07709835,-0.17590882,-0.14562199,-0.368922,-0.114748836,0.14374895,0.29590875,-0.022356166,0.2839845,0.19703375,0.17095852,0.001493593,-0.38429984,-0.41167423,0.24005772,-0.12150924,-0.6358872,-0.13179947,0.06904291,-0.122294545,-0.5412841,-0.11519812,-0.23295434,0.6301236,-0.38797516,0.45465258,0.05910597,-0.44182473,0.68632257,0.52193177,-0.6870237,0.073960796,-0.35816994,0.32087582,-0.06777842,-0.10655178,0.4082272,0.09192837,0.12168863,-0.6953792,-0.040886555,0.35845128,0.21656568,-0.1708902,0.80133826,-0.4226339,-0.28352207,-0.13086171,-0.08473958,-0.10021155,-0.05128079,0.19890161,-0.10132484,0.436923,0.35507387,-0.7254632,-1.3165213,-0.32078192,0.5039465,0.08971495,-0.21312661,0.5447325,0.1115546,0.20685431,0.42777792,0.021171343,0.08138091,0.17343934,0.030834164,0.43339467,-0.4920566,0.58834374,0.23200582,-0.50114214,0.38568267,0.3407993,0.404672,-0.23440257,-0.33709687,0.33493915,0.075211644,-0.1442324,-0.3089665,0.36097392,-0.036532037,0.3776954,0.48449162,-0.5608675,-0.24781926,0.70465213,0.7466823,-0.1781572,-0.4509316,0.1201504,0.2270254,0.91073716,0.07719095,0.48085684,0.48600945,-0.30389547,-0.24256133,0.2291819,0.6435892,-0.049744844,0.21125863,0.21442962,-0.3183157,-0.70883673,0.13897578,0.0670073,-1.010626,0.44159174,-0.40132967,-0.24761327,0.084361136,0.46557745,-0.5550302,-0.843847,0.030631334,0.06684756,0.6630427,0.087474346,0.103115246,0.06902369,0.71516335,-0.6090903,0.36175638,-0.41093922,0.22297083,0.51245195,-0.4995825,0.10127698,0.19567022,0.38023946,-0.6394469,-0.9076451,-0.54668087,-0.36903313,-0.17817809,-0.20133018,-0.34073514,0.25284916,0.02616729,-0.07754504,0.1696978,-0.14684996,0.11288216,0.22963665,-0.07358898,-0.021643022,-0.35169816,0.010609091,0.107549585,-0.004874833,0.3941121,0.29843733,-0.20951876,-0.8459306,-0.33243164,0.6278593,-0.111106865,-0.15447234,-0.3461748,-0.060620185,0.5967819,0.7480493,-0.37958762,-0.20243776,0.5982849,0.35551867,0.6702363,0.17467974,0.5463697,0.42629942,-0.33243743,0.035443492,-1.1929699,0.28600767,0.26546663,-0.18272407,-0.024784127,0.46383435,0.5086706,-0.26431543,0.115099765,-0.053189162,0.07976957,-0.5116376,-0.83594304,-0.27850226,0.07380873,0.36049744,0.1064262,0.07569492,-0.73625416,0.04144902,0.019999724,0.10987127,0.12200498,0.14823368,-0.107704155,0.29972965,0.20501493,0.18596639,0.5183184,0.25377962,-0.7130443,-0.35495996,-0.11122282,-0.797063,-0.8249365,-0.14008418,0.26968056,-0.7969001,0.024573069,-0.4626985,0.3028982,0.0892107,0.31611016,-0.17797092,-0.63872635,0.029931331,0.37665838,0.09794649,-0.322136,0.11771419,0.33047995,0.23661853,0.45457146,-0.428513,-0.4052914,0.3925622,-0.0926552,0.26154014,0.22307357,0.24153142,-0.24788548,-0.03838607,0.12579963,-0.119346015,0.045373254,0.1845219,0.2748776,-0.35760537,0.34695527,-0.107735805,0.089408986,-0.30303165,-0.05515782,-0.3991542,-0.2060864,0.27608588,-0.1509918,-0.06577308,-0.039604466,0.28575277,0.42624018,0.14767826,-0.29115653,-0.31925818,-0.087760486,-0.13967296,-0.38282648,0.40791348,-0.05293616,-0.08923403,0.38553604,0.24719901,-0.36880913,-0.18665366,-0.19381735,-0.6798455,-0.08499767,0.32215595,0.2670526,0.28407052,0.533988,0.6796101,-0.1581757,0.60812473,0.13786228,0.44319025,-0.8216185,0.10921995,-0.15367256,0.09177352,0.2247562,-0.6533278,0.007136285,0.0768665,0.52695644,0.3213427,-0.11067939,0.45406452,0.09037837,-0.02674319,-0.2763514,0.08543907,-0.6766974,-0.33815202,-0.10042681,-0.15672322,0.25803182,0.58984596,0.8913816,0.06059861,-0.52635443,-0.10463158,-0.120520554,0.3775316,-0.36017966,-0.005301405,-0.47854987,-0.2506115,-0.24430273,-0.15020947,-0.34889406,0.049356997,0.18698595,0.16218938,-0.53131145,-0.15514459,0.048048854,0.24455026,-0.12488979,-0.77399075,-0.53522253,-0.034323793,-0.5309524,-0.7610861,0.588857,-0.51184785,0.01847194,-0.011533329,-0.07054004,0.20265934,-0.28818545,-0.0272266,0.10947949,0.13457802,-0.2645423,-0.1700372,0.6417507,0.11438691,-0.07606596,-0.20438518,-0.050955616,-0.021920327,-0.2103296,-0.78800076,-0.108628474,0.25518903,0.00857908,0.06321368,-1.0359265,0.20294023,0.16583529,0.1380895,0.011593089,-0.2035424,0.046197765,-0.042086918,0.07500063,-0.21999754,0.6446419,0.58666104,0.27772477,0.085454,0.3249405,-0.053515237,-0.15328176,-0.20725957,0.5400794,0.34791633,-0.2305028,0.11624343,-0.7125467,0.10054992,-0.38319558,-0.34002048,0.53768307,0.06777041,-0.35422996,0.2350517,-0.999821,0.12896356,0.35246286,-0.17556076,0.2788273,0.43180993,0.3032047,-0.051686518,-0.05982938,0.25756872,0.2487679,-0.5699631,0.7178017,-0.012587249,-0.006979231,0.70542425,0.03242337,-0.3059537,0.7500203,0.10185914,0.001430559,-0.6175285,-0.03766662,-0.45041302,-0.275908,-0.03024235,0.4749537,-0.45960566,0.47600776,-0.06600612,-1.3520671,-0.61308354,0.144572,0.015994178,0.11524393,0.023108643,-0.13852994,-0.10683251,0.6384841,-0.7552958,0.11413532,-0.02787258,0.037711564,0.16489223,-0.15256688,0.27379692,0.46137148,-0.11819051,-0.42831802,0.19359216,-0.8555972,-0.16592477,-0.27424094,0.5806416,0.263181,-0.488044,0.3119671,0.34683445,0.099974744,-0.42569414,-0.16858056,0.3164618,-0.0676224,0.41697174,0.4809103,-0.0689679,-0.017004566
Black,0.5865589,-0.3562727,0.2810681,-0.36226192,-0.0922076,0.4769434,-0.11185326,0.14362076,0.027794693,0.052164,0.31511492,0.514698,-0.6885799,0.42513347,0.17550766,0.12697813,0.4333827,0.17370097,-0.03518129,-0.34172758,0.25667375,0.051944304,0.14297874,0.038816858,0.08550837,-0.075424574,0.031737547,-0.25282273,0.31629583,-0.48872975,-0.10683813,0.44860086,0.19787574,-0.015801046,0.08383764,0.6331199,-0.28230074,-0.048517227,-0.21586503,-0.28398857,-0.4091528,-0.19095887,-0.31097928,0.21880452,0.15097591,0.37493724,-0.31549647,-0.3127852,0.34401697,-0.31727123,-0.37401757,-0.17464004,0.4055991,-0.26161152,0.0894832,0.07371998,0.14847027,-0.15061776,0.07722088,-0.03294025,0.07127745,-0.1428467,0.23994823,-0.10074643,-0.12762225,-0.28257728,-0.32375622,0.007781063,-0.5541839,-0.5581633,-0.2514281,-0.14039324,0.393786,0.20710437,-0.31153178,0.13369067,0.4237396,-0.68192965,-0.23158054,0.6306822,-0.56011957,0.3875341,-0.2242858,0.23082876,-0.22106074,-0.09020065,0.05182195,-0.3433238,0.3388848,-0.9474689,0.20834489,0.20178498,-0.07918197,-0.13513578,-0.06985808,0.8830215,0.03624603,-0.011332408,0.3445837,0.074055195,0.04775038,0.5350151,0.20398864,-0.82929707,0.21967636,0.18621488,-0.19053492,0.5716135,-0.46924847,0.5959031,0.6808151,0.23732212,0.012793277,0.10319907,-0.18901692,-0.6086151,-0.34819555,-0.5128818,-0.3165321,-0.012697918,0.42632368,-0.09063571,0.60120636,-0.21256895,-0.46418086,-0.9510118,0.23677464,-0.38234445,0.41462976,0.011742945,0.039879404,0.39203247,0.023619061,0.036068033,-0.5515004,-0.14936411,0.1739321,0.2950043,0.4035919,-0.47543815,0.37648898,-0.10746588,-0.46326113,-0.16124694,-0.07302972,0.06927405,-0.11330985,0.5457487,0.06767672,-0.05250495,-0.015568556,-0.14471631,0.53384876,0.08822506,0.12393998,-0.63547105,-0.24071203,-0.23434655,0.013618195,0.5326399,0.48480824,-0.17044008,-0.36315122,0.6872574,0.027610147,-0.1076891,-0.12974696,-0.3070686,-0.52292913,0.16217257,0.19290836,-0.48898205,-0.66598433,-0.2825998,-0.07720901,0.06601905,-0.1952728,0.31535217,-0.46987697,-0.28928968,0.26022142,0.1558725,-0.009038572,-0.20167626,0.088838324,-0.29260853,0.10380125,0.009245087,0.45717216,0.5605624,0.114666834,0.44697133,-0.06573006,-0.3403428,0.12247346,0.28911167,-0.19125327,-0.41362023,0.54875404,0.44789818,-0.43677607,0.55272406,0.000581703,-0.22628912,-0.45700398,0.70661134,0.009690261,-0.40804812,-0.002494288,0.94581586,-0.48534727,-0.026194395,-0.11218577,0.114984855,-0.121681966,0.23041251,-0.19866559,-0.15014704,0.35814556,-0.030427601,0.26422614,-0.4626601,0.42028555,0.09992262,-0.1934903,-0.113044,0.5345162,0.09528721,0.23645045,-0.1431309,-0.23423146,-0.033768896,-0.42829305,-0.43344864,-0.03655351,-0.13254263,0.1386226,-0.46198255,-0.28583884,-0.19042347,-0.07081716,0.11572007,0.21200992,-0.2622013,0.72969544,0.08437482,-0.047800694,0.28427774,0.42117506,-0.27982977,0.32771295,-0.40928873,0.072671704,-0.30988768,0.6113539,0.16244902,0.030043172,-0.04136442,0.16518232,-0.062074643,0.14602394,-1.0519098,-0.007947368,0.46734196,-0.36392635,-0.21695447,-0.029165292,-0.015775878,-0.03424272,-0.21480834,-0.20717396,0.38105187,0.24389386,0.44708076,0.38505572,0.48222238,0.1854672,0.19677415,-0.52670676,0.14215867,-0.05207685,0.11492026,-0.03091043,0.29362854,0.041631836,0.20641032,0.3551523,0.14629483,0.5877112,-0.565544,-0.005937249,-0.31124768,-0.06820217,-0.2696038,-0.25448185,-0.30092996,-0.026592636,0.09872418,-0.012416108,0.021714643,0.3888598,0.014735,-0.27238095,0.22573031,-0.5266198,0.50968134,-0.06508833,-0.35385194,0.612157,0.04930195,-0.9366481,0.48401,0.13982767,0.5909296,0.01313598,0.04403035,0.05579122,-0.06622603,-0.12305125,-0.16671531,-0.2963954,-0.15089135,0.17595325,0.2924862,0.11718182,0.3185273,0.2124081,0.12360354,-0.002125959,-0.25903276,-0.44278997,0.12745681,-0.11589124,-0.5593543,-0.28336933,0.002971643,-0.096354835,-0.46966004,-0.13484223,-0.3032073,0.49594352,-0.34046438,0.423858,0.0645766,-0.21252395,0.90608454,0.42934892,-0.76150733,0.013477002,-0.27200982,0.24345016,-0.13173518,-0.048617516,0.5083018,0.004278758,0.04564006,-0.702063,0.044754334,0.3923797,0.17592119,-0.1382166,0.9208768,-0.22841628,-0.10359645,-0.08552618,-0.21268983,-0.067304574,-0.10590136,0.16485944,-0.16281499,0.41568843,0.3616301,-0.6248756,-1.2197126,-0.28396827,0.43377194,-0.000547343,-0.27122393,0.5601954,0.26675513,0.12976368,0.3571073,0.10619496,0.08334794,0.22210538,0.05657619,0.43365216,-0.27719745,0.6285659,0.21141563,-0.44106242,0.42737052,0.2492127,0.3526254,-0.21800272,-0.15928505,0.29716033,0.055819992,-0.16206048,-0.31239387,0.37945196,-0.07609075,0.3627064,0.4593466,-0.5235826,-0.31030184,0.78362846,0.72468406,-0.16713735,-0.4982307,0.061195545,0.2064368,0.9461163,0.08360298,0.57275456,0.5406273,-0.46559462,-0.29784784,0.14164563,0.534941,-0.08673582,0.12635316,0.34714174,-0.31768918,-0.7099099,0.06479604,0.06229869,-0.8529501,0.3700781,-0.24482182,-0.19777943,0.091145396,0.46360588,-0.6097336,-0.8280298,-0.001946211,-0.016669337,0.59902793,-0.071925595,0.18291517,0.103969686,0.749224,-0.6638599,0.31366095,-0.32125834,0.15190199,0.5025672,-0.45805576,0.10059885,0.13179047,0.25651008,-0.56137776,-0.8666531,-0.5364467,-0.23654297,-0.10877951,-0.27720913,-0.3705571,0.27368632,0.24503675,-0.039165933,0.14657877,-0.0728184,0.1314219,0.2294364,-0.16054128,-0.053451844,-0.3770477,0.14070418,0.11178786,-0.07985213,0.27052933,0.19697002,-0.12925325,-0.7320773,-0.3563182,0.6211875,-0.12495278,-0.07232491,-0.2699147,-0.09516027,0.41621283,0.75236046,-0.36363384,-0.21632938,0.5905296,0.39133137,0.59507674,0.14802845,0.40548435,0.36268845,-0.31914145,0.12208535,-1.2483524,0.3738296,0.22053969,-0.09597212,-0.022310259,0.042434424,0.30141115,-0.3907082,0.057495993,-0.07919674,0.02184874,-0.6071724,-0.81641436,-0.27181098,0.012139062,0.3743299,-0.022469582,0.09495727,-0.71441156,0.09596433,0.005026487,0.14565562,0.14895718,0.027518597,-0.09772311,0.32755715,0.142214,0.1836095,0.5559026,0.3093822,-0.7584407,-0.34323603,-0.17013578,-0.90331954,-0.6147973,-0.16092265,0.33424085,-0.7967795,0.057395644,-0.4044325,0.34270382,0.05596953,0.27686098,-0.14385454,-0.6105408,-0.04442955,0.3688752,0.03041865,-0.3458291,0.2047101,0.49029174,0.1946125,0.49648073,-0.4038108,-0.44592375,0.41124654,-0.28879207,0.36498818,0.26301375,0.16669774,-0.3082009,0.060605824,-0.07089902,0.031483814,-0.08513336,0.30083394,0.20539792,-0.37226155,0.39249372,-0.21947156,0.09530132,-0.3353713,-0.16912916,-0.5040719,-0.12101786,0.17427786,-0.28660104,-0.09937561,0.06617471,0.24465844,0.54192,0.05896719,-0.26018217,-0.30239993,-0.05743118,-0.23684232,-0.33899045,0.42925194,-0.10093316,-0.020608727,0.3207161,0.2935129,-0.405127,-0.14888905,-0.097398385,-0.6225805,-0.05106931,0.41779307,0.06776039,0.13083428,0.49985424,0.62012947,-0.19884689,0.49046817,0.19207159,0.38176936,-0.66142976,0.05735789,-0.1770195,0.003760828,0.1458273,-0.5922589,-0.018929929,0.035765853,0.40449026,0.40307334,-0.13246109,0.43053338,0.006953722,0.09541221,-0.28695324,0.005471174,-0.6291443,-0.2587225,-0.100838,-0.034643173,0.2516372,0.51984805,0.75453824,0.17517401,-0.5741845,-0.062849164,-0.13610776,0.28510526,-0.21049133,0.002180962,-0.4209581,-0.27903685,-0.08019615,-0.22995965,-0.3505005,0.15997231,0.17537327,0.09907763,-0.64432126,-0.14132448,0.17541721,0.36549658,0.015560253,-0.58460224,-0.57978046,0.050128095,-0.47222838,-0.73707724,0.52809024,-0.42072418,0.09150289,0.13078961,-0.06988107,0.18642776,-0.19005403,-0.16000184,0.1410829,0.18681969,-0.2163416,-0.18577361,0.57675016,0.07390277,0.011151575,-0.2477623,-0.002440843,-0.18935625,-0.16407381,-0.896112,-0.101711236,0.23825131,-0.13860251,0.008956866,-1.040766,0.11421371,-0.009565858,0.048217796,0.096427195,-0.21943863,0.020073414,-0.15693529,0.0743742,-0.061457913,0.6376491,0.63105494,0.32261756,0.08711533,0.24657635,-0.10169568,-0.18141599,-0.13879575,0.45374683,0.3489139,-0.17669117,0.10395386,-0.6335926,0.048083574,-0.30267933,-0.36951765,0.6083543,0.034288254,-0.25740334,0.11015474,-0.9950355,-0.02490984,0.2685745,-0.06272302,0.25423846,0.34486103,0.3354657,-0.06133205,-0.064945765,0.20120077,0.329484,-0.46788663,0.8180318,-0.12212125,-0.018450249,0.55387944,0.11899863,-0.24336019,0.77214235,0.0788059,0.09227944,-0.6363636,0.002789868,-0.40230983,-0.26058048,0.15983562,0.5416036,-0.40685898,0.16147114,-0.10129994,-1.2354037,-0.5959221,0.0891617,0.06723113,0.058017496,0.12216423,-0.11392442,-0.23180461,0.59209484,-0.718687,0.13768564,0.013781436,0.16510852,0.16152418,-0.12662043,0.35811177,0.3883443,-0.19761719,-0.45471734,0.24620233,-0.8944358,-0.28477338,-0.31891704,0.4962063,0.3871462,-0.41640636,0.29590732,0.40266272,0.1511585,-0.54030037,-0.15292959,0.32902092,-0.14049897,0.4360578,0.5604946,-0.001524755,-0.094473474
White,0.6059569,-0.39222914,0.14274494,-0.36547247,0.005240981,0.58727974,-0.12128561,0.12620829,0.11199162,-0.02786653,0.14116587,0.4862515,-0.62691444,0.416474,0.09908936,0.105887435,0.28451532,-0.011160596,-0.069601126,-0.30920097,0.18494752,-0.1456195,-0.1229818,0.1771512,0.029559238,-0.06143344,0.022461815,-0.311897,0.44964546,-0.55627805,-0.17498262,0.3966217,0.052227285,-0.1744592,0.12513135,0.6675063,-0.26708537,-0.052984703,-0.34589335,-0.12852648,-0.3039129,-0.23629174,-0.3613978,0.18390647,0.22314596,0.33691645,-0.3849366,-0.4416805,0.4896619,-0.33325914,-0.24317653,-0.06414197,0.39629823,-0.21747759,-0.0533798,0.17827058,0.31504682,-0.26208615,0.1006381,0.09287708,-0.00097867,0.005631939,0.20236556,-0.18639168,-0.1399823,-0.34111032,-0.5351395,-0.056734864,-0.5424725,-0.5464443,-0.17693593,-0.23114674,0.43857932,0.15543325,-0.35500547,0.09677931,0.5550248,-0.6583435,-0.2974955,0.56100345,-0.528106,0.40804657,-0.35571048,0.1144491,-0.23386957,0.014315761,0.039510988,-0.45316347,0.19089665,-1.1695907,0.19903053,0.17370896,0.002327965,-0.007186294,0.1000639,0.9598447,-8.91E-05,-0.15376222,0.39028934,0.0971876,0.03752728,0.4688594,0.28828964,-0.7428164,0.27084765,0.12641989,-0.21597937,0.7309036,-0.67885846,0.6685414,0.53569275,0.2588269,0.035702497,0.19078824,-0.17539443,-0.6405214,-0.18997486,-0.63969517,-0.20406708,0.03817687,0.4180534,-0.11554505,0.54476404,-0.30076355,-0.3026062,-0.9589247,0.32518902,-0.3476732,0.41820163,-0.27398413,0.06558841,0.41035548,0.056182224,0.07121941,-0.56504065,-0.279494,0.253383,0.33456546,0.65107524,-0.43386534,0.35562536,-0.09721594,-0.3515459,-0.2710401,-0.18355615,0.033029187,-0.063848116,0.52915055,-0.037828606,-0.04024228,-0.03071748,-0.19278969,0.38803557,0.067375846,-0.090154834,-0.65592164,-0.28494605,-0.24581644,-0.023820417,0.4499591,0.5624082,-0.15148179,-0.41569963,0.8496426,-0.013499406,-0.16155334,-0.2973692,-0.37255055,-0.53222024,0.19822505,0.22270063,-0.35345575,-0.584504,-0.2603259,-0.1421673,0.057555854,-0.2151811,0.42494503,-0.5597628,-0.30639055,0.11109191,0.17683375,0.14217722,-0.17307222,0.09083359,-0.17857172,0.13260403,-0.10191649,0.3954963,0.7494187,0.12477426,0.5044869,-0.03450227,-0.4108352,0.12949818,0.3030772,-0.20155676,-0.4722561,0.5893889,0.4098445,-0.539592,0.4859179,-0.04186466,-0.28903198,-0.51463115,0.5811426,-0.026272545,-0.39808586,-0.010188899,0.89043444,-0.4138399,0.08559133,-0.14731622,0.19171946,-0.11774181,0.16523747,-0.29192394,-0.18694982,0.4308446,0.062170263,0.27205113,-0.41420677,0.39128396,0.02379452,-0.15869805,-0.124041505,0.5744676,0.113787055,0.34443203,-0.09180488,-0.27938816,-0.10077841,-0.3131294,-0.36959586,-0.019079456,-0.13839668,0.06099103,-0.4843851,-0.3387474,-0.18587501,-0.11002977,0.09691717,0.15377031,-0.16048351,0.67898136,0.107624464,-0.07655195,0.33272052,0.34078082,-0.29077193,0.38017672,-0.4523745,0.15383877,-0.29281992,0.53447753,0.17101915,0.092841946,-0.04499523,0.2609451,-0.21340387,0.16796671,-1.1153919,0.12549847,0.52243286,-0.2707602,-0.4081349,-0.041927584,0.077528,0.055449914,-0.24486397,-0.1133766,0.48461607,0.25387385,0.53382057,0.40961146,0.392437,0.12760928,0.43958706,-0.43400806,0.08022494,-0.04313561,0.18852508,0.03341156,0.38311082,0.012215785,0.2518592,0.37029076,0.115601495,0.51818484,-0.48341948,-0.17745514,-0.37451538,-0.095448434,-0.30266404,-0.28282815,-0.33285102,0.13861711,0.027993862,0.06314794,-0.046107847,0.457725,0.014226094,-0.3911641,0.1557249,-0.44352227,0.5999324,0.03932232,-0.46991012,0.6794215,0.13639092,-0.9406061,0.5975009,0.10863676,0.6880198,0.018238628,0.003897989,0.119551316,0.04097947,-0.08362313,-0.25063768,-0.3369144,-0.19167066,0.10251848,0.34967113,0.075383835,0.31161103,0.2683401,0.1802793,0.15526019,-0.34372988,-0.5598083,-0.012195887,-0.23648943,-0.5858341,-0.28598803,-0.006523761,-0.14305748,-0.53476894,-0.12808669,-0.31944093,0.5098836,-0.3921141,0.53520435,0.09991628,-0.30018613,0.78050584,0.52241033,-0.62201035,-0.0216729,-0.22253776,0.28082636,-0.12391695,-0.19901368,0.7435778,0.034311622,0.0424164,-0.5184514,-0.027959902,0.50784427,0.30226657,-0.037590098,0.96821445,-0.3582507,-0.03650966,-0.06088095,-0.30251056,-0.13762352,-0.2781674,0.16575573,-0.15933518,0.4778864,0.27691337,-0.6906265,-1.1485004,-0.2739953,0.53724873,-0.048755705,-0.27633062,0.62058645,0.18681708,0.03066525,0.39927793,0.02160589,0.026407292,0.27691066,0.1717001,0.42256814,-0.42969155,0.7292802,0.30640692,-0.47284076,0.24797975,0.19298874,0.3646333,-0.047309063,-0.22843707,0.2535995,0.16251227,-0.109628335,-0.29551977,0.37758303,-0.12813018,0.4095108,0.514794,-0.5879277,-0.31359115,0.6906962,0.8038377,-0.013667843,-0.4811242,-0.000976379,0.3246804,0.83202416,0.22313009,0.5476463,0.4255074,-0.42482862,-0.35978565,0.18640974,0.68034524,-0.05732704,0.23712759,0.23134299,-0.27064762,-0.6336727,0.21410406,0.103506364,-0.87020576,0.26135918,-0.28487214,-0.14700659,0.06955483,0.45434847,-0.52869993,-0.76350445,0.025576714,-0.032812335,0.614069,-0.014788595,0.04484656,0.2572334,0.7024444,-0.65996045,0.32686725,-0.38874215,0.3354254,0.5848683,-0.559502,0.03026651,0.25329897,0.34868065,-0.6608682,-0.8985314,-0.58480203,-0.25192213,-0.067292325,-0.33517328,-0.355772,0.32682893,0.16741149,-0.18492566,0.18552797,-0.2147349,0.04941247,0.30473676,0.21275494,-0.0641858,-0.3728641,0.110582046,0.1481484,-0.085910074,0.3354576,0.14582041,-0.1166141,-0.79288566,-0.20994166,0.5400171,-0.09673121,-0.039306812,-0.3399323,-0.09316652,0.46869215,0.7991328,-0.42391846,-0.1903237,0.49431515,0.28171393,0.71795475,0.15774892,0.5130531,0.43551952,-0.38839203,0.16763271,-1.2190983,0.3131257,0.1709765,-0.09702916,-0.063857146,0.23231398,0.5236326,-0.31241637,0.054841,-0.099966,0.10283874,-0.5847292,-0.9259859,-0.21306488,0.17508653,0.4691785,0.1611091,0.15484717,-0.4917002,-0.05633572,-0.011146201,0.13480003,0.05725528,0.114309706,-0.11092623,0.41325384,0.18810834,0.1776496,0.7437137,0.25203797,-0.66146046,-0.26937476,-0.14742658,-0.81819195,-0.6147173,-0.12113278,0.28524745,-0.9016653,-0.039236862,-0.52123773,0.27622804,0.19279982,0.28810748,-0.20845304,-0.51205677,0.19201769,0.35030675,-0.06811961,-0.30894747,0.19673908,0.45883346,0.37231866,0.30620787,-0.36411756,-0.33967876,0.44051614,-0.23806964,0.44015574,0.2636244,0.21936706,-0.41173977,-0.011237139,0.06573224,-0.053119175,-0.12881045,0.2923489,0.18713136,-0.3961278,0.3898551,-0.16981843,0.030861061,-0.41028354,-0.1502811,-0.61973345,-0.12475421,0.1437155,-0.1540939,-0.15056358,-0.018713115,0.24379103,0.5061423,-0.10956265,-0.28106636,-0.24444747,-0.09471947,-0.28933,-0.4313827,0.5757126,-0.10127544,-0.077067144,0.34620997,0.4110641,-0.45670262,-0.047199547,-0.110912345,-0.5854684,-0.10114201,0.2521801,0.21242526,-0.06006185,0.5135831,0.7642947,-0.1723985,0.48480102,0.27041307,0.29618213,-0.88747185,0.21882628,-0.17061523,0.06276531,0.19641165,-0.71395653,0.010559865,-0.04406411,0.4821231,0.5679031,-0.25677475,0.50187075,-0.044855885,-0.048287828,-0.31657338,-0.04200133,-0.7011251,-0.34039813,-0.03948135,-0.18988667,0.16680713,0.5628914,0.85836893,0.14995198,-0.62609065,-0.06609298,-0.07835127,0.3144498,-0.46991366,0.011111097,-0.45632797,-0.32819963,-0.14717022,-0.2856798,-0.33955604,0.24041705,0.09714872,0.022058425,-0.70339394,-0.090514585,0.15573177,0.40325803,-0.10278244,-0.72706807,-0.624576,0.02729551,-0.561361,-0.8569109,0.55291647,-0.29930967,-0.0536285,0.15469067,-0.32463995,0.2344507,-0.20802161,-0.11110388,-0.051971216,0.22112203,-0.24384986,-0.12978753,0.54879683,-0.006522497,-0.074019924,-0.042187188,0.021056712,-0.14254096,-0.18364927,-0.9218233,0.040420096,0.2237271,-0.13146438,-0.07194308,-1.1584486,0.29532796,-0.07917645,0.016232247,0.08035974,-0.17361355,0.0740085,-0.26785156,-0.021096228,0.06852961,0.6616097,0.60804784,0.23047702,0.16589047,0.18110827,-0.11836604,-0.07136057,0.21449602,0.40059203,0.33783716,-0.16542204,0.20060237,-0.7814037,0.10518171,-0.30093417,-0.27678087,0.4585933,0.04282282,-0.27470636,0.13281502,-1.0364131,-0.10736622,0.26517996,-0.08112975,0.32696262,0.37388274,0.2886049,-0.05755302,0.08546122,0.3451283,0.3338916,-0.445163,0.77321976,-0.15695424,0.07635491,0.5451073,0.002025975,-0.2930335,0.83331954,0.12837246,0.034164567,-0.82330114,0.018102633,-0.5042028,-0.25101537,-0.08085072,0.405123,-0.5717135,0.27328503,-0.14451179,-1.2360188,-0.64043987,0.08732511,-0.121260285,0.11479689,0.1646427,-0.07880901,-0.12039216,0.6255261,-0.92972356,0.11492451,0.12016902,0.11919011,0.15648508,-0.10728138,0.4020485,0.53991205,-0.19881776,-0.50559276,0.31785655,-0.9580118,-0.2396829,-0.22373642,0.39235634,0.35414892,-0.49958637,0.26426718,0.430267,-0.07404275,-0.38564858,-0.014145623,0.44744465,-0.025449991,0.4532214,0.6228153,0.009311385,0.10645045
Gray,0.73718166,-0.28903034,0.1641481,-0.35678324,-0.1421027,0.2533032,-0.13154441,0.09400826,0.1880686,-0.16078177,0.26297623,0.5797084,-0.662025,0.3778639,0.09594723,0.07825537,0.45710278,0.21145858,-0.12684095,-0.39560398,0.1921117,-0.0122739,-0.009369881,0.25120848,0.034774475,-0.13223647,-0.05460992,-0.25421533,0.5741363,-0.5544762,-0.1624967,0.4907996,0.053338718,-0.14070871,-0.013258873,0.8140097,-0.47135267,-0.08335515,-0.44278342,-0.08995332,-0.30888945,-0.22197005,-0.21308914,0.3422298,0.21011624,0.19402324,-0.34693033,-0.32935002,0.33699593,-0.23707929,-0.36655253,-0.15954825,0.3430168,-0.31441453,0.14380932,0.19064792,0.3456924,-0.10761517,0.043856908,0.06564297,0.003269221,-0.18771204,0.102832206,-0.2540706,-0.15171616,-0.34776926,-0.40420726,0.062084477,-0.561773,-0.41123587,-0.21913724,-0.06883226,0.50057703,0.10830254,-0.35628483,0.27770513,0.5654746,-0.68771124,-0.29962662,0.6159049,-0.4842388,0.21334948,-0.29797655,0.36387563,-0.36926773,-0.02680724,0.15828396,-0.617278,0.26029578,-0.9289514,0.074986696,0.23336458,0.124097824,-0.0183743,0.06931517,0.92486465,0.09779433,-0.1566582,0.39206252,0.13170514,0.006328906,0.39650065,0.34423226,-0.693724,0.2674784,-0.066338405,-0.28130588,0.535545,-0.4964381,0.5881465,0.5895154,0.33175877,-0.017200312,0.12354151,-0.4189201,-0.69413555,-0.5346237,-0.45404258,-0.10273526,0.07142528,0.28624147,-0.14474177,0.50902927,-0.21812904,-0.24253885,-1.0455998,0.31939054,-0.22667788,0.11744139,-0.021390032,-0.07954812,0.43713427,0.14022392,0.14598274,-0.30120453,-0.15106417,0.34289235,0.3838926,0.4432674,-0.37707785,0.5130782,-0.016135328,-0.23237339,-0.22937153,-0.039424233,0.242502,0.02336966,0.66102475,-0.22889659,-0.07250856,-0.04877203,-0.090635784,0.29202524,0.139246,0.07258376,-0.6137203,-0.29685894,-0.11106757,0.000865858,0.51353514,0.52844054,-0.072369516,-0.42770547,0.7953467,-0.04216889,-0.14666292,-0.14382008,-0.34090284,-0.44793758,0.2668309,0.2585329,-0.39399248,-0.512571,-0.31442264,-0.1597681,0.18779431,-0.27356762,0.36386427,-0.44555658,-0.33567542,0.33414182,0.27016565,0.113309644,-0.21554637,0.06342376,-0.22877167,0.1235007,0.07483674,0.33671612,0.58934164,0.14913058,0.46401098,0.09149843,-0.48412916,0.25836486,0.20847484,-0.32348952,-0.49899754,0.6062835,0.4283901,-0.50871855,0.3704978,0.000722157,-0.28506652,-0.5654574,0.6009226,0.010529424,-0.3492232,-0.11645012,0.8022544,-0.30943066,-0.060557794,0.0379649,0.17532037,-0.08877689,0.18316165,-0.29505056,-0.19669695,0.35709783,0.10856565,0.15645325,-0.515539,0.42408416,-0.16012265,-0.11848626,-0.18959792,0.5661792,0.11364793,0.42607805,0.025419865,-0.121544875,-0.11578146,-0.23227786,-0.46354797,-0.003738316,0.090155385,0.16605684,-0.53744847,-0.43266886,-0.22036394,0.015240932,-0.114307165,0.32255167,-0.1806828,0.76459795,0.15349647,0.002556483,0.15596922,0.44234744,-0.37220547,0.23027386,-0.18376766,0.23750155,-0.3247972,0.39301464,0.35084933,0.013272508,-0.15316132,0.30514535,-0.000543701,0.022208426,-1.0842448,-0.10668291,0.6094097,-0.24912071,-0.3824523,-0.16821134,0.033966202,0.036291104,-0.20988365,-0.1448363,0.34887758,0.2343781,0.49748635,0.3172436,0.3357635,0.020713937,0.24382488,-0.73503286,0.1609021,-0.047889583,0.27887902,-0.08835133,0.1616036,0.048092496,0.11904759,0.32289454,0.20472935,0.4009295,-0.2729796,-0.055566598,-0.3868399,0.112830944,-0.38639912,-0.15326215,-0.18269964,-0.0445443,0.01075353,0.058228247,-0.034989297,0.54635584,-0.06843928,-0.28739527,0.24767794,-0.59341556,0.59062564,-0.009003133,-0.5035834,0.65568167,0.07932966,-1.107842,0.5110934,0.21477671,0.6632076,-0.16874918,-0.03258367,0.08420966,-0.14182054,0.022762699,-0.0822593,-0.3544059,-0.24424076,-0.005528137,0.284669,0.033717185,0.38615924,0.23456167,0.09853915,0.011751271,-0.46798915,-0.48978782,0.036515884,-0.30257136,-0.5443084,-0.17543776,-0.038400978,-0.17200203,-0.42413434,-0.1918668,-0.31873226,0.4883906,-0.44954783,0.41979402,-0.014950388,-0.16651186,0.8734991,0.52005345,-0.83079815,0.09879712,-0.5286384,0.17883238,-0.06868745,-0.1834778,0.41061935,0.02355629,0.10194414,-0.42631575,0.012858369,0.51300466,0.16971962,0.020096155,0.94294006,-0.3828164,-0.021882704,-0.08460466,-0.34588555,-0.22792168,-0.15612218,-0.040551133,0.04288022,0.41076842,0.4895008,-0.71105146,-1.106783,-0.07343697,0.45064554,-0.023482073,-0.3746092,0.5523445,0.19206516,0.037965793,0.38131547,0.09916477,0.005267498,0.14204289,0.014077092,0.49206713,-0.19117387,0.5373558,0.07564306,-0.3307636,0.35206077,0.5418694,0.54700035,-0.20580103,0.031950075,0.28774732,0.33098605,-0.004724096,-0.26771554,0.25938252,-0.08370102,0.35198593,0.5777263,-0.5511894,-0.339483,0.6841725,0.688066,-0.08512191,-0.33563796,0.19186164,0.32741952,0.8226636,0.17226128,0.27461693,0.42865244,-0.6021379,-0.47468677,0.14642803,0.51747096,-0.055752825,0.18421952,0.2773586,-0.26221776,-0.6395607,0.041400228,0.18381628,-0.80170363,0.30681127,-0.268827,-0.30739537,0.12057177,0.4080165,-0.6670804,-0.90936595,0.103928365,-0.12626728,0.66212547,-0.010142882,0.13350235,0.016819017,0.7100445,-0.5682224,0.32305017,-0.24018967,0.15282965,0.60736436,-0.48759556,0.019146489,0.09637285,0.20113732,-0.6710537,-0.94261515,-0.64173853,-0.35005903,-0.21401918,-0.35403785,-0.4986013,0.18696766,0.3617509,-0.08996177,0.36181742,-0.39917034,0.09074503,0.17286356,-0.11866061,-0.13626258,-0.44769314,0.09634722,0.21496141,0.001879282,0.3549033,0.2339263,-0.2748678,-0.5450105,-0.29425913,0.79881203,-0.30200022,-0.051022206,-0.30794674,0.03851634,0.48985425,0.83220595,-0.38912675,-0.17424838,0.44691902,0.24933736,0.5594542,0.24388327,0.60344017,0.40110666,-0.3000161,0.11024125,-0.9932986,0.39390665,0.15119597,0.033639736,-0.035961445,0.18217613,0.5317233,-0.4327444,-0.01869361,-0.14583023,-0.045709364,-0.5283612,-0.85870886,-0.306858,0.16600493,0.30790037,0.058579378,-0.010091429,-0.59907484,-0.1390218,0.057509515,0.24557842,0.03870254,-0.025399629,-0.09911745,0.30332395,0.4130505,0.4150968,0.5977945,0.22390707,-0.66739625,-0.49397942,-0.20487306,-0.8926193,-0.7895218,-0.1412718,0.30797142,-0.7776584,0.093616076,-0.4079612,0.19214377,0.10149366,0.18577299,-0.23807986,-0.6269542,0.11632963,0.43723726,-0.095767535,-0.35493317,0.22090663,0.31467393,0.023338573,0.3281839,-0.34133014,-0.3111907,0.5249629,-0.32696828,0.32471442,0.23234592,0.14195304,-0.121170126,0.13717376,-0.11720742,0.06688445,0.11420574,0.20612802,0.20464024,-0.28523248,0.41334563,-0.04961575,0.050990622,-0.217237,-0.021440133,-0.4928653,-0.18937004,0.22821207,-0.40556103,-0.044257812,-0.13857946,-0.029261768,0.34565386,0.13034128,-0.21926342,-0.35477242,-0.03684377,-0.01714965,-0.28205678,0.47853425,-0.036808785,-0.16938436,0.37962335,0.33971637,-0.4860859,-0.22758886,-0.18564299,-0.6356501,-0.1595777,0.34343892,0.20090294,0.2072118,0.49065566,0.72109044,-0.12318096,0.64361614,0.14483131,0.19410105,-0.76789075,0.20019758,-0.30055037,0.15519936,0.26587534,-0.32045245,-0.021119663,0.06690367,0.52787817,0.454053,-0.3137861,0.53114027,0.02246104,-0.094697975,-0.1471179,-0.01688882,-0.6610546,-0.4247713,-0.09402698,0.029858438,0.2164881,0.47063494,0.9135805,0.21891887,-0.47467,-0.27523473,-0.23922315,0.3754458,-0.42281565,0.2172368,-0.57581335,-0.35134932,-0.29100558,-0.18315852,-0.43372402,0.15875937,0.046335477,0.06557566,-0.56915563,-0.04788213,0.07210069,0.38129774,-0.036795236,-0.69954425,-0.55373186,-0.07791389,-0.4007195,-0.63663065,0.57365716,-0.37586546,-0.06469473,0.20499961,-0.19272847,0.3531914,-0.069931485,-0.023232061,0.064406194,0.107398845,-0.19146535,0.008724319,0.63861,-0.04877736,0.013752764,0.011979481,0.09158357,-0.066420615,-0.20256363,-0.7854807,-0.15712956,0.22399554,0.027733104,0.09265256,-1.2293985,0.2408761,-0.017805533,0.1251412,-0.003847542,-0.1354913,-0.010302846,-0.019184768,0.038775735,0.20596895,0.4917362,0.49056157,0.11219794,0.08262413,0.20120719,-0.2568898,-0.17163451,0.044114266,0.4825038,0.31138912,-0.26571646,0.22620484,-0.59648657,0.12566617,-0.347855,-0.17536655,0.41194198,-0.085752115,-0.23044637,0.052845933,-0.891916,0.109956756,0.33708787,-0.04708582,0.23751199,0.34479865,0.33397403,-0.11904506,0.18242486,0.2789796,0.14716612,-0.39149037,0.79403454,-0.20237073,-0.017397061,0.6656557,0.08578334,-0.2975016,0.8788335,0.23212612,-0.16944607,-0.81748813,-0.039981015,-0.45748028,-0.19826655,-0.087115444,0.52511275,-0.47997782,0.26820618,-0.19533774,-1.2080885,-0.6650032,-0.096927844,0.012441001,0.07775824,0.102308765,-0.05124427,0.019518955,0.60077333,-0.6463865,0.16411673,0.058677584,0.24579611,0.010510678,-0.13158855,0.31150457,0.618128,-0.3404498,-0.5681544,0.2654591,-0.8863386,-0.14747253,-0.36241907,0.55377495,0.21888839,-0.47170135,0.2905511,0.4273552,-0.013686465,-0.39675507,-0.06808407,0.43913707,0.064788446,0.53054655,0.42342013,-0.116161175,-0.13626698
Pink,0.64295495,-0.27610403,0.23442206,-0.32723066,-0.091246106,0.3071576,-0.18598042,0.27684942,0.08106221,-0.116384976,0.35065395,0.4887139,-0.73448944,0.25649002,0.034671333,0.06588997,0.3170161,0.09462532,-0.0877351,-0.3649456,0.1833984,-0.06115448,0.007335271,0.103215896,0.02040433,-0.14790411,0.014995975,-0.20547864,0.40118137,-0.40486738,-0.2701756,0.38135394,0.12915576,-0.07374418,0.07053505,0.5935946,-0.2620516,0.07620653,-0.29067883,-0.27467117,-0.36265668,-0.39583352,-0.17729054,0.21617486,0.20157614,0.1959131,-0.4213731,-0.2108831,0.43452272,-0.1120464,-0.22499004,-0.14049613,0.3115599,-0.22397849,0.116733894,0.13975914,0.2108422,-0.17792532,0.073238485,0.07635693,-0.085484125,-0.05218669,0.24785288,-0.24306475,-0.091601774,-0.37111193,-0.51753974,-0.060527,-0.5716798,-0.4914207,-0.16516271,-0.157801,0.32392135,0.088048354,-0.5007692,0.24120888,0.44055495,-0.6064828,-0.16722837,0.4959081,-0.46234182,0.51798403,-0.38613543,0.12061776,-0.19803107,-0.09060283,-0.192041,-0.42889115,0.3415614,-1.0958202,0.12491556,0.17102155,-0.08244603,-0.072795786,0.042268906,0.9825095,-0.062171094,-0.15657951,0.4560914,0.21480116,0.085108235,0.3765943,0.02393496,-0.6034798,0.23015867,0.10969915,-0.29615253,0.6000208,-0.4551477,0.4759477,0.5321277,0.38440675,-0.09505646,0.1740627,-0.15724468,-0.6889133,-0.24033415,-0.6504676,-0.27976117,0.05906483,0.41757053,-0.10998647,0.52221835,-0.26076573,-0.40322185,-0.8631821,0.17637703,-0.29267025,0.38098332,-0.017308325,0.054262005,0.2971094,0.046665516,0.10188605,-0.42102784,-0.17802109,0.087935425,0.35704783,0.40504664,-0.5130685,0.465571,-0.22615154,-0.5545969,-0.14159904,-0.14310081,-0.009246106,-0.007802897,0.550243,0.10770663,-0.12896197,0.08212655,-0.23993437,0.47107464,0.30378208,-0.053024013,-0.6187739,-0.37695572,-0.18793896,-0.030884743,0.44165665,0.5566417,-0.120462306,-0.4257247,0.74275446,-0.057184733,-0.17121062,-0.16282295,-0.3808145,-0.49274704,0.26420313,0.059383307,-0.31090304,-0.50026757,-0.31936797,-0.086974494,0.21187724,-0.2726059,0.43252584,-0.53064126,-0.33980033,0.16712496,0.24007036,0.14741455,-0.14185946,0.20122132,-0.29363057,0.2027537,0.040759195,0.31559876,0.64014614,0.25260738,0.41849616,-0.038308296,-0.39284912,0.23148675,0.19532596,-0.23656443,-0.39645702,0.5938172,0.40846512,-0.3479981,0.38009542,-0.15612221,-0.30804285,-0.4608845,0.50670785,-0.078997515,-0.37599415,-0.112935245,0.9074126,-0.44082355,-0.079209305,-0.060365263,0.2026648,-0.07626736,0.21958888,-0.10705153,-0.25214648,0.3410504,0.098533235,0.14766668,-0.4663735,0.5111872,-0.036600914,-0.21993384,-0.14950506,0.61390924,0.09464626,0.2588801,-0.07372952,-0.24948606,-0.17992792,-0.32800022,-0.38365728,-0.007936293,-0.04783042,0.17108025,-0.5624119,-0.24621285,-0.038742535,0.114538394,0.17341594,0.16105583,-0.3335507,0.58283144,0.25186917,0.056636754,0.26383975,0.45127705,-0.29997677,0.12578826,-0.095700555,0.13156222,-0.24367665,0.45451552,0.32060522,0.032248326,0.06886182,0.37850776,-0.23065832,-0.057386424,-0.818129,0.06536415,0.5514077,-0.09429826,-0.30277887,0.06693537,0.021830639,0.06260805,-0.27778834,-0.3451732,0.3592228,0.13107412,0.39724508,0.21246377,0.47935516,0.2175758,0.357582,-0.49305835,0.12405424,-0.09412757,0.053305734,0.024732182,0.3554708,0.13524902,0.26613232,0.2882742,0.24505533,0.49951988,-0.48286074,-0.12169879,-0.2779647,-0.051142205,-0.37652808,-0.30143628,-0.29255968,0.04481725,-0.01970773,0.10892358,-0.18857615,0.44909388,-0.09161351,-0.3161824,0.16779731,-0.6372999,0.5738593,0.015234947,-0.3235825,0.69882745,0.08393508,-0.8879761,0.31560257,0.035245232,0.7507977,-0.09897994,0.082949385,0.16157733,0.024401164,-0.032928027,-0.07284497,-0.34494558,-0.13839215,0.12904198,0.27773997,0.06132808,0.33089134,0.2930877,0.21160398,0.1353836,-0.4502103,-0.45529416,0.23557258,-0.089943245,-0.70424896,-0.19439617,0.088465914,-0.30889758,-0.5014236,-0.13236836,-0.32594848,0.47875413,-0.5044105,0.42667764,0.010420837,-0.35628727,0.75652975,0.6068215,-0.6165557,0.06635196,-0.10534577,0.43719697,-0.07908257,-0.08509494,0.6736158,0.08152961,0.08831737,-0.5032834,-0.064239904,0.43418643,0.2491717,-0.14102437,0.8504914,-0.32704434,-0.13966489,-0.06601098,-0.34038264,-0.17329988,-0.13883844,0.24994828,0.03025892,0.44692707,0.2943623,-0.7333441,-1.2487866,-0.09915172,0.5305229,-0.077940896,-0.295825,0.54095477,0.17300187,0.111307755,0.48053297,0.087169476,-0.06701082,0.15471952,0.0182905,0.2665744,-0.43522134,0.6415396,0.17182624,-0.4516799,0.34327212,0.30606765,0.43789956,-0.18840966,-0.27671018,0.25818068,0.2019024,0.010362148,-0.235383,0.3005841,-0.03854057,0.34120363,0.34526917,-0.48135462,-0.30901414,0.61769503,0.78230923,-0.16428988,-0.50679713,0.14093593,0.244778,0.79217166,0.031507157,0.33886883,0.46546412,-0.2814652,-0.18347871,0.19559716,0.7378416,-0.027888924,0.12472754,0.18385172,-0.33444163,-0.6997098,0.2628705,0.1747467,-0.8649463,0.34073213,-0.1939753,-0.16678937,0.11444051,0.47259623,-0.6843257,-0.91724646,0.002339895,-0.08297796,0.54541767,-0.000200051,0.042641845,0.21246193,0.5675327,-0.6403181,0.3058779,-0.21192507,0.28178877,0.49256796,-0.56212384,0.044983108,0.1948333,0.4083001,-0.57249004,-0.973806,-0.6347647,-0.1715099,-0.07076759,-0.3095825,-0.30769524,0.2920917,0.022039866,-0.10294812,0.3506615,-0.11747704,0.054023236,0.2604594,0.046514858,-0.07519181,-0.3436713,0.03383342,0.084917314,0.040599823,0.45252028,0.15676454,-0.20959099,-0.6380325,-0.23518991,0.58021086,-0.033622034,-0.18410583,-0.30065417,-0.06279211,0.70822656,0.8129268,-0.56632125,-0.13742922,0.47105724,0.34475017,0.64156836,-0.123952866,0.38018396,0.3713896,-0.2283546,0.100912765,-0.9912829,0.35901394,0.2904617,-0.06323476,-0.08050478,0.18582997,0.38571495,-0.43797687,0.06230111,-0.11275752,0.14867625,-0.5247048,-0.8459606,-0.2678958,0.16126393,0.41502714,0.005249091,0.10881614,-0.49211815,0.1496,0.033007104,0.21673252,0.14321719,0.055382468,-0.06337638,0.34414813,0.20840703,0.33531457,0.63104373,0.29991055,-0.7069066,-0.4326302,-0.001972016,-0.8387087,-0.7156251,-0.16423678,0.40056223,-0.7906908,-0.061756402,-0.5586549,0.2629498,0.038355567,0.1345748,-0.051488664,-0.5318667,0.23408805,0.43620047,0.039726447,-0.31360134,0.039526965,0.34888294,0.20512114,0.26361322,-0.33047608,-0.32940033,0.32468802,-0.2521098,0.29742035,0.20290987,0.19448528,-0.36470038,0.008406534,0.032087017,-0.001493361,0.01671447,0.19475201,0.30312523,-0.24475022,0.43120036,-0.14172883,-0.06734123,-0.2607145,0.0550587,-0.5290923,-0.19251211,0.18567564,-0.22311829,-0.091757044,0.01313275,0.24797599,0.31649423,0.16859399,-0.26964054,-0.17814639,-0.090890445,-0.04427026,-0.2582881,0.57761776,-0.19401714,0.050971817,0.34563398,0.3746007,-0.356014,-0.005931451,-0.36858168,-0.7697975,0.023471642,0.24052206,0.190322,0.14481604,0.6026482,0.7637881,0.03140345,0.5206009,0.19874063,0.30914298,-0.82007533,0.19691536,-0.18410587,0.095195316,0.16020156,-0.6659613,-0.04155823,0.061024733,0.54992545,0.43624967,-0.120029174,0.45522234,-0.053696427,-0.040828038,-0.1994277,0.044925798,-0.61984855,-0.42164904,0.02553557,-0.100956716,0.20408572,0.4350049,0.7469873,0.20246802,-0.41989988,0.046144966,-0.16897056,0.3076823,-0.5134804,0.12627722,-0.6181363,-0.30415782,-0.22258009,-0.18420611,-0.33261967,0.15647653,0.06393834,0.16292992,-0.59968144,-0.15333691,0.184515,0.14470947,-0.11719587,-0.70809335,-0.6520194,-0.003411356,-0.35957882,-0.73714924,0.62590265,-0.2936849,-0.10175519,0.17741844,-0.2242016,0.16198952,-0.24432969,-0.14699066,0.044590473,0.018373443,-0.2202506,-0.21840964,0.47048053,0.008988152,-0.10586609,-0.21984771,0.015744073,-0.047758542,-0.3191341,-0.82497585,-0.06420072,0.357508,-0.01701181,0.024638947,-1.0419452,0.18757881,-0.042817675,0.1710643,0.11406652,-0.14976655,0.002475722,-0.21854842,-0.01636934,-0.068915404,0.6774136,0.5884796,0.12728527,0.029896488,0.28392813,-0.08870302,-0.2185756,-0.10579103,0.60724986,0.5230719,-0.17334008,0.16240464,-0.73562956,0.13291363,-0.21530162,-0.22381566,0.56825715,0.048528254,-0.43796894,0.2180219,-1.0355546,0.031112274,0.3211736,-0.08797233,0.27092025,0.49226603,0.27227175,-0.048511084,0.013570322,0.29626203,0.20847948,-0.5562648,0.8471835,-0.043574434,0.03826521,0.5951196,-0.038348347,-0.30180672,0.59431744,0.10114599,0.07708393,-0.6212371,0.001554066,-0.4295929,-0.14982249,0.007967289,0.3373389,-0.48209018,0.22245702,-0.03344548,-1.2616674,-0.6480668,0.09784288,-0.005060311,-0.027112091,0.11084955,-0.025158765,-0.13284269,0.583939,-0.93696797,-0.058482084,0.1493599,-0.004972099,0.12503652,-0.01832856,0.3086219,0.44744825,-0.15039466,-0.55003965,0.312288,-0.8480119,-0.17703442,-0.3093664,0.4598765,0.25850055,-0.42412367,0.18816264,0.42152452,0.06461485,-0.5028309,-0.18574475,0.47405306,-0.060982026,0.45424578,0.53902,-0.06545123,0.015686348
Orange,0.6766347,-0.2631965,0.066851996,-0.15844707,0.00832913,0.32551697,-0.1997718,0.13911696,0.15538754,-0.051161163,0.15908863,0.3140367,-0.5844642,0.27059707,0.07979228,-0.019777954,0.40142974,0.12177757,-0.031883538,-0.4261876,0.12165076,-0.12173964,-0.17903444,0.04472823,-0.007811602,-0.36972284,-0.22265024,-0.26010564,0.33995906,-0.41774496,-0.14745711,0.28521815,0.12784924,-0.17875567,0.07559428,0.6769928,-0.19847855,-0.065351605,-0.39866805,-0.3052986,-0.2813383,-0.22297063,-0.089160144,0.22744718,0.3021992,0.23320177,-0.29050747,-0.20137419,0.4393537,-0.3424689,-0.25984254,-0.15385115,0.38848898,-0.13775922,-0.06560279,0.095796525,0.22979747,-0.27944198,0.06799595,-0.016507018,-0.06722555,-0.17747822,0.29637298,-0.29364514,-0.099666886,-0.35794905,-0.5137023,-0.15207103,-0.4746954,-0.45407933,-0.40779835,-0.12975684,0.3647267,0.16265106,-0.57765955,0.13251129,0.5304011,-0.6226109,-0.08260999,0.4314262,-0.36645728,0.53173465,-0.38773778,0.20556304,-0.26335397,0.08758159,-0.1691384,-0.586049,0.2190651,-0.77491456,0.29527932,0.11980742,-0.070749596,-0.052076705,0.027534872,0.93094224,0.053846158,-0.08205609,0.33674315,0.10830285,0.048199628,0.29101962,0.18619864,-0.61995924,0.42938378,0.09626437,-0.30392066,0.52135223,-0.5511555,0.49637383,0.6031808,0.3798442,-0.10900349,0.19437395,-0.008438556,-0.71518093,-0.2233832,-0.4777252,-0.16626611,0.11460782,0.39560786,-0.13786517,0.58400536,-0.18649104,-0.19351964,-0.8949829,0.238573,-0.3358309,0.36154985,-0.15225545,0.15700023,0.26276204,0.05475509,0.039161887,-0.3142406,-0.28656793,0.031538896,0.5168374,0.65129393,-0.5159906,0.44995907,-0.15010548,-0.55014783,-0.10370117,-0.20345882,0.014653479,-0.08565082,0.49833798,0.16932186,-0.24274096,0.028852131,-0.14401595,0.4782535,0.35168615,-0.047836144,-0.5185156,-0.37663493,-0.09304028,0.024232687,0.3591145,0.6711693,-0.06292856,-0.30946112,0.7377073,0.07385944,-0.022736166,-0.16997504,-0.38306352,-0.5692798,0.34739563,0.12698448,-0.31987864,-0.5852801,-0.30062088,-0.102702655,0.18296443,-0.3443763,0.6494423,-0.44858977,-0.398735,0.23582634,0.35952497,0.13478129,-0.26105145,0.14747906,-0.25052,0.041674357,0.11568116,0.30465007,0.6718183,-0.007034187,0.46978778,-0.013201828,-0.41048712,0.10326385,0.31498447,-0.16079827,-0.53764164,0.57742995,0.35858312,-0.4439125,0.29594722,0.03191502,-0.18380466,-0.46918204,0.59617627,0.042858727,-0.2954951,-0.0864873,0.9454161,-0.17340033,0.069977574,-0.062144313,0.07583167,-0.14465728,0.17428415,-0.34842655,-0.21042253,0.44586676,0.09909475,0.27696434,-0.41212937,0.5089571,-0.04304794,-0.11564929,-0.15008596,0.7227279,0.10992052,0.20933421,0.12184607,-0.17987859,-0.122699276,-0.27112547,-0.3160016,-0.003515214,-0.121165395,0.11476224,-0.46221727,-0.31389198,-0.115780905,0.039906483,0.11003506,0.07077273,-0.20727846,0.6532775,0.2572636,-0.07911028,0.23640622,0.4475014,-0.1829315,0.12497479,-0.16652897,0.16980495,-0.3122983,0.51305735,0.2801217,-0.009826541,0.12956029,0.47899798,-0.2079399,0.066174224,-0.99033964,0.065926604,0.43145666,0.000523957,-0.44649482,0.034416195,-0.046019323,0.1741599,-0.3156965,-0.18879095,0.4191753,0.14662023,0.4162509,0.18789981,0.35716048,0.15044664,0.4885889,-0.44350824,0.14884536,0.003847568,-0.11212526,0.039655417,0.23046236,0.19027223,0.31294712,0.25834027,0.16753852,0.52437866,-0.5257116,-0.3304388,-0.24010737,0.23721205,-0.41586182,-0.28646472,-0.3648527,0.054341145,-0.040099774,0.045326702,-0.17466581,0.39780834,-0.04694363,-0.26947615,0.2096611,-0.5548005,0.6200188,0.051795695,-0.33826384,0.5893254,0.14667283,-1.0183647,0.23970008,0.18040316,0.75708616,-0.2328718,-0.21063349,0.18735433,-0.063267834,0.027145298,-0.07998773,-0.4378137,-0.15241884,0.101178475,0.37581563,-0.05131497,0.14401092,0.11711477,0.0719924,0.12451635,-0.22179557,-0.43794176,-0.13063742,-0.08480848,-0.7440354,-0.14852574,0.17990491,-0.1594406,-0.59162486,-0.19946738,-0.383264,0.5535313,-0.49896342,0.3106075,-0.12331743,-0.2180504,0.7442165,0.55061173,-0.6453671,0.06377817,-0.06529267,0.26248345,0.04924282,-0.17364173,0.76502675,0.05320678,0.3110415,-0.7866331,-0.22587062,0.45210174,0.20892277,0.027991252,0.8842726,-0.18724844,0.01938878,-0.049775805,-0.31562036,-0.036288857,-0.00321037,0.20815088,0.034699697,0.38893247,0.5052808,-0.7130033,-1.221742,-0.2236601,0.5263731,0.06220126,-0.30010912,0.7851068,0.24648882,0.024599912,0.4119,0.18623282,0.019439101,0.15570201,0.09580606,0.31690747,-0.38012502,0.55219495,0.12411368,-0.48413748,0.32900783,0.27874762,0.49561998,-0.22223175,-0.17076011,0.024940228,0.06592922,0.21830194,-0.37102345,0.49237323,-0.12422659,0.5397884,0.54714006,-0.50395066,-0.22746834,0.67677885,0.8408312,-0.28347912,-0.53002965,0.07769772,0.16369699,0.8383179,0.04566291,0.3398241,0.6302665,-0.43358412,-0.16862401,0.044862986,0.82505995,-0.06922193,0.30315906,0.06698434,-0.20857736,-0.68606955,0.18747993,0.22230609,-1.0438744,0.35719723,-0.19399038,-0.23194163,-0.106262065,0.57784814,-0.68636197,-0.9286322,-0.010383917,-0.041104384,0.7292827,0.011919399,0.07469154,0.15269403,0.57925826,-0.63715696,0.31625703,-0.3036947,0.16466774,0.50783324,-0.5984145,0.028130611,0.2767919,0.32055488,-0.51132077,-0.8512489,-0.6815292,-0.27567786,-0.16021495,-0.5201417,-0.17527233,0.19376382,-0.060266037,-0.16588296,0.49375182,-0.14655457,-0.058464188,0.21813777,-0.07850385,-0.20228739,-0.41780534,0.019737422,0.16252327,-0.081937864,0.54392827,0.26146856,-0.18573813,-0.6458974,-0.19601415,0.56590134,0.010659367,-0.012680955,-0.2312596,-0.10909178,0.6435198,0.6828893,-0.47791424,-0.22229123,0.564835,0.29212722,0.73867863,0.11686305,0.41468444,0.5261618,-0.32034048,-0.014194704,-1.1215914,0.35897642,0.41140172,-0.11874049,-0.019517634,0.28023186,0.42966726,-0.37250423,0.12166482,-0.08592339,0.10840611,-0.51375645,-0.7792605,-0.32100174,0.26753813,0.5760774,0.04836928,0.007727388,-0.47872382,0.27911502,-0.0678776,0.20203377,-0.041699983,-0.027084788,-0.16782895,0.42865533,0.19916682,0.18390323,0.6406814,0.38018662,-0.59201044,-0.41344506,-0.085720524,-0.9960481,-0.71650213,-0.12894589,0.29941505,-0.8282844,-0.10111649,-0.6890918,0.32489017,0.06724619,0.06636888,-0.1945837,-0.63049984,0.22507575,0.53546923,-0.20270778,-0.3402718,0.09760362,0.45860937,0.16030283,0.18454957,-0.18604973,-0.28633192,0.34596673,-0.09623533,0.2996533,0.40745372,0.040322106,-0.28037235,-0.024134722,0.020760026,-0.014787969,-0.0936017,0.2497543,0.24824739,-0.25599086,0.39470425,-0.21779418,0.08409631,-0.36645412,0.028936842,-0.7189382,-0.29666442,0.16108744,-0.23202728,0.009433468,-0.06444698,-0.022016976,0.41321805,0.24266061,-0.2948985,-0.33056432,-0.19401814,-0.06403555,-0.32202926,0.38885942,-0.33085325,0.08172347,0.2953052,0.34395313,-0.28444082,-0.06762952,-0.19463876,-0.82096004,-0.080525205,0.33259794,0.14583918,0.16772237,0.51863956,0.74594206,-0.018636314,0.6044973,0.24414542,0.49728063,-0.7915221,0.256161,-0.15014386,0.25328836,0.16978054,-0.61357874,-0.05291746,0.038204513,0.5148981,0.34427044,-0.34354404,0.4265228,-0.17331883,-0.08752186,-0.16143909,-0.15636131,-0.5239915,-0.34479854,-0.04563209,0.04162999,0.32193327,0.4686353,0.72286445,0.22373123,-0.5655209,-0.014696877,-0.14301907,0.20933764,-0.41532117,0.33536917,-0.7518741,-0.3686232,-0.12214275,-0.2851093,-0.48222047,0.40899658,0.015343632,0.07601721,-0.4551893,-0.15373547,-0.008968441,0.27599353,-0.10301503,-0.81032276,-0.4746626,-0.06739872,-0.39967594,-0.7036676,0.51765573,-0.23936704,0.048716415,0.30254224,-0.35755333,0.12690613,-0.33815023,-0.07538771,0.09137342,0.12437893,-0.3203826,-0.18933044,0.58002883,0.024213174,-0.19081832,0.011166642,-0.05222956,-0.16189764,-0.24167047,-1.0084245,-0.1294319,0.36239198,-0.11867445,-0.011650562,-1.1126443,0.18777117,-0.17880811,0.29818255,0.14171395,-0.05468321,-0.097507276,-0.20648,0.012185545,-0.041802526,0.5068063,0.64816445,0.11550983,0.06427751,0.1463011,-0.023761125,-0.1225512,-0.06180501,0.34946117,0.26687267,-0.11782054,0.11481587,-0.7690159,0.21225849,-0.3393756,-0.33225608,0.77111655,0.04448504,-0.3927414,0.3783891,-0.8921667,-0.040668078,0.4146544,-0.0354852,0.30409685,0.45906988,0.34061554,0.030390149,-0.029084668,0.4396638,0.33297512,-0.44312477,0.71312535,-0.09522169,0.068882555,0.74417204,-0.081783704,-0.23820843,0.5660924,0.09883646,-0.05032715,-0.6438888,0.083653726,-0.56300986,-0.18897189,-0.0979596,0.4917931,-0.56717056,0.39087042,-0.077596925,-1.2199279,-0.6067286,0.05208351,-0.025557783,0.022453249,0.065052696,-0.23186532,0.001078008,0.6597646,-0.97486573,-0.26479155,0.028610418,0.093480185,0.19340554,-0.050506704,0.29753035,0.46072873,-0.26210713,-0.4494062,0.16923077,-0.81176937,-0.118010655,-0.27724388,0.51546985,0.18377244,-0.56941384,0.18784928,0.60553086,0.006810962,-0.66767997,-0.20048246,0.29763106,-0.1524383,0.41190353,0.59268504,-0.007877595,0.18937908
Purple,0.5455671,-0.2991616,0.29551527,-0.3514319,-0.043225102,0.1944624,-0.36489922,0.07381524,0.119986854,0.013352918,0.22038291,0.61906844,-0.84367883,0.20748474,0.1154194,0.01985566,0.44349965,0.1044187,-0.19578849,-0.23692174,0.34102494,-0.08669919,-0.036828615,0.16804466,-0.07561048,0.03060569,-0.103852734,-0.2621148,0.39832312,-0.5439095,-0.4655272,0.37812212,0.11800599,0.103236385,0.1361631,0.7381035,-0.6104806,-0.057188127,-0.19689377,-0.11611361,-0.30970785,-0.28628317,-0.30431598,0.3801137,0.1876955,0.123514734,-0.32091594,-0.25571945,0.4697461,-0.16515894,-0.41280395,-0.14998432,0.4920924,-0.39809942,0.007154934,0.084342934,0.39012772,-0.1250712,0.17326544,0.078944445,-0.21691714,-0.2033893,0.19538252,0.018601317,-0.16062132,-0.3486735,-0.09149183,-0.056310985,-0.5774762,-0.46763012,-0.32954863,-0.29247588,0.38703468,0.30534744,-0.62230384,0.32104415,0.588111,-0.6638069,-0.107467875,0.61741966,-0.6685375,0.5785886,-0.40216723,0.32765177,-0.28948402,-0.04908789,0.11517884,-0.35597935,0.4549749,-1.1920512,0.3473824,0.2968987,0.028797375,-0.019104552,0.05804978,0.9947652,-0.06553655,-0.15923597,0.37420467,0.10575151,0.13397788,0.35520956,0.018281262,-0.72443885,0.3252513,0.009505476,-0.057848684,0.52765614,-0.506361,0.4949441,0.7458549,0.24599758,-0.18698193,0.136872,-0.28358516,-0.7593643,-0.29716268,-0.62978405,-0.36162314,0.120295,0.54786515,-0.31915066,0.46027413,-0.2398373,-0.43258873,-0.90671176,0.30048892,-0.27592725,0.4475019,-0.034555435,0.19265261,0.26031044,-0.08334879,0.06737328,-0.34532508,-0.23201759,0.27580637,0.29720464,0.28967103,-0.51621777,0.5475618,-0.14015788,-0.32182202,-0.25411692,-0.16799982,0.2740127,-0.09783567,0.55608976,0.18438993,-0.08636742,0.11720817,-0.10469191,0.44900662,0.2849705,0.092544995,-0.58441496,-0.46322814,-0.3301458,0.001683533,0.40776053,0.5555293,-0.04516781,-0.43017474,0.8137159,0.0638422,-0.2957535,-0.16310458,-0.45466498,-0.5674056,0.22013307,0.24219838,-0.5716094,-0.5575618,-0.2798998,-0.16554849,0.18964078,-0.30298248,0.57179964,-0.59922475,-0.41212294,0.29004738,0.09882166,0.24474321,-0.32182214,0.061632637,-0.25145975,0.09654783,0.004610445,0.42192718,0.59775794,0.15755638,0.4270262,-0.03589639,-0.3314763,0.2738388,0.2503286,-0.20485179,-0.52586216,0.5937491,0.5157216,-0.46203646,0.4103655,-0.09447862,-0.25905058,-0.5064534,0.9447764,0.077563204,-0.3249269,0.002968091,1.0140364,-0.37635186,-0.09242458,-0.12091596,0.4184192,-0.09042496,0.094478205,-0.13802034,-0.1341024,0.37943286,0.11838754,0.020197166,-0.54541653,0.5253571,-0.1181756,-0.106667176,-0.045049172,0.7331367,0.14768195,0.13751777,0.03950467,-0.22129993,-0.21767484,-0.23281099,-0.2555909,-0.030387703,0.031060502,0.1661148,-0.6253171,-0.2827222,-0.044251878,-0.10897291,-0.043672085,0.17877857,-0.3154486,0.85489213,0.119660415,0.11098365,0.34041384,0.35927433,-0.2137454,0.27546996,-0.25898033,0.09458143,-0.40803593,0.43244338,0.2474805,0.052317735,-0.19014882,0.29300547,-0.14388677,-0.12646294,-0.94107157,0.071230106,0.39977694,-0.18919492,-0.37276906,0.10351235,-0.040977363,-0.009345896,-0.20666201,-0.22301753,0.5096887,0.09515894,0.4322775,0.3158584,0.5223755,0.2571235,0.21337424,-0.68427986,0.050600257,-0.036240663,0.2810872,-0.07808228,0.19407047,0.1330178,0.10804761,0.36775088,0.14714189,0.68684715,-0.6188602,-0.12434181,-0.33100072,0.047780115,-0.2833263,-0.26445955,-0.33661008,-0.01336207,-0.093343616,0.14265564,0.018488707,0.4142358,0.21097444,-0.35543805,0.2857105,-0.5424794,0.71035385,-0.29482648,-0.5423788,0.7294994,0.15733066,-0.90330714,0.35414976,0.2659018,0.6363135,-0.18271686,-0.060070533,0.10616381,-0.064962216,-0.10126494,-0.102886066,-0.31438273,-0.1798483,0.3141732,0.19429585,0.040881667,0.23559572,0.12189734,0.2928124,0.03420525,-0.33505014,-0.5467116,0.37268886,-0.09519814,-0.6709485,-0.12599023,0.07343648,-0.013462818,-0.2899197,-0.085043065,-0.37177807,0.66225797,-0.51245505,0.5635219,0.005653641,-0.3825892,0.74700594,0.7015757,-0.6041392,0.08407336,-0.58633506,0.26952288,-0.06994055,-0.22049591,0.5881856,0.052893315,-0.013481931,-0.61502904,-0.092147544,0.56676275,0.15704405,-0.005988737,0.8868944,-0.2776696,-0.019441744,-0.1707145,-0.17289111,-0.17164361,0.08812707,0.2672129,0.18118623,0.43944386,0.44143444,-0.74436855,-1.2611225,-0.1030445,0.5882048,0.24786326,-0.23149164,0.6033098,0.30777937,0.15725362,0.44943592,0.2707024,-0.008373638,0.29965022,-0.06922497,0.14983663,-0.41016573,0.52006596,0.080114,-0.33615777,0.23908718,0.26525286,0.48798853,-0.0935838,-0.2542952,0.26248232,0.07719543,-0.12489457,-0.38298324,0.46115515,-0.17040642,0.42657638,0.4158362,-0.58960634,-0.25062782,0.7407156,0.92380637,-0.1892633,-0.7271085,0.022777189,0.39283058,0.8432391,0.0959862,0.33567962,0.5385482,-0.50142926,-0.28311223,0.14423008,0.7305838,-0.20483674,0.24963406,0.32995078,-0.43015522,-0.79764426,0.19489379,0.17057602,-0.9913123,0.63158065,-0.33362263,-0.28097925,-0.06991377,0.5465847,-0.71468073,-0.882022,-0.044644438,0.019630244,0.76101154,0.02910241,0.09755915,0.020227704,0.732278,-0.56266683,0.34809685,-0.21277924,0.23842095,0.48229507,-0.59215415,0.1086127,0.21718891,0.47548857,-0.5775995,-1.0764421,-0.78531855,-0.37749794,-0.10012387,-0.26549113,-0.33875272,0.1868881,0.21336354,-0.19470514,0.43822807,-0.14189538,-0.029722242,0.10310997,-0.032883145,0.06085069,-0.36301494,0.12668738,0.08973117,-0.058515746,0.35005552,0.18344276,-0.19376528,-0.6414781,-0.3519222,0.89404714,-0.25135466,-0.11165046,-0.46568528,0.12652038,0.3939506,0.7959849,-0.5165512,-0.26565698,0.5613827,0.24037741,0.67331,0.08988985,0.5663719,0.32221946,-0.36716563,0.09186274,-1.3275896,0.36169046,0.2562469,-0.11917631,0.037423402,0.5877408,0.539683,-0.5995757,0.2917007,-0.13678084,0.056966297,-0.65649456,-0.83135563,-0.33046985,0.14507058,0.33210936,0.059586108,0.1840074,-0.6561818,0.13921797,0.16163404,0.22485675,0.19054733,0.14852098,-0.27235773,0.36347952,0.33153698,0.25520608,0.52356416,0.33564267,-0.7040711,-0.5711779,0.13774917,-0.9965238,-0.83612365,-0.077839576,0.25638443,-0.8795045,-0.12033397,-0.5768571,0.21651725,0.03919067,0.21375252,-0.23503593,-0.5655509,0.11095872,0.35496065,-0.028106358,-0.372509,0.053720195,0.4223626,0.24981843,0.39820385,-0.37049887,-0.28987655,0.20554675,-0.3190702,0.4385697,0.25384474,0.040344786,-0.25625813,-0.023639726,0.14108892,-0.06396815,0.013653168,0.2587149,0.19192846,-0.2739492,0.38529083,-0.05859991,0.06501406,-0.29190436,0.13791223,-0.7068037,-0.40831402,0.17601965,-0.43224016,-0.07524054,0.13513772,0.11008436,0.43874937,0.20531821,-0.2899704,-0.3601858,-0.21416911,-0.41916856,-0.29765102,0.62071306,-0.26169398,-0.015100283,0.41406864,0.37597436,-0.4946287,0.004747565,-0.31944016,-0.82619196,-0.15341638,0.6033044,0.2349407,0.2818785,0.6041848,0.8215551,0.031553995,0.6282582,0.25040925,0.5653631,-0.6636326,0.16666493,-0.17474449,0.02348853,0.3390126,-0.6384107,-0.044113364,0.03451361,0.45179263,0.48002723,-0.131474,0.4553608,0.15078072,-0.113417976,-0.18865867,-0.07343459,-0.703688,-0.112448685,0.007514385,-0.108142115,0.3369229,0.32105795,0.8803982,0.13875397,-0.4629106,-0.19932048,-0.41382506,0.11718832,-0.30039173,0.29977545,-0.4032009,-0.4146048,-0.14470196,-0.23936026,-0.47682783,0.21502145,0.055584807,0.16206901,-0.5596457,-0.16841243,0.24538024,0.3579383,-0.05808539,-0.6453051,-0.45127505,-0.000510419,-0.607657,-0.7757388,0.8518022,-0.37000206,-0.0816002,0.08001127,-0.26089388,0.2670088,-0.3139072,-0.20138718,0.03664553,0.15340562,-0.37120938,-0.19477007,0.36000404,-0.017103016,-0.012210301,-0.054311126,0.13624318,0.009369187,-0.19603968,-0.77362394,-0.06794032,0.2958586,-0.21726845,-0.026238969,-1.0738518,0.16403605,0.08783721,0.35751846,0.2622404,-0.13894635,0.1626065,-0.20073037,-0.3475031,-0.14414297,0.57865417,0.5541397,0.09951947,0.017361194,0.25211373,-0.052787714,-0.30948758,-0.045403622,0.42441612,0.37881723,-0.2050228,0.1147287,-0.61380833,0.21096833,-0.3923562,-0.22008315,0.49745426,-0.11551958,-0.32131907,0.31432733,-1.1015934,0.24769463,0.47210008,-0.19496998,0.24096599,0.43668264,0.09560871,-0.23702458,-0.02451225,0.25878724,0.32250676,-0.49296513,0.75630665,-0.3008657,0.04347172,0.7466411,-0.03300373,-0.25940576,0.6108142,0.12275944,0.10553175,-0.69717044,-0.1268678,-0.4160189,-0.31970674,0.022014339,0.49534127,-0.50054675,0.20224993,-0.19353314,-1.1065696,-0.611087,0.087986074,-0.18921041,-0.028803462,0.01097203,-0.10794426,-0.12072673,0.77432156,-0.8612852,0.19770133,0.031136168,0.26256263,0.12946972,-0.2818678,0.31036037,0.42402673,-0.16318811,-0.57395065,0.31755942,-0.7558621,-0.21931398,-0.41360778,0.64787686,0.15448391,-0.5606805,0.46146765,0.47450706,0.039924253,-0.4962602,-0.118492104,0.21707977,-0.019180307,0.47557536,0.4559071,-0.11077548,-0.12026437
Cyan,0.4640963,-0.13623278,0.01945775,-0.2647738,0.18940863,0.30401018,-0.06747773,-0.040557817,0.5569656,-0.27286977,0.038525626,0.34656212,-0.6333955,0.3226799,-0.026863798,0.17305869,0.31542072,0.04274262,-0.05269263,-0.3854694,0.11854014,0.037526358,-0.2850335,0.17411302,0.08083108,-0.11220207,-0.2722674,-0.33204043,0.37324393,-0.27804434,-0.28206328,0.23006915,0.09597283,-0.006973367,0.2097611,0.6995361,-0.43013078,-0.1169309,-0.3227444,-0.07238131,-0.33839116,-0.29362652,-0.62110037,0.37361413,0.20256785,0.22303839,-0.25526783,-0.46606857,0.35590076,-0.31166023,-0.3236516,-0.11169763,0.3000754,-0.2853721,0.09424465,0.098622724,0.44409072,-0.18220378,0.14415918,0.2782046,-0.14229205,-0.16837555,0.25529295,-0.12752639,-0.18787257,-0.25327277,-0.05964358,0.108172856,-0.36576626,-0.49293777,-0.031012485,-0.10561067,0.31800187,0.41154832,-0.37686515,0.13757765,0.44276088,-0.7233493,-0.20216775,0.48447344,-0.35255337,0.5312896,-0.41776013,0.21067712,-0.34291443,0.03808268,-0.19448055,-0.4845265,0.36222392,-0.86834896,0.21914431,0.21098283,0.12307898,0.13340913,-0.001089035,0.8272005,-0.05243864,-0.34585282,0.19059628,0.04866652,0.10023692,0.20305091,-0.030803828,-0.6678286,0.20188749,-0.06681974,0.0290252,0.41030067,-0.10210131,0.5127991,0.42908362,0.22591943,-0.007867056,0.28948483,-0.20668858,-0.56057453,-0.27803424,-0.57754886,-0.3760087,0.11085492,0.20015079,-0.07890833,0.36780322,-0.4103511,-0.25653368,-0.9986448,0.19530746,-0.20121543,0.4276658,-0.41286415,0.13603851,0.37762216,-0.033511106,0.04284273,-0.29148176,-0.30582786,0.17953295,0.39929828,0.4826113,-0.4750899,0.346086,-0.20217395,-0.47566545,-0.278788,-0.11609279,0.17115338,0.030334957,0.7874572,0.047322497,-0.03296522,0.018694293,0.06229068,0.42529973,0.16107845,0.16325758,-0.63637584,-0.27152765,-0.18276691,0.06114163,0.4416787,0.46062204,-0.05514972,-0.42726535,0.6386587,-0.2140952,-0.18513536,-0.20732333,-0.4328076,-0.46166387,0.13522962,0.21840942,-0.47582978,-0.4214612,-0.37305284,-0.15273803,0.111191764,-0.42707685,0.51492417,-0.5384591,-0.4666361,0.4067455,0.23637143,0.14725718,-0.12813255,0.1314932,-0.17867935,0.001988627,-0.0687855,0.34147894,0.61480224,0.20455186,0.09324419,-0.11964807,-0.24806729,0.3600281,0.36278382,-0.26635426,-0.45986366,0.5442565,0.47052243,-0.6303882,0.40686983,-0.20931306,-0.1007182,-0.38916534,0.44876215,0.0735265,-0.3335508,-0.15469974,0.938465,-0.26068446,-0.17526957,-0.034979723,0.14158925,0.24859574,0.1164791,-0.16589364,-0.12591977,0.39905432,-0.0344205,0.1654318,-0.32477275,0.5889337,-0.08100096,0.036352396,-0.29182348,0.83110934,0.12739946,0.25153154,-0.08063285,-0.292961,-0.19696294,-0.25161895,-0.24996167,-0.016970951,0.004305041,0.10764253,-0.5496656,-0.3984557,-0.057916448,0.019260148,0.004070572,0.17512201,-0.25795284,0.578321,0.13932736,-0.13211836,0.38730407,0.29704103,-0.40057787,0.025060933,-0.52111316,0.39584637,-0.3915818,0.31763303,0.3759568,0.17815113,-0.017662963,0.4073563,-0.18568264,0.1259477,-0.86947066,-0.011004897,0.25414637,-0.28726777,-0.4337367,0.15941145,-0.014976513,0.25814903,-0.28321493,-0.13138977,0.38294542,0.14625932,0.4603937,0.22925624,0.3633564,-0.07207165,0.26184496,-0.66010755,0.14772247,-0.08130938,0.007394091,-0.26720598,0.21865383,0.03234697,0.34940228,0.27833283,0.07606057,0.24412146,-0.3628368,-0.24440683,-0.25496572,0.19852827,-0.5819656,-0.12720719,-0.17066824,-0.00890399,-0.1655692,0.3469432,0.025020052,0.39350712,0.34198076,-0.2861819,0.3178576,-0.42088515,0.68739367,-0.09300838,-0.35792026,0.84113425,0.002328828,-1.0852841,0.08755602,0.2862629,0.66365105,-0.21381487,-0.05856212,0.026996393,0.047352273,0.1443423,-0.038781382,-0.3220541,-0.22381724,0.097029276,0.38488734,0.1632545,0.26896673,0.25196627,0.06592327,0.18360017,-0.12481912,-0.6112944,0.3002699,-0.25657043,-0.785284,-0.14155097,-0.14371973,-0.15076382,-0.44823802,-0.22989097,-0.45515877,0.37352163,-0.37642848,0.3733441,-0.00056567,-0.007202531,0.6330777,0.40861395,-0.52321875,0.19465622,-0.3086985,0.09477732,0.053606994,-0.12599099,0.54783547,-0.051022407,0.16340065,-0.5827967,-0.11991993,0.58568215,0.057742663,-0.11862221,0.8645197,-0.0973648,0.12551804,0.115323775,-0.3349111,-0.12866803,-0.2688079,0.033271514,0.10411437,0.6345144,0.19599533,-0.64692813,-1.1494104,-0.16083881,0.3121833,0.07982764,-0.19881293,0.7009041,0.2719804,0.23977122,0.43212026,0.10250564,0.09679458,0.3239736,-0.00156422,0.34772295,-0.28799987,0.5490347,0.23969898,-0.28395432,0.29888108,0.34400746,0.5647091,0.09895211,-0.07629826,0.21951629,0.20648545,0.19525342,-0.39821804,0.023652062,-0.096757926,0.58887506,0.37822798,-0.5192211,-0.3019799,0.47117558,0.7827401,-0.17714569,-0.48732954,-0.11045123,0.28298655,0.7824759,0.19429983,0.26293075,0.33438945,-0.30581897,-0.41237786,0.09339082,0.5084491,-0.13686231,0.24154036,0.09464727,-0.28045833,-0.8216004,0.054514036,0.39483088,-0.78325987,0.27126753,-0.067153655,-0.39188895,0.1354835,0.53322035,-0.4806902,-1.0779792,0.1450359,-0.05985163,0.682897,-0.069397435,0.13483983,0.09044555,0.66861475,-0.5421616,0.3695507,-0.13673037,0.3185035,0.40048707,-0.40654546,0.07469953,0.09935211,0.23895217,-0.53788495,-0.94794065,-0.555865,-0.2899428,-0.106932096,-0.5812491,-0.31588513,0.23754463,0.17743525,-0.011413678,0.3777629,-0.060535755,0.020280506,0.30423903,-0.099170804,-0.19590124,-0.28759655,0.007899693,0.004431516,-0.28971303,0.4590743,0.09036212,-0.23683041,-0.34229344,-0.19418953,0.7469745,-0.14191385,0.057088763,-0.34388307,0.033885386,0.44748425,0.98470867,-0.42376414,0.058355406,0.54051447,0.25679713,0.64385545,0.06141137,0.43108916,0.5090225,-0.45923486,0.01710459,-1.1434414,0.55755556,0.21995828,-0.122072116,0.0978308,0.39209267,0.48948404,-0.56848127,-0.013252284,-0.10345178,0.120730855,-0.7724534,-0.75304526,-0.29088563,0.23561253,0.45957473,0.27808297,0.003052544,-0.49204248,0.13655934,0.06558463,0.45110765,0.15758505,-0.16786548,-0.11625815,0.36475295,0.2417195,0.07512939,0.68992203,0.13140124,-0.62707627,-0.5109429,-0.08426516,-0.8841396,-0.6753801,0.009862457,0.25427634,-0.92493963,-0.10370146,-0.4140824,0.15023157,0.06705673,0.17625289,-0.039993495,-0.393448,0.006866724,0.45765615,-0.11917343,-0.22093852,0.39264992,0.2636397,0.12379335,0.3272293,-0.17808087,-0.33321777,0.1767181,-0.3093109,0.4516871,0.27257597,-0.03903336,-0.19727677,0.19459239,0.20547809,0.087176636,-0.16061853,0.28729555,0.22165811,-0.18493885,0.32121277,0.019369852,0.006903695,-0.30373943,0.012222538,-0.66005445,-0.17421515,-0.030582566,-0.52172613,-0.115428135,-0.14729844,0.12121792,0.29156724,0.18535389,-0.31843612,-0.36333483,-0.21043685,-0.116334066,-0.1732099,0.70429003,-0.05019863,-0.015790934,0.17408627,0.3354805,-0.5317662,0.05951148,-0.3184312,-0.9379767,-0.112379,0.42481995,0.19934332,0.028043196,0.33932146,0.8001427,0.1189782,0.5757558,0.033354055,0.51999664,-0.5071156,0.34760085,-0.30582118,0.2425629,-0.044609807,-0.48337558,-0.054333583,0.118770674,0.51745546,0.352276,-0.19609158,0.45619392,0.03843046,-0.1552331,-0.28642678,-0.2696312,-0.5039217,-0.29057282,-0.007277168,0.049257383,0.21098179,0.6121294,0.72658336,0.17569175,-0.5567585,-0.2617851,-0.0962912,0.18179414,-0.32779944,0.4776724,-0.5448371,-0.40992722,-0.02624253,-0.29946846,-0.4849076,0.34439236,-0.051974483,0.15678793,-0.6550045,-0.009959975,-0.062017232,0.55292434,-0.1272743,-0.73596,-0.4294209,-0.00583715,-0.46206823,-0.67055875,0.58138275,-0.21230628,-0.07227733,0.42329088,-0.3088827,0.2266938,-0.23749013,-0.0296848,-0.018727621,0.22943346,-0.30859488,-0.2590006,0.4665076,-0.026699873,-0.16278344,-0.14919531,0.007769287,-0.0988584,-0.19922915,-0.8588208,-0.11521998,0.18037368,0.04428159,0.03624409,-1.0199246,0.25135034,-0.3518731,0.12015112,0.015257833,-0.25485152,-0.005050834,-0.3589459,0.062214036,0.05062896,0.44225726,0.555249,-0.014470463,0.19490165,0.22069427,-0.10688197,0.000989601,0.12781006,0.47358763,0.25639772,-0.22870511,0.17337096,-0.5953988,0.18304195,-0.1645298,-0.23831576,0.6099889,0.055762656,-0.16064036,0.12310085,-0.93821824,-0.079261035,0.12484417,-0.007822242,0.29412857,0.33541307,0.20466144,-0.16845755,0.222467,0.29248667,0.29039884,-0.3482578,0.41865104,-0.11477708,-0.0874507,0.6179687,-0.053099304,-0.09201127,0.8327278,0.26023605,0.033184905,-0.72163635,-0.030183068,-0.32901207,-0.22326748,-0.013993272,0.46965364,-0.30885965,0.20369157,-0.33502993,-1.0726255,-0.5718023,0.029111,-0.037005313,0.12052366,0.22541647,0.15864033,-0.1973173,0.57078284,-0.6280727,-0.07074642,0.21160094,0.23848529,-0.15575916,-0.1561185,0.22710818,0.37701613,-0.52912986,-0.59167004,0.29501364,-0.7542763,-0.06894208,-0.20264472,0.58892596,0.1577458,-0.55866003,0.3739564,0.38991886,0.004013491,-0.25234228,0.050393794,0.16325167,-0.22725618,0.29304558,0.57480276,-0.020805191,0.05557767
Yellow,0.5260429,-0.2972923,0.24761997,-0.30886024,-0.108791925,0.35887942,-0.15730366,0.27412656,0.032090593,-0.001679253,0.29585615,0.437814,-0.66153115,0.3949966,0.15032104,0.053983837,0.4202399,0.087653585,-0.18774855,-0.22501631,0.09221601,0.10641209,0.17520393,-0.038427465,0.01997746,-0.15442438,0.12904307,-0.087685995,0.25626948,-0.43898168,-0.13743897,0.43784338,0.21816614,-0.063264206,-0.006016661,0.54425865,-0.38732842,-0.004205047,-0.32982603,-0.2192453,-0.43192473,-0.2950112,-0.16755167,0.2154719,0.26561865,0.31466708,-0.37645128,-0.2220399,0.34780893,-0.25430042,-0.33477062,-0.22813793,0.28456202,-0.24288438,0.14116146,0.20397486,0.21130593,-0.16177604,0.111729965,0.050354872,0.005912849,-0.121658005,0.20641448,-0.19765233,-0.13796507,-0.25393957,-0.43213412,-0.032510474,-0.45763963,-0.63370085,-0.2208499,-0.063718505,0.4058284,0.14022972,-0.3116084,0.4145793,0.3697932,-0.6313635,-0.45454884,0.74819624,-0.5521057,0.33586052,0.039321985,0.30121037,-0.21707194,-0.08336639,0.014364292,-0.44171873,0.41808924,-1.3280886,0.18498845,0.07786744,-0.056213286,-0.08190096,-0.23750482,0.8843562,0.13148586,-0.03813498,0.49506444,0.19178534,-0.035898447,0.56542355,0.09438933,-0.7610027,0.3108823,0.23670019,-0.21459973,0.58518153,-0.4521458,0.49455747,0.7190744,0.18953492,-0.1141463,0.27790585,-0.2299409,-0.6377443,-0.36721712,-0.43138474,-0.30136448,0.009808071,0.44047028,-0.23821983,0.6898185,-0.23119286,-0.30121014,-0.8696944,0.2300714,-0.37568521,0.42153746,-0.07653756,0.16124901,0.46236506,0.17525753,0.07465356,-0.5599219,-0.13603602,0.097386114,0.35430744,0.45894733,-0.4071115,0.47046614,-0.14142007,-0.35819584,-0.10999795,-0.031079704,0.033723917,-0.17786081,0.63193506,0.1287298,-0.033051286,0.0804268,-0.15351419,0.45290652,0.2775579,-0.061028045,-0.6311312,-0.3268629,-0.22849926,0.004078572,0.5302402,0.39790592,-0.18253721,-0.29560688,0.6561727,-0.012291241,-0.12305241,-0.12678279,-0.26108778,-0.49312025,0.14607628,0.20517187,-0.43806568,-0.5260048,-0.21801034,-0.044068787,0.1051225,-0.20993093,0.39906365,-0.37923536,-0.26494858,0.15345122,0.12785183,0.21541817,-0.19418554,0.13342486,-0.38201874,0.0819155,0.08200048,0.4595263,0.58623266,0.11084008,0.5116702,0.10074137,-0.42464513,0.15182915,0.21477674,-0.14386594,-0.4096108,0.6122518,0.3306656,-0.46942902,0.337226,-0.08944912,-0.18706253,-0.46789238,0.6809617,-0.039091896,-0.37259743,-0.09345512,0.945419,-0.40045503,-0.06647294,-0.030196661,0.10141915,0.05971682,0.12437951,-0.21599984,-0.18115295,0.29550081,0.12364415,0.19601493,-0.5293697,0.3111472,0.07706607,-0.28749296,-0.010337921,0.5367573,0.112087786,0.13520081,0.034333844,-0.114162095,-0.11344411,-0.35824165,-0.26575992,-0.023932977,0.000353945,0.10334754,-0.468855,-0.41720632,-0.19107573,0.003258531,0.18523228,0.16389132,-0.2677341,0.78646046,0.26265642,0.10689519,0.21237694,0.35435733,-0.21394332,0.30787465,-0.37915972,0.02601111,-0.29181716,0.575662,0.20775178,0.002172439,-0.027006654,0.31176645,-0.1443275,0.084021084,-0.85701066,-0.054874953,0.6262177,-0.2663572,-0.21899946,-0.10496924,0.015321337,0.019648755,-0.22402216,-0.24610826,0.26244208,0.21560144,0.4537623,0.21382959,0.37050322,0.22716549,0.25875735,-0.49537548,0.12460951,0.009268032,0.1539091,-0.003575167,0.326762,0.053852554,0.19177581,0.45584154,0.1878194,0.52344394,-0.41155267,-0.115726896,-0.35006374,-0.08956759,-0.10455084,-0.27288076,-0.3849799,-0.04419806,0.19269857,0.079091735,-0.12619652,0.40721655,-0.09999084,-0.12884592,0.237491,-0.5917529,0.5183496,-0.019157222,-0.40707403,0.7735912,0.15205845,-0.9841687,0.410698,0.12554833,0.564494,-0.08657296,0.030289678,0.08605981,-0.017986823,-0.1489097,-0.13353996,-0.36924592,-0.19653961,0.25532702,0.2946739,0.04544913,0.4236424,0.33308196,0.2520152,-0.13702933,-0.41689268,-0.49573418,0.12449636,-0.08415767,-0.5871324,-0.16729133,0.027851343,-0.21182929,-0.44807264,-0.20158243,-0.34904125,0.47505927,-0.34696934,0.45844182,0.08539001,-0.3652485,0.8089804,0.5324596,-0.74525225,0.065219924,-0.28517509,0.28372633,-0.07472013,-0.082150705,0.56679714,0.05081108,0.028856676,-0.6443543,-0.046528343,0.16415966,0.17006847,-0.15693916,0.8718348,-0.33143944,-0.17333291,-0.12778176,-0.17478153,-0.1524826,-0.113615826,0.18368225,-0.17354095,0.39595547,0.42468253,-0.7294224,-1.3869392,-0.20697899,0.4124836,0.19158325,-0.1608103,0.5289279,0.16310917,0.19002247,0.4131441,0.059957128,-0.029786091,0.10571573,0.038875066,0.5449708,-0.40450326,0.5533952,0.1917442,-0.46896076,0.2956986,0.20246755,0.45428753,-0.18627596,-0.3238571,0.2460405,0.08631039,-0.08740259,-0.32470724,0.40846437,0.022617469,0.38764516,0.5454622,-0.5907938,-0.25508577,0.71793365,0.72888225,-0.13983355,-0.4807913,0.14605986,0.34722558,0.9857445,0.000148637,0.34993404,0.526607,-0.44224826,-0.25818676,0.19725943,0.6343853,-0.01784122,0.05908349,0.31592184,-0.3213748,-0.66086257,0.098999724,0.10522979,-0.9925927,0.3992877,-0.28944167,-0.18336852,0.020322308,0.4235565,-0.6214691,-0.9270893,0.10802478,-0.059225507,0.6669601,0.06932115,0.16777286,0.16139813,0.6351071,-0.69840175,0.32467577,-0.2683892,0.305836,0.6486716,-0.5646023,0.1298638,0.04544177,0.43433672,-0.6716269,-0.8815985,-0.571507,-0.3433356,-0.19405545,-0.19568968,-0.38248035,0.29066986,0.08611034,0.047409665,0.3472603,-0.08237783,0.05049875,0.28571016,-0.15160653,-0.018141452,-0.51259166,-0.025591983,0.042500865,0.09161706,0.451036,0.15777826,-0.1684855,-0.7928599,-0.291995,0.5788406,-0.21446005,-0.2232759,-0.23257475,-0.041881766,0.4480035,0.83514315,-0.4479126,-0.26334912,0.5286263,0.20575061,0.52217597,0.24546184,0.41711822,0.3568152,-0.22896485,-0.11249959,-0.9998971,0.27882954,0.3472276,-0.08751918,0.08089239,0.15421884,0.5023327,-0.21141608,0.109221265,-0.060268167,-0.00103072,-0.54300034,-0.78613466,-0.33678848,0.015390029,0.3705006,0.00671547,0.12607144,-0.5823838,0.045342434,0.08315276,0.25477365,0.06247264,0.14969356,-0.062151395,0.27211398,0.14880063,0.31231126,0.60624,0.3274589,-0.73686105,-0.37545604,-0.19424097,-0.7706784,-0.7383612,-0.13564722,0.3239696,-0.7886637,0.17778206,-0.5691434,0.42681694,0.035069466,0.21746792,-0.21873845,-0.68497574,-0.044951014,0.3948829,0.044437952,-0.29502922,-0.047818296,0.23255973,0.21364954,0.42999458,-0.49216005,-0.3904051,0.26723817,-0.26794595,0.32875228,0.1445473,0.1849546,-0.15029478,-0.06368877,0.06178964,-0.10415227,0.012896672,0.29137704,0.20539524,-0.37067905,0.3943448,-0.2682601,0.025332224,-0.2053062,0.050175983,-0.53830206,-0.11830098,0.23238039,-0.18094198,-0.030063184,0.03344359,0.19983657,0.4068699,0.07276589,-0.34684023,-0.24610187,-0.08117075,-0.19674613,-0.31578198,0.30252212,-0.21226858,-0.15741432,0.419734,0.22121005,-0.44801039,-0.2154578,-0.26823255,-0.84619516,-0.0762042,0.34518075,0.026047012,0.15918846,0.58224666,0.7001907,-0.20544915,0.4909018,0.116059445,0.37209362,-0.64570946,0.007346907,-0.10378105,0.11447103,0.119411945,-0.56856143,0.03311821,0.19955018,0.57439506,0.19605385,-0.18050377,0.4191358,-0.0028751,0.011592305,-0.24531488,0.13733993,-0.7377905,-0.26864585,-0.070718326,0.021071494,0.2202472,0.44092897,0.7467569,0.17890224,-0.3850556,-0.070693396,-0.18590736,0.40942365,-0.28985265,0.0441268,-0.47007814,-0.24784684,-0.2532369,-0.11774851,-0.30621037,0.16734995,0.17656682,0.10358137,-0.5261904,-0.21588413,0.016054451,0.20803234,-0.1070269,-0.67452633,-0.5378762,-0.01739088,-0.4413422,-0.76308537,0.42404777,-0.45056844,-0.001977947,-0.101229005,0.021638181,0.17939794,-0.26627773,-0.096227534,0.041947152,-0.027096689,-0.2971677,-0.07718812,0.6422778,0.12375278,-0.027020616,-0.21698901,-0.10911315,-0.09484541,-0.24897562,-0.66987765,-0.13326778,0.2039613,-0.06765104,-0.006362055,-0.9144087,0.14153895,0.07022093,0.2392516,-0.11503314,-0.27518103,0.018208144,-0.043026663,0.101422526,-0.088690095,0.55962884,0.55930287,0.32563964,-0.034148294,0.39385062,-0.10564404,-0.09182827,-0.19078003,0.50512165,0.42502484,-0.16372822,0.1836036,-0.63795424,0.071465604,-0.29779243,-0.40139443,0.59637874,-0.020934764,-0.28885984,0.14910603,-0.89008236,0.19601549,0.29056668,-0.08741733,0.18001702,0.36199227,0.2587451,-0.1606784,-0.049470957,0.21157895,0.2505415,-0.5198769,0.78679335,0.029715793,-0.04838865,0.7584796,0.06542756,-0.31793872,0.63197005,0.12634932,0.056561273,-0.5265723,-0.07818806,-0.3929846,-0.31946096,0.013442948,0.4984186,-0.43356153,0.25889954,-0.14176235,-1.3714097,-0.56474316,0.19101766,-0.05948337,-0.015045701,0.07363839,0.07061786,-0.18073587,0.56772333,-0.7425208,0.07635147,-0.034212142,0.19153883,-0.049394492,-0.13759644,0.32410744,0.45407268,-0.21758363,-0.5424174,0.28644183,-0.9376489,-0.19224358,-0.29372075,0.6032401,0.2856129,-0.47433156,0.21125057,0.41505143,0.09237494,-0.64924586,-0.23208119,0.441894,-0.10599213,0.45536527,0.51476926,-0.023793314,-0.122711755
